tree
version=v4
num_class=1
num_tree_per_iteration=1
label_index=0
max_feature_idx=2
objective=lambdarank
feature_names=mfcc_norm_mean_dist mfcc_norm_min_dist mfcc_norm_centroid_dist
feature_infos=[-0.94851146721590318:1] [-0.96410519256675242:1] [-0.4381629183539727:1]
tree_sizes=14145 14167 14203 14089 14136 14144 14135 14127 14106 14160 14133 14103 14145 14139 14184 14095 14106 14080 14104 14129 14096 14062 14155 14090 14014 14048 14013 14040 13992 14030 14003 14005 14028 14149 13959 14059 14024 14008 14116 14055 13982 14065 14052 13974 14113 13979 14100 14036 14064 14048 13934 14009 13997 14041 13974 13992 13924 13909 13971 13966 14122 14040 14057 14029 13891 14013 14036 13974 14056 14052 13999 13996 14048 14008 14060 14031 13963 14097 14052 14132 14022 14001 14059 13990 14080 13967 13996 13977 14020 14002 14097 13974 13971 13996 14053 13976 13954 13941 14085 14021

Tree=0
num_leaves=127
num_cat=0
split_feature=0 2 1 2 2 1 2 2 1 1 0 2 1 0 2 1 2 2 1 2 1 2 2 0 2 2 2 2 1 1 1 2 2 2 1 1 1 1 1 1 1 1 1 2 2 1 0 0 1 1 0 1 0 1 0 0 1 0 2 0 1 1 0 1 0 2 1 2 0 2 1 0 1 2 0 1 0 2 2 0 2 0 1 1 2 2 0 2 2 0 1 1 2 0 1 2 0 0 2 0 1 2 0 2 0 0 1 0 0 2 2 1 2 2 1 1 2 0 1 2 0 0 2 1 0 2
split_gain=6785.22 1529.63 1971.03 904.383 863.46 635.963 1035.01 682.046 617.384 469.464 345.549 316.334 613.165 312.142 296.335 557.135 295.326 265.476 289.161 239.537 141.182 135.379 108.698 102.815 93.6497 92.7042 91.2214 86.8807 143.719 82.8744 71.4556 68.5979 67.9992 64.8906 61.4713 61.2712 58.4224 58.1912 57.3852 56.5986 53.3574 53.0639 56.0952 48.0816 43.21 47.0929 42.9408 42.5709 40.4481 39.8375 83.289 38.2559 36.8028 36.0904 35.5396 35.0848 34.5741 34.2362 33.6026 30.7417 30.4604 28.8939 26.5322 26.4889 26.342 26.0059 25.1175 25.108 24.5276 24.0009 21.6739 20.672 43.3758 28.9124 20.2414 25.6386 20.1797 19.4732 19.4093 18.7974 19.4998 18.7808 18.6577 24.424 19.6568 18.4461 23.6623 20.7494 18.6836 17.8937 17.6684 17.8506 17.5999 17.572 17.294 17.7114 17.1519 16.9666 22.2153 22.3145 16.3319 15.897 15.5465 15.3613 30.4823 15.3197 45.1559 15.1903 15.1753 21.3732 14.9713 14.6505 21.7491 14.801 14.5794 14.4749 14.47 14.5449 16.6309 14.3831 37.4995 14.3415 14.3239 14.2099 14.0944 17.1395
threshold=-0.005340357206724349 -0.28601930360984423 -0.24630673941802625 -0.22993912075473577 -0.20072230173162242 -0.13036320032404577 -0.10025920250119799 -0.15986916107251428 -0.017459182647068399 -0.4807717121566597 -0.013239606673494149 -0.36569058307681451 -0.4807717121566597 0.0086554705750153029 -0.1464784144354013 -0.055395742008837845 -0.12993153369678698 -0.079352586742897788 -0.055395742008837845 -0.33641659882246772 -0.74499341536842822 -0.026885017245672899 -0.18243870196146031 -0.17308892228930198 -0.26675392187428931 -0.18939527439499718 -0.11527880188753729 -0.42796333611014187 -0.74499341536842822 -0.4807717121566597 -0.2208837783710744 -0.047208380983194194 -0.40391977942515445 -0.10626765577538949 -0.74499341536842822 -0.23193092615531155 -0.47503063369758042 -0.23532720253242873 -0.68082570368023165 -0.1118389438580132 -0.4776136231999602 -0.71973582716845297 -0.67419043572212012 -0.089994859345020189 -0.070506994918398083 -0.049300380913667445 -0.68907001975204396 -0.0036790539370661498 -0.013254426024038849 -0.71326667829334389 -0.54586058889992572 -0.94527888549880568 -0.61106258932184643 -0.41274546654790095 -0.46155281157305555 -0.10593424940744904 -0.71528689403269585 -0.067482362819015887 -0.38068604684451562 -0.36501677692120632 -0.95148568514851484 -0.45775172826683003 -0.64057316246825502 -0.21710813904101298 -0.056526419005703994 -0.30316363902933763 -0.95445311773971186 -0.27557548952950955 -0.77440736441515623 -0.13128562515983497 -0.052111692248527887 -0.48104341822092328 -0.71210918143295288 -0.31631712285803515 -0.40060345536510927 -0.47358294713267474 -0.097949690084494181 -0.37238619392362943 -0.3985026550475933 -0.039172405797386442 -0.097692809065387978 -0.11400273238701593 -0.11132644924822394 -0.11496029147994789 -0.084849691947304337 -0.16657956874767102 -0.13473106311594013 -0.17678425853497282 -0.18064596492564058 -0.22326184816924685 -0.11132644924822394 -0.1118389438580132 -0.084849691947304337 -0.027488108492816649 -0.70038134141707997 -0.35360228259485899 -0.0042290836711014494 -0.2413112738384128 -0.21373288041107794 -0.19635331993367031 -0.64853623378870073 -0.29009269770597285 -0.54586058889992572 -0.25706278892402629 -0.23475332444306465 -0.31367436987754188 -0.46851847567513721 -0.47104649869892196 -0.033025581655028044 -0.09394744633189038 -0.15541899661049188 -0.94267036117525882 -0.35094276477896025 -0.35630246018258604 -0.95964549180625391 -0.05333623408881704 -0.19107602987143713 -0.17952745985470456 -0.22668930446942973 -0.21519476118363043 -0.20640555884427803 -0.10825568198544869 -0.21082301999604522 -0.054018792523380398 -0.63068056909053971 -0.35630246018258604
decision_type=2 2 2 2 2 2 2 2 2 2 2 2 2 2 2 2 2 2 2 2 2 2 2 2 2 2 2 2 2 2 2 2 2 2 2 2 2 2 2 2 2 2 2 2 2 2 2 2 2 2 2 2 2 2 2 2 2 2 2 2 2 2 2 2 2 2 2 2 2 2 2 2 2 2 2 2 2 2 2 2 2 2 2 2 2 2 2 2 2 2 2 2 2 2 2 2 2 2 2 2 2 2 2 2 2 2 2 2 2 2 2 2 2 2 2 2 2 2 2 2 2 2 2 2 2 2
left_child=1 11 3 9 37 7 14 22 17 41 31 27 19 21 55 16 39 18 82 20 52 -2 23 116 59 29 57 114 32 -5 -9 -10 66 115 107 121 65 89 71 -16 -26 51 -43 70 45 -19 60 96 -12 124 94 67 -13 105 -40 -7 -30 90 -48 -11 -34 -31 77 -25 -28 -14 -29 -3 -68 76 108 72 -36 -73 75 -38 -32 -58 -62 80 -72 97 83 -8 -85 86 87 -37 -88 -4 91 -18 -84 -47 -51 -96 -23 -63 99 -99 -56 -76 -60 -69 -105 106 -42 -21 109 -20 -78 113 -113 -54 -1 -17 117 -6 -119 -39 122 -24 -121 -35 -22 -126
right_child=13 2 4 25 5 6 8 30 10 24 48 12 36 -15 15 33 26 44 43 34 49 47 35 63 40 -27 64 28 56 61 69 -33 46 123 38 85 74 119 54 -41 53 42 -44 -45 -46 93 58 -49 -50 50 -52 -53 111 -55 100 -57 62 -59 102 -61 78 81 -64 -65 -66 -67 68 103 -70 -71 79 73 -74 -75 101 -77 110 -79 -80 -81 -82 -83 92 84 -86 -87 88 -89 -90 -91 -92 -93 -94 -95 95 -97 -98 98 -100 -101 -102 -103 -104 104 -106 -107 -108 -109 -110 -111 -112 112 -114 -115 -116 -117 -118 118 -120 120 -122 -123 -124 -125 125 -127
leaf_value=0.13650618574654341 -0.16076772467220476 0.014837373727335063 0.15913432428939142 -0.15012580342755968 -0.070477026408268958 0.14543495795863157 -0.20000000000000001 -0.076194621183871783 0.093227288654698995 -0.015130281155051101 -0.17349896282471111 -0.10866399332722582 0.13708183841542584 -0.1879541188535816 0.073068589907301598 0.13258085951588158 -0.035663700272027081 -0.11464795449252117 0.048704145855604231 -0.098752749276584617 0.011849195155297521 -0.06740999094415942 0.0079432446471877031 0.054097824413468179 0.077411748224381141 -0.16547884409657071 -0.15026840744126246 0.091903499166232097 0.12320975612385442 -0.053317544114851338 -0.15885398948606888 0.044087139785802615 0.022681669115655792 0.1308130634998618 0.013390543669042996 -0.035579326654754564 0.089895656026591567 0.1085678408556051 -0.19640178414742659 0.023127117615865889 0.017977350397395217 -0.050692442043625108 -0.1347143988750453 -0.020543605426874726 -0.11384613832167312 -0.10384634762864411 0.07373460671896348 -0.10026014783350908 -0.015722054811427567 -0.020633801054041414 0.073833466200482964 -0.16144817110950416 0.04501893651505489 -0.18069239980054932 -0.014571616663131452 0.10046612479455928 0.045191796605038664 0.0082635509356426759 0.030433269053716468 0.050662564564995197 0.025028320866344256 -0.19660273565310038 0.081741254266174346 -0.024985936137363773 -0.068726458681780844 0.10057310478374465 -0.018172162087144238 -0.18497942177620805 0.071889839815761858 -0.16593191389439357 0.021347551037247742 0.039413840262079676 -0.10053566024868253 -0.0086735747001973253 0.093857836613504497 -0.018999285668521201 0.018922459507650174 -0.18014848471316797 -0.10677679145736868 0.027011390769960914 -0.048561349762941242 0.15011961073308241 -0.1000273698086722 -0.061113446004478524 0.1093781997952301 -0.090440653689475015 -0.20000000000000001 -0.11979598273112509 -0.0072840760367431914 0.1137849250075726 -0.071951996391641113 0.12822457399605361 -0.16139102127451296 -0.027778515336364436 -0.021978516122752027 -0.20000000000000001 0.005686800776840974 -0.10176293019276222 -0.12682046713693124 0.020842752901384126 -0.16444634319776211 0.035350438638714517 -0.057240347803904329 0.064444225988368534 -0.14690322154827201 -0.013596950925869607 -0.1436872597210099 -0.047540908973664253 0.098724690621700015 -0.071050484385669369 -0.10553577101493082 -0.11309050934069563 -0.0030192371590393686 -0.010476999156666699 0.09047464150331784 0.10021845554640092 -0.14161323513690852 0.031129340975020181 -0.13881232912323307 0.037142271520831098 0.083325141765801358 0.084453325033541526 -0.057085019059075683 0.070748864116904939 0.097759447141073944 0.064036465962824696
leaf_weight=368.5141199056452 409.67359987051532 22.411153851018753 116.28906897128036 302.52501531345843 63.308530782389425 243.26864584616851 7.2290495667257337 234.36828126594992 471.19824230920858 83.195831734148669 16.553735170455184 37.397748162355128 335.89480423511122 1402.5720357700302 423.69199950102484 379.732673006798 22.228953893805738 133.30473081459786 121.99240823171567 74.925245410107891 33.575186644051428 75.748739427970577 106.75353762216037 521.85556089671445 57.519682533718878 553.62238873203751 47.129296316350519 546.54640976423252 646.95059172097172 195.92129396913515 81.777718036199076 715.35408174269469 117.7281705631176 42.220385438835365 83.700338697213738 65.826699791148712 36.87094584825536 157.39134112648753 22.661625818276661 488.63268485727895 34.168450588855194 295.75481459638104 108.64832575137189 444.45608182255091 451.21272826524728 36.080109120128327 292.82168482524139 509.50831102067241 880.93798136992336 76.65906896568049 156.32700139224471 155.49471122760224 79.31261014266056 14.249071126047054 37.457528062430356 604.94029933380807 8.0436830208345764 309.80390782371614 170.828036490675 485.19091641165141 15.813134561263722 20.700543864175415 76.408530126969708 46.094559750446933 248.55812909283486 465.50299021250612 43.101025714640855 18.43691395525093 101.33512235270609 239.62499592375752 73.308588723913999 214.02994332000526 55.632142145892431 300.68888136878377 211.02586344007432 52.275413455685339 10.502031339434323 7.3293221817002623 38.06931258244731 253.25069849827923 87.549530518161191 2.7947531462996258 225.56058103200485 17.199629736016504 11.144078841374723 95.059595266749966 5.2044582913113109 52.659189292331575 150.65961136461556 345.54242197105486 103.81430940623977 9.4803761415823846 58.956793461053167 191.82410793992312 10.131102649320384 12.464467057536238 55.709148148791428 36.962148734564835 115.48463339285809 24.807493425381836 9.0220100534497742 59.543674361149897 22.941410364001058 10.85554984258488 18.376296481736063 509.07789819116806 34.950942640243738 255.18805688708744 49.147322069242364 16.977477996930247 121.30475970722546 26.593557601576322 55.23800413646677 121.95571013145673 84.602929803870211 217.29624581710959 16.075072439823998 36.824204687683959 6.8260652352037132 56.60854626946093 627.24940413775039 31.796817569149425 22.562944569988758 587.027682283795 262.27093671948751 354.31641885146382
leaf_count=18160 96740 2904 3468 70660 10188 11596 1832 41276 37468 12204 3780 8532 15508 354444 38308 18452 3400 26760 12308 16964 4064 15156 13496 49320 4600 130636 11384 44132 34808 31540 17236 80132 15664 2224 10072 9424 3180 8888 5736 57900 4212 50108 23256 64836 91236 7456 25568 109312 135596 9852 14512 39644 8412 3612 5360 41776 792 38748 20368 47556 2260 5608 5896 6488 42560 32444 6676 4728 9152 56564 9248 23592 10260 43416 15668 7700 1320 1488 9064 30024 15544 100 43392 3028 752 16880 1428 9956 20544 19396 19884 520 13220 28872 1536 3112 7496 7200 24052 2668 2156 6068 4020 1152 4284 70144 8004 42972 3380 3044 24040 5508 8180 17568 6856 14192 3132 3668 1436 5308 46716 2040 3640 52036 17880 32396
internal_value=3.39396e-10 0.018996 0.00123889 -0.0693152 0.0207689 0.0105985 0.0229272 -0.0416246 -0.0107261 -0.0248552 0.0281876 0.0614596 0.041697 -0.157082 0.061414 0.046112 0.00823059 -0.0479407 -0.0210311 0.0115683 0.0416118 -0.115868 0.0039096 0.0297258 0.0113847 -0.134909 -0.0386649 0.088219 0.079605 -0.110703 -0.121023 0.0636015 0.0601913 0.097186 -0.0234079 -0.0312085 0.100847 0.09655 -0.00708631 0.0463204 -0.0145418 -0.0949418 -0.0732661 0.00440505 -0.0932118 -0.067436 0.0371891 -0.0871696 -0.0186322 0.0617959 0.0283465 -0.133802 -0.0154298 -0.0234694 -0.0937247 0.113363 0.115061 -0.0100751 0.0523577 0.0410323 -0.00582057 -0.0806372 0.0576246 0.0476794 -0.0817233 0.115875 0.0821023 -0.0724585 0.0450145 -0.144206 0.0228177 0.00207243 -0.0320975 0.0113221 0.0673661 0.0260397 -0.119831 -0.0622427 -0.0680953 0.0100314 -0.0167015 -0.1073 -0.104206 -0.0359269 0.00591985 -0.0524783 -0.0393247 -0.0730081 -0.0137191 0.125204 -0.0519968 0.0133352 -0.112743 -0.039821 -0.043296 -0.120181 -0.0364331 -0.110934 -0.100929 -0.0525229 -0.0436634 0.0809822 0.0200531 -0.1135 -0.0684172 -0.0195948 -0.06377 -0.0591644 0.0509647 0.0340741 -0.0956193 -0.00311345 -0.0387901 0.011392 0.127911 0.120802 -0.0531518 -0.0398567 0.00455372 0.0812304 0.0751396 0.025502 0.0102886 0.074779 0.0749451 0.0783808
internal_weight=22739.3 20286.1 14304.4 3101.15 11203.2 9877.59 7991.06 1886.52 4263.24 1848.33 2084.04 5981.69 3440.66 2453.21 3727.83 2879.62 1653.34 2179.19 1366.77 2279.55 1226.24 1050.64 1198.94 690.984 1218.35 1252.82 741.015 2541.03 2087.92 699.196 687.578 1186.55 1349.18 1226.28 1053.31 507.96 1161.11 1325.64 723.192 912.325 649.966 629.978 404.403 1046.68 812.422 361.209 658.202 640.966 897.492 905.744 255.582 225.575 320.498 592.446 69.1412 848.209 738.732 445.328 486.591 568.387 171.611 396.671 91.7815 567.95 295.687 801.398 690.983 70.0799 144.436 453.21 602.226 654.051 139.332 514.719 359.716 89.1464 213.585 15.373 53.8824 414.109 160.858 200.75 320.09 35.5728 28.3437 369.41 274.35 118.486 155.864 461.831 135.524 31.7093 284.517 227.904 99.2546 22.5956 131.458 197.955 177.254 61.7696 46.4795 270.57 193.769 47.6688 29.2318 578.197 69.1194 330.113 188.117 138.97 131.807 283.1 81.8316 201.268 453.117 597.029 123.034 106.959 43.6503 863.812 706.421 138.55 79.1715 629.248 650.163 616.587
internal_count=3050312 2467164 1889612 548872 1340740 1253324 964888 288436 611908 276408 256976 577552 372648 583148 352980 299608 212704 354932 200608 292080 131552 228704 148000 74232 150332 272464 116496 204904 179888 141828 140436 117600 136904 86904 160528 73768 80568 87416 100592 96208 90572 126076 73364 138384 154324 63088 76944 131964 139376 83352 29012 52712 48200 85972 13252 53372 42984 62552 49956 59760 26988 71168 8176 55808 53944 47952 59960 13068 15828 99160 73548 87340 20332 67008 32616 10880 42596 2280 11324 54816 24792 39628 62224 5612 3780 58232 41352 19380 21972 22864 23804 3920 56612 36328 14500 4648 22652 39528 33920 9868 7516 21736 24388 10164 5436 82360 12216 59936 18732 15352 25360 39668 13688 25980 25016 32644 18424 15292 5104 64552 55664 15536 8948 54260 54340 50276
is_linear=0
shrinkage=0.1


Tree=1
num_leaves=127
num_cat=0
split_feature=0 0 1 0 1 1 2 2 0 2 1 1 2 2 1 1 1 2 1 0 2 2 0 2 0 2 1 1 0 1 0 2 2 0 0 2 1 2 0 1 2 1 0 2 1 0 0 1 1 1 2 1 1 2 0 2 1 1 2 1 0 0 1 1 2 0 2 1 2 2 0 0 0 1 1 0 1 0 0 2 2 1 2 1 2 1 2 0 0 2 1 1 0 1 2 2 0 1 2 0 1 0 0 2 1 0 2 2 0 1 1 1 2 1 2 0 1 0 1 1 1 0 1 0 0 1
split_gain=3446.05 283.821 625.912 204.532 138.345 130.478 257.738 121.334 116.298 88.6187 1042.33 320.971 400.305 118.64 110.529 93.9325 78.9477 475.006 160.66 247.1 86.9528 78.4177 69.5576 75.6785 123.316 68.8278 67.1893 64.9922 61.6331 59.9702 79.6396 58.3017 53.6684 54.3109 51.4637 64.273 51.3747 53.5126 50.5453 47.278 216.199 127.012 93.8108 157.68 70.7643 59.1826 43.7086 40.6106 115.712 76.2835 62.6655 45.9809 40.0747 39.8831 99.0715 44.8033 39.6648 38.9101 38.5731 57.2392 36.8992 34.9922 40.1188 35.9179 33.3651 32.7264 70.1669 80.6016 80.8785 67.6027 52.7836 49.4433 39.8413 38.8935 38.0642 37.776 37.6026 110.019 39.2397 53.158 33.6743 33.6064 33.3123 54.6227 33.1135 32.5131 31.8589 40.7832 33.0209 31.6931 31.4711 45.5152 31.3682 111.38 65.0147 58.9413 49.0637 63.2483 30.7887 30.3858 30.3853 34.1618 30.2447 29.989 29.7563 44.9026 29.7356 29.7319 37.3242 29.5087 29.2795 33.2071 39.9982 28.5239 28.1018 31.7601 27.3582 28.9844 27.117 35.3079 27.0404 26.9268 41.0366 28.7064 26.7474 38.8487
threshold=-0.0036790539370661498 -0.039172405797386442 -0.055395742008837845 0.0075326174993469008 -0.96327402995621092 -0.016898340449052144 -0.089994859345020189 -0.023602117047064195 -0.015915459833090447 -0.28399827010811624 -0.4807717121566597 -0.24630673941802625 -0.21373288041107794 -0.21657680485501057 -0.23599758698921042 -0.47273153709079246 -0.13036320032404577 -0.15386793609780028 -0.11324633465035448 -0.096090438148224336 -0.18600744542610978 -0.097692809065387978 -0.16346076377651192 -0.20665409973929927 -0.19973559818887412 -0.2412491854845604 -0.051268652115279791 -0.2336069177026909 -0.10388342168602129 -0.23599758698921042 -0.17308892228930198 -0.14863180971724876 -0.43251931676146876 -0.8448890797334675 -0.043497320482800944 -0.10267371889143063 -0.020222301010568697 -0.073180056682635483 -0.17308892228930198 -0.74499341536842822 -0.35630246018258604 -0.72106380215398513 -0.65128288334546747 -0.37238619392362943 -0.71923393537953717 -0.67507720852462005 -0.8448890797334675 -0.11132644924822394 -0.055395742008837845 -0.094842593626440277 -0.13874318533041821 -0.054018792523380398 -0.72062205903738363 -0.15386793609780028 -0.10593424940744904 -0.14969957439215692 -0.11464064626279268 -0.88954681139981684 -0.15268847319423923 -0.11074321147127829 -0.66296264856676501 -0.34214549874473338 -0.47717027445404708 -0.47843616042554349 -0.046226663512287595 -0.58220801982383497 -0.35360228259485899 -0.4807717121566597 -0.32341050389310638 -0.36569058307681451 -0.46155281157305555 -0.51853370786954989 -0.40685446418933241 -0.71812935481538898 -0.70906769610064446 -0.45375823220984995 -0.47843616042554349 -0.4469866310544795 -0.45375823220984995 -0.30892859255572314 -0.3069182176798862 -0.47803924587439672 -0.37238619392362943 -0.72020882371681505 -0.30501445258460841 -0.11284665237165459 -0.24663671249669575 -0.34214549874473338 -0.25429961712210319 -0.29410093182016711 -0.11236483798470759 -0.1118389438580132 -0.8448890797334675 -0.96107307447085366 -0.42361968834671254 -0.42361968834671254 -0.70676740536954352 -0.96107307447085366 -0.11011354524610605 -0.66296264856676501 -0.96038524863351504 -0.75113795186773802 -0.56418930899237685 -0.37022799278864321 -0.96275196613035841 -0.75113795186773802 -0.14969957439215692 -0.40914208146223624 -0.81777180777821801 -0.10848957943860119 -0.22870086578889673 -0.23532720253242873 -0.20214349192617556 -0.053813715191389042 -0.25706278892402629 -0.34214549874473338 -0.11400760538314804 -0.11084575254409974 -0.055395742008837845 -0.05333623408881704 -0.71068358843533475 -0.56418930899237685 -0.70730777627618135 -0.53661268406215512 -0.4469866310544795 -0.47561413189705504
decision_type=2 2 2 2 2 2 2 2 2 2 2 2 2 2 2 2 2 2 2 2 2 2 2 2 2 2 2 2 2 2 2 2 2 2 2 2 2 2 2 2 2 2 2 2 2 2 2 2 2 2 2 2 2 2 2 2 2 2 2 2 2 2 2 2 2 2 2 2 2 2 2 2 2 2 2 2 2 2 2 2 2 2 2 2 2 2 2 2 2 2 2 2 2 2 2 2 2 2 2 2 2 2 2 2 2 2 2 2 2 2 2 2 2 2 2 2 2 2 2 2 2 2 2 2 2 2
left_child=1 4 -3 7 32 6 26 -2 36 39 25 12 15 14 -13 114 17 20 53 28 22 34 23 -15 -25 -11 -4 -22 58 30 -26 90 46 -34 35 47 37 -8 -31 40 57 45 43 44 -43 -41 -1 50 49 98 -21 -50 -45 56 55 -55 -18 92 -20 85 -54 62 65 -63 -7 74 69 68 71 121 -69 73 76 -68 82 -70 77 84 81 -80 -74 -78 -44 -84 -72 -60 87 -17 -88 -77 -30 -92 93 -6 100 -95 97 104 -49 -46 101 -94 -47 -62 105 -96 -56 108 -99 -93 111 112 -40 -23 115 -12 -58 -118 -37 -120 -73 122 -67 -123 125 -64
right_child=3 2 5 -5 9 64 8 -9 -10 10 11 13 -14 16 -16 86 18 -19 19 21 27 113 -24 24 29 -27 -28 -29 31 38 -32 -33 33 -35 -36 118 -38 -39 110 41 -42 42 61 52 99 102 -48 48 51 -51 -52 -53 60 54 106 -57 116 -59 59 -61 103 63 124 -65 -66 66 67 70 75 -71 72 120 80 -75 -76 89 78 -79 79 -81 -82 -83 83 -85 -86 -87 88 -89 -90 -91 91 109 94 95 96 -97 -98 107 -100 -101 -102 -103 -104 -105 -106 -107 -108 -109 -110 -111 -112 -113 -114 -115 -116 -117 117 -119 119 -121 -122 123 -124 -125 -126 -127
leaf_value=0.074733843541833711 -0.1405545639268958 -0.10990881622113641 0.047714159420589174 -0.1633799318248367 0.014216655829644084 -0.0021217945600425364 -0.037110512511306634 -0.048087053117351411 -0.106463861848845 -0.0805190809839023 -0.020426232477969306 0.080894031743714942 -0.11572482927436981 0.015612900742179255 0.018977570107100404 -0.068858424368928112 0.080408673717036971 -0.1110178108653625 -0.026877675256457147 0.048210895627247355 0.02298536663609382 -0.15130899949545745 0.035457437323114481 -0.14816243105892696 0.085359889022982083 -0.13877068641897045 -0.0056146544497041664 -0.036824040177837268 0.035995867247577883 -0.030498674176086905 -0.17218488239259419 -0.081313410156708843 -0.02044947042001441 0.04823287939683104 0.038073871697182446 -0.13755914484566914 -0.014972168164796219 -0.09825931112903552 -0.14119078981277458 0.094512591918600203 -0.057772352014642814 0.024830732834620898 0.027193553473858774 0.0036712913442917537 -0.020745368430440066 0.019161319625794832 -0.20877082435749394 -0.0041275049125419037 0.038650912005338295 -0.086506817442755735 -0.0075175708093084773 0.012962791747396547 -0.12136192324670683 0.0020710011923967988 0.055479361684891981 -0.1581204696949956 0.0087771536043555805 -0.13630152845509075 -0.076687646714524396 0.0031287174421486931 0.0013513720550877525 -0.038129560096099559 -0.076004155922984748 0.051744828379756427 0.014331741055854434 0.041584017782638941 0.029324054617225218 0.083777250796886388 -0.094473499014491799 0.063198887467355136 0.088150255966441993 0.0420504919450711 -0.20662821546366683 -0.045043891698041461 -0.083684192653108266 -0.0092053237945280419 0.0014324142069390719 -0.0088716420644071974 -0.20540553220704885 0.01471841884924157 0.045289668816533679 -0.096143719467839645 0.033425052173619262 -0.010278414202257015 -0.047917641700887012 -0.17152922567298615 -0.10692679344415978 -0.0049002392004782718 -0.035054243940599909 -0.084400464772642958 -0.13302362435921114 0.0097893258920879484 0.02577387497352478 -0.035990408151636948 0.0021223371415665989 -0.1634294940024712 0.019358311646660409 -0.094923416080523348 -0.09106594147791694 -0.11299505495946749 0.053868112817791663 -0.097924114580468291 0.10049965124038214 -0.088168561400201018 0.033147159156846344 -0.18571157910188468 0.029977534765457826 -0.054231415085653704 -0.0033889462513785559 -0.15025742436023967 -0.035108037772538674 0.044018365644129837 0.031680603842383297 -0.03879548308448625 -0.012861964049707976 0.040430875914109148 -0.15607310327701895 0.085773984017006699 0.035580338657864218 -0.042055187479147965 0.0024798011162263244 -0.052879023746726053 -0.19420809081009183 0.025420481966766426 0.0063928274748188425 0.052995841563443537
leaf_weight=439.62382007739507 260.67598353823996 605.64386905834544 477.92815334076295 1150.3816149236809 1083.6372240455821 2690.7530721431249 676.19838729224284 311.46148137701675 247.22198709155782 429.66191299271304 104.74475473916391 449.02651260443963 424.91793057587347 2779.8661073113908 805.53871434926987 119.21885534044122 315.82501043193042 361.13628038618481 75.065640196902677 684.05045195639832 247.05200641980628 27.507722861948423 1026.4531579834293 64.779997648380231 114.21863923012279 384.2242022738792 467.20289349195082 686.69019189506071 125.55940654370352 693.69536586862523 13.417110207257791 135.03065010276623 180.02841504197568 319.38792869314784 759.97961206245236 22.416365183715243 813.33243088342715 181.53415412540198 23.282248384086415 277.50830832938664 499.86492008855566 743.15282615963952 802.79244584497064 63.549216119688936 207.1983874157886 284.46635530883214 5.5062064649537197 1437.2770260138786 896.2349075616803 129.93814161524642 286.20023850526195 3131.4769276239676 138.52927858603653 810.9520916249603 753.37174122105353 17.843641144689173 203.50937358057126 17.89105639862828 56.494055429007858 35.573635349748656 65.063299829547759 49.367069213069044 88.771677195560187 448.00291500578169 2274.0650496539311 255.46580899669789 108.43869392608758 160.75305120740086 85.110764511162415 745.5951547883451 271.1375617752783 504.32760072173551 5.3441801164299241 200.07808121587732 43.388091750210151 347.61447468440747 74.422705853357911 277.67376494430937 11.112243846058844 861.28409392951289 745.84577907243511 67.139213130343705 394.59618475355092 1038.9950678471796 19.148299153894186 100.3552298649447 83.394236446882132 608.89896987943212 273.79330985475099 66.826784842414781 34.234542913967744 128.82075724983588 604.07378004735801 294.26964729325846 70.714513196086045 41.397882030869368 1629.9785181884072 48.979394864523783 41.92314662982244 43.14020185219124 521.49607179680606 23.183044484583661 54.468375741271302 88.08360385656124 395.50185357956798 15.520201563718727 1163.1659607742913 235.58802499820013 492.29764122527558 12.651479803025721 93.168971131788567 254.7847081682412 31.482612520223483 124.56472443428356 216.2550351813552 473.00701922926237 5.2330248840153208 93.418849756941199 76.512723416672088 249.94511661975412 262.61149942799238 96.350895257899538 7.6005478240549555 91.089357674820349 2074.9311041457113 31.675068757263944
leaf_count=2676 79536 148752 18120 366884 10880 47888 95824 100816 60364 97696 9028 2164 110176 48376 8052 14084 1632 93380 776 15204 13132 7988 37004 3864 1108 123120 29696 90560 1760 31932 444 7180 2308 7592 29148 6220 10284 40216 324 1476 92688 6524 6912 684 2684 3716 80 105264 6580 25580 17800 50104 2628 6124 10688 264 1552 2820 776 544 820 5920 1104 9488 223044 2080 7072 872 17376 17596 1316 26572 60 20028 6012 38488 600 3104 144 9288 11684 776 5816 24200 236 1944 16804 50172 37884 11548 828 1948 6132 6340 2296 2804 78028 2768 9752 700 8796 368 2040 2484 9952 976 41328 22256 12792 324 5264 8736 1076 18368 21816 24960 68 544 2292 15256 14200 1396 332 1100 47552 716
internal_value=-2.21148e-10 0.00476716 -0.0119674 -0.139079 0.00814209 -0.00439003 -0.0213899 -0.0902169 -0.0424488 0.00726776 0.00310095 0.0072336 -0.0280693 0.0113882 0.0411383 -0.00825014 0.00935148 0.000381153 0.0141542 0.00688661 0.00705406 0.0119645 0.0121952 0.00632656 -0.0137031 -0.108019 0.0213523 -0.0209995 -0.0498826 -0.00658711 0.0582867 -0.0267114 0.0459784 0.0234744 0.0133661 0.0106666 -0.0329783 -0.0500523 -0.0141392 0.0124709 0.00518222 0.0160394 0.0136861 -0.0111047 0.00934079 0.0602697 0.0712269 0.0128755 0.0096228 -0.0130447 0.0317724 0.0186788 -0.0682866 0.0326763 0.0275098 -0.00137786 0.0556282 0.0109304 -0.0876768 -0.111395 -0.0839646 0.0169522 0.015631 0.0428242 0.00541452 0.019093 0.0234269 0.0171677 -0.000542735 0.0447191 0.0283528 0.0149016 0.024534 -0.0189048 0.00908427 -0.0337919 0.0155291 0.0361291 0.00399012 0.0119146 0.0434975 -0.0448455 0.0108841 0.00175097 0.0791747 -0.137369 -0.0273726 -0.0153725 -0.0518347 -0.0213302 -0.0022382 -0.0295601 0.0114132 -0.00137449 0.0159086 -0.0517075 0.00790605 -0.00692544 -0.00659149 -0.0366425 0.0360314 0.0212021 0.0322328 -0.0501367 0.021542 -0.0316833 0.040002 -0.0245782 -0.0116718 -0.00452322 0.0140405 0.0288334 -0.0418124 -0.0591476 0.0178879 0.0293977 0.0297272 0.0729451 -0.0311651 -0.0238596 0.0285009 0.0141348 0.0347715 -0.0148282 0.00373344 -0.0420798
internal_weight=51975.8 50253.3 8433.88 1722.52 41819.4 7828.24 2863.42 572.137 1918.29 40874.9 22697.8 21884 2304.23 19579.7 1254.57 1879.31 18325.2 6390.03 11935.1 8571.81 6028.89 7868.03 5095.15 4068.7 1288.83 813.886 945.131 933.742 703.785 1224.05 127.636 436.297 944.546 499.416 7715.95 6955.98 1671.06 857.733 1096.41 18177 5974.39 12202.7 11586.2 1348.72 993.491 616.443 445.13 6607.1 5636.85 1609.14 970.251 4027.71 355.225 3363.32 2745.33 828.796 617.986 5474.53 267.489 192.423 291.676 10237.5 9740.12 497.37 4964.82 7544.74 5264.97 4068.87 1575.01 1196.1 2493.86 1075.46 2333.11 308.517 2279.77 499.552 1581.92 567.96 1013.96 872.396 751.19 141.562 2236.38 1433.59 290.286 156.849 1085.31 728.118 357.188 414.441 301.266 175.707 5456.64 1419.3 4037.33 335.668 2888.58 1258.6 1479.2 250.339 1148.75 627.257 338.935 153.147 481.737 86.2347 1916.54 776.865 541.277 141.472 402.719 309.55 54.7649 152.072 794.007 577.752 302.161 98.6519 348.874 326.458 766.939 450.507 263.066 187.44 2195.38 120.447
internal_count=3050312 2503076 674188 547236 1828888 525436 254504 180352 206688 1816232 1238992 1018176 284924 733252 10216 174748 723036 335200 387836 325636 241820 309556 138128 101124 52748 220816 47816 103692 16080 48884 1552 12040 12656 9900 283200 254052 146324 136040 47332 577240 259896 317344 310112 16524 9908 7232 2756 230284 197280 140596 33004 56684 6616 62200 58404 6388 3796 167208 4040 3264 5932 293588 278180 15408 270932 228808 185868 163364 135284 22504 28080 67872 27208 27100 42940 67412 15464 4656 10808 9432 11744 1376 36928 30016 1552 2720 118944 64256 54688 50036 4860 3100 164388 20024 144364 9144 129068 51040 115016 3384 15296 6500 5756 3304 13224 3272 52016 37816 15560 2272 15400 10136 1400 26356 55804 33988 2164 612 23768 17548 40772 4908 2412 2496 49372 1820
is_linear=0
shrinkage=0.1


Tree=2
num_leaves=127
num_cat=0
split_feature=0 0 1 2 0 1 2 1 2 1 2 0 1 1 2 1 2 2 1 2 1 2 0 2 1 2 0 1 1 2 0 2 2 0 2 2 0 1 2 0 0 2 2 0 2 0 1 0 2 0 0 2 2 1 2 1 1 1 1 1 0 0 0 2 2 0 1 0 1 0 0 1 2 1 0 1 0 0 2 1 0 2 0 0 1 2 2 0 1 1 1 2 2 1 2 0 0 0 1 1 1 2 1 2 1 1 0 2 1 2 1 0 0 0 1 0 0 0 0 2 1 2 1 2 1 1
split_gain=2593.75 630.114 560.803 772.799 342.742 507.961 226.853 211.746 459.457 203.847 209.662 152.246 115.328 121.59 389.889 112.189 225.877 105.749 101.763 99.6863 97.4919 229.367 193.027 95.2925 83.3478 82.8909 82.1257 77.24 72.5649 66.3811 64.6173 59.8851 53.0365 73.4962 52.7429 51.7812 51.5891 48.8275 44.7487 42.2316 41.7461 50.8451 39.9707 39.4242 39.0275 37.7425 37.4338 35.876 78.9912 34.4828 31.4763 29.4498 31.1745 27.5532 27.3935 27.2143 28.0072 26.8513 26.5291 26.2877 26.0651 32.5364 30.2541 25.3364 25.2943 29.3677 24.5425 24.4758 24.3744 28.3622 23.9417 23.0154 22.9887 29.8987 22.9577 25.5135 22.9304 26.0302 25.9226 22.9115 22.6631 24.191 21.7076 21.6151 23.3561 21.2925 25.1193 21.2596 28.7585 21.025 35.847 34.3592 41.3016 23.828 20.7115 22.6109 20.6307 35.3521 32.5231 28.0475 41.1426 25.8448 22.3739 20.5609 20.4957 20.2542 20.0503 19.9441 19.8558 19.8129 26.3105 19.6565 19.3431 19.3339 50.1896 19.1646 19.0526 18.9092 18.7979 21.3156 19.4831 18.4064 18.3216 17.8808 20.118 17.4963
threshold=-0.0036790539370661498 -0.59165123493945093 -0.4807717121566597 -0.31990743519233972 -0.041746131246270989 -0.054018792523380398 -0.30142823786451162 -0.24630673941802625 -0.2327281033554868 -0.74499341536842822 -0.38068604684451562 0.0075326174993469008 -0.23599758698921042 -0.055395742008837845 -0.13386717050078598 -0.017459182647068399 -0.087977309365792886 -0.27557548952950955 -0.4776136231999602 -0.023602117047064195 -0.13036320032404577 -0.18064596492564058 -0.10593424940744904 -0.36569058307681451 -0.11496029147994789 -0.40914208146223624 -0.21868628353138017 -0.048020529161224144 -0.10553806814020689 -0.27351496976600403 -0.67507720852462005 -0.071848619098804731 -0.34543731810191708 -0.53661268406215512 -0.097692809065387978 -0.10112306897229204 -0.50882352849814516 -0.23193092615531155 -0.3069182176798862 -0.039992892440049339 -0.016911544512757747 -0.047208380983194194 -0.20665409973929927 -0.42616350983439105 -0.19431814948137657 -0.43975421649624474 -0.96327402995621092 -0.077410346387952342 -0.14326778227523468 -0.10199163852399813 -0.16346076377651192 -0.10025920250119799 -0.093000166703081241 -0.7175299435958078 -0.10828078571603493 -0.90937026404363919 -0.68082570368023165 -0.11132644924822394 -0.9568837131593525 -0.067660621698269183 -0.027488108492816649 -0.026546538497534248 -0.028386840624093846 -0.15386793609780028 -0.2978341115193186 -0.35349845189441281 -0.72106380215398513 -0.016437921211779546 -0.47436078064560844 -0.31367436987754188 -0.32479942573172738 -0.46228198283455368 -0.37467857802477345 -0.71210918143295288 -0.43975421649624474 -0.47843616042554349 -0.19302442974493536 -0.1506671844401152 -0.20214349192617556 -0.46851847567513721 -0.10825568198544869 -0.15986916107251428 -0.38271326882703738 -0.58220801982383497 -0.94764022662749248 -0.37238619392362943 -0.39296136669752496 -0.35962409818394486 -0.45775172826683003 -0.71812935481538898 -0.7175299435958078 -0.35880853150930309 -0.35094276477896025 -0.9588556792679821 -0.12723224191508156 -0.064118919084589873 -0.49952676287171588 -0.49036279323113535 -0.95309126977067271 -0.72106380215398513 -0.71870758957367675 -0.34830286127978521 -0.94968603757165238 -0.20665409973929927 -0.42149012502180988 -0.22870086578889673 -0.4469866310544795 -0.21808593004673471 -0.43442640589111409 -0.38672275997846894 -0.95792989019806629 -0.79509165134678106 -0.079067065355732935 -0.36501677692120632 -0.47358294713267474 -0.051968964463006841 -0.043497320482800944 -0.015350012997231698 -0.38271326882703738 -0.33326188898323622 -0.71682396500411094 -0.10828078571603493 -0.11464064626279268 -0.3985026550475933 -0.93247982682549979 -0.23456483380671736
decision_type=2 2 2 2 2 2 2 2 2 2 2 2 2 2 2 2 2 2 2 2 2 2 2 2 2 2 2 2 2 2 2 2 2 2 2 2 2 2 2 2 2 2 2 2 2 2 2 2 2 2 2 2 2 2 2 2 2 2 2 2 2 2 2 2 2 2 2 2 2 2 2 2 2 2 2 2 2 2 2 2 2 2 2 2 2 2 2 2 2 2 2 2 2 2 2 2 2 2 2 2 2 2 2 2 2 2 2 2 2 2 2 2 2 2 2 2 2 2 2 2 2 2 2 2 2 2
left_child=1 9 3 32 6 39 38 8 18 10 25 19 26 14 20 16 34 66 -8 -2 21 44 122 72 -16 46 -9 35 94 43 111 -18 33 83 54 115 -34 80 45 57 -17 67 -10 -20 76 -4 -1 48 49 -24 125 -41 59 -25 -7 -38 118 -6 -32 105 62 -62 -36 -39 65 71 -5 -42 69 -66 79 -45 -11 -74 75 -40 78 107 -14 -31 -23 -82 -47 84 109 86 -85 88 -70 93 91 -91 -93 -35 95 -26 99 102 -99 -95 -101 -102 -98 -79 -89 -53 -77 -78 -72 110 -3 -27 -50 -76 -115 -15 -117 -43 119 120 -57 -118 -22 -113 -125 -46
right_child=11 2 4 17 5 15 7 12 42 23 -12 -13 13 27 24 40 31 -19 29 -21 22 37 47 53 28 30 -28 -29 -30 70 58 -33 36 89 60 -37 55 63 74 51 41 117 -44 64 50 82 -48 -49 112 -51 -52 52 -54 -55 -56 56 -58 -59 -60 -61 61 -63 -64 -65 68 -67 -68 -69 87 -71 108 -73 73 -75 113 106 77 103 -80 -81 81 -83 -84 85 -86 -87 -88 104 -90 90 -92 92 -94 96 -96 -97 97 98 -100 100 101 -103 -104 -105 -106 -107 -108 -109 -110 -111 -112 123 -114 114 -116 116 121 -119 -120 -121 -122 -123 -124 124 -126 -127
leaf_value=0.047289793766067068 -0.13100197132397493 0.098947012354817399 0.070246808263311353 -0.092561914220125552 -0.16577015877006188 -0.20745892670117794 0.025801414503231531 0.075901292345396457 -0.067451883139432997 0.070318578486342195 -0.075443444120382286 -0.15158436457533164 0.0068006703983579473 0.042697577871160249 -0.11904308398482247 0.033788904249961144 -0.044885014692783297 -0.11932163673241397 -0.083517688394224479 -0.040030162633327017 0.072319886730143057 -0.042090300208717971 -0.0037240817919678066 0.020846698059610723 -0.011580816019963374 -0.10637903486618588 0.020237349782226167 -0.10361656275910176 -0.070186217287807676 -0.040584087605578127 0.035239317429688083 -0.098657868404918678 -0.062728046955389652 0.053750581647255803 -0.020920779355641017 -0.022038705536321247 -0.059064903489686404 -0.052595704712777414 0.044930998542174909 -0.14652488630137719 -0.0047772489117695726 0.026917210236625324 -0.12075329543788241 0.044047611982246083 0.013918191418915496 0.022571156604255824 0.024481878196083249 0.038185474519400825 -0.032264648486283333 0.020120253849213388 -0.0011614523315653694 0.10054192510655072 -0.11382053122362053 -0.044125769887960548 0.01825618174845901 -0.019594395421161131 -0.17959244989300049 0.00015104413241599985 -0.0017822610266659989 0.028804645398050072 0.091973406096648239 -0.028157698749001592 -0.13940787045711939 -0.10157037237920825 -0.0093294918986130959 -0.047217760863893066 -0.054261214123829442 -0.025794795993039649 -0.0056288615031048119 -0.084231103747270539 -0.022507880046301623 -0.15192668712968849 0.051678152281446434 -0.10798613316172888 0.040470698169677355 -0.046205509830712477 0.1382236307351967 -0.20397815585878792 -0.12515541984600048 -0.13192590563703332 0.044294078651372519 -0.068989712798103217 -0.17815719784136202 -0.17192527413360459 0.031031513413686113 -0.020895255231919853 0.018703068676617165 0.019245365027331412 -0.12635757440390952 0.13461263254628905 0.021388451534086222 -0.17936582810954871 0.08928574688870615 -0.064264975087855461 -0.035425773275833058 0.059070319926977422 -0.14803271599912035 0.08713036259108986 -0.077620843583978916 0.020912677428010142 -0.1806868659142718 0.080196112255042529 0.098810624477706235 -0.01225134695258355 -0.20098826911916357 -0.094023066163849714 0.014662931938647912 0.022245034600659561 -0.10060724870361056 -0.094018176020519442 -0.19885658236746184 -0.008438687109267401 0.016791904609974907 -0.19156379689227829 0.036917979050771557 0.022615547357525304 -0.21095231714267576 0.0048502384792355416 0.12608513203291322 -0.026653822481641144 0.025877763215743955 0.050683093753712098 0.045960239022625901 -0.040972471335744526 -0.18264600241518469 -0.068444476432842336
leaf_weight=930.57736153260339 230.06574267608812 14.342922371113675 646.53643061738694 242.84455516998423 11.725296903401611 5.4145655361935487 1102.9094351849635 454.37079769885167 260.93516915332293 1126.3382629293483 226.41035152529366 1014.92176742843 2202.7921853793086 786.31969128438504 146.56189594315947 366.87172957447183 562.83625265670707 719.39837684325175 55.715135864156764 252.82367743787472 518.99034723022487 116.12839682307094 800.75393351307139 210.18232447991613 273.00916483864421 30.888939028955065 636.13364790898049 46.392887753958348 439.2218881053268 75.371169189631473 411.38885477161966 327.68278328017914 296.21791368565755 75.560818678815849 823.21246303874068 211.66985627211398 116.42884616024094 380.59664771729149 115.93739259149879 159.48528496455401 2002.2316680011572 469.30196485627675 305.3026222907356 271.69846093002707 32.756561775691807 149.72493472846691 3174.0476240793942 444.39303257229039 520.3697930003982 2500.1515680443845 724.95770341932075 5.7533874323707996 269.04578823933844 94.668160943954717 771.34642361430451 152.65947077528108 9.2787702448549663 57.999952914426103 365.54966294765472 30.131871251156554 45.563697656383738 44.627811291255057 22.129057659185492 146.21531097372645 989.66687898215605 45.167022877372801 537.83715996501269 766.08029072114732 228.10169108473929 53.275654383469373 780.05041191074997 6.1278167570708311 1076.3702148816083 11.857539187651126 950.57946241443278 99.572138224728405 14.931845124810932 5.8122818088158956 14.988705656491218 43.200683082104661 90.331801409134641 23.821259100688621 5.5886854263953856 7.1467707778792819 190.46504017384723 1572.6530993750785 210.84746800689027 696.62748563161585 21.59913442551624 57.214912266470492 589.19575876771705 8.8620638507418352 16.153184034163132 101.53466941876104 327.56897541624494 54.309028597024735 3.9358481878880403 17.108728237566538 39.987414043513127 149.77944831905188 17.57876856834628 4.8436927490402004 54.770154661731794 148.52706372993998 4.2514668406220144 76.386720692215022 118.54850125405937 2114.7404984206078 33.97068396495888 31.443934894865379 3.7403144403360775 275.86777068208903 95.060072428314015 13.090690942481158 36.201313082827255 2814.5101630579447 2.7120627048425368 2250.3064896174765 10.81817077170126 304.78231291950215 246.16396517358953 314.98783595394343 536.02360760595184 147.8075579785509 10.752363942738155 121.30973605753388
leaf_count=8600 79536 236 4544 49212 3596 120 21512 2184 48668 12376 28476 366884 42428 6684 44436 9520 89116 215264 3480 100816 3408 12036 11184 10224 18536 3788 7980 5068 76768 6352 9964 92136 34524 4776 54564 16964 19912 67828 1024 39080 19952 28180 96680 6304 1444 2316 64208 19592 32920 49788 38004 536 77924 11160 21848 6224 1716 5288 11028 1104 1100 1884 1656 42844 22860 892 78580 11508 15076 2428 76080 352 21716 1804 13568 2444 36 136 3052 9556 1940 5568 268 372 7352 34016 7388 22844 3012 176 11820 280 420 8632 37308 2680 636 976 3056 2644 508 152 1136 4320 332 21692 1716 57164 7256 2384 252 14540 4424 280 732 57292 76 212644 312 22012 9004 4896 8200 14492 2740 12776
internal_value=-1.97115e-10 0.00403248 -0.00111104 -0.0298556 0.0037612 -0.012908 0.00976641 0.00687572 -0.0113941 0.0294827 0.0188119 -0.129593 0.0119071 0.00988149 0.00504535 -0.00654902 -0.0238227 -0.0916629 -0.000500729 -0.0833724 0.0107658 0.00213715 0.0205451 0.0530882 -0.0482259 0.0228031 0.0434304 0.0246962 -0.0387396 -0.00927847 0.00017045 -0.0646717 -0.00831144 -0.00166183 -0.0025782 0.0261375 -0.0268448 -0.0493982 0.0409438 -0.100998 0.00113018 -0.00105308 -0.0961908 -0.000392274 0.00938829 0.0596133 0.0296528 0.0112591 0.00820366 0.0143359 -0.00988491 -0.110442 -0.09535 0.000670171 0.0166828 -0.014193 -0.00697399 -0.027751 0.0178207 -0.0510877 -0.0185704 0.0325311 -0.0240225 -0.0661885 0.001607 0.0275671 -0.0661753 -0.0105935 -0.0025991 -0.0131556 -0.0318822 0.0397251 0.0603039 0.0499384 0.0297213 0.00702474 0.0131516 0.0201843 0.00590886 -0.0738637 -0.0109872 0.0206542 0.0153483 -0.0130583 0.0151235 -0.0168354 0.0124535 0.00898314 -0.0160719 0.0187003 0.0300205 0.0918708 -0.0058885 0.00235835 -0.0176488 0.000141705 -0.00761046 0.0277721 -0.0282535 -0.0225788 0.00200045 -0.124331 0.0822614 -0.0194716 0.0179094 -0.080395 -0.0131235 0.0230582 -0.0257671 -0.0460535 0.0373497 -0.0293001 -0.0246873 0.0373042 -0.0237609 0.0287399 0.0252359 0.00865817 -0.00473206 -0.00674342 0.00847218 0.0484496 0.0589273 -0.0238196 -0.0505797 -0.0509331
internal_weight=49633.4 48135.6 40042.9 5803.59 34239.3 9068.13 25171.2 23035.4 4973.97 8092.71 5573.29 1497.81 18061.4 16970.9 12794.3 8457.61 2602.81 1500.08 4407.73 482.889 11553.7 6137.91 5415.74 2519.42 1240.67 5346.88 1090.5 4176.59 1094.11 3304.82 1242.26 890.519 4303.51 3167.17 1712.29 4130.2 1136.35 757.093 2135.78 610.528 5854.79 5487.92 566.238 2372.23 5380.82 801.85 4104.62 4360.73 3916.34 3300.91 879.024 540.803 381.318 304.85 776.761 840.132 723.703 69.7252 776.939 112.272 935.533 90.1915 845.342 526.812 2316.52 322.993 780.682 2768.31 1993.52 1042.94 932.593 277.826 2214.57 1088.23 1333.93 334.058 4501.79 2284.01 2217.78 118.572 230.281 114.153 155.314 2030.64 239.992 1790.65 217.994 950.58 249.701 1136.53 671.426 82.2302 25.0152 465.1 654.887 327.318 389.539 115.802 57.0961 273.737 172.202 22.4225 58.706 154.339 700.879 82.1401 218.121 2129.67 814.021 49.5272 18.0832 465.317 615.43 999.871 49.292 3918.53 3132.21 2719.61 714.424 703.606 398.823 317.7 1055.01 434.428 158.56 154.066
internal_count=3050312 2503076 2287960 523972 1763988 693448 1070540 1043648 343684 215116 157836 547236 699964 689800 598820 544228 262424 343056 198336 180352 419092 289576 129516 57280 179728 129360 10164 90980 135292 176824 56552 181252 180916 87212 81172 85912 93704 130216 26892 149220 281804 272284 145348 77580 159360 7128 72808 117908 98316 60972 52224 140336 101256 21384 21968 59180 39268 8884 20992 23332 59204 2984 56220 110672 74100 7548 127792 31460 66552 25288 99244 6656 35896 23520 19764 5184 107136 61656 45480 15908 19544 7508 2584 52000 10224 41776 7760 41264 18088 35212 12696 876 700 22516 58524 21216 17740 5804 4032 11936 3304 660 1772 4456 23176 22228 4160 57200 83336 2872 488 35560 37344 14580 1012 68948 62264 240824 37552 37240 15228 4972 11608 31772 17232 14220
is_linear=0
shrinkage=0.1


Tree=3
num_leaves=127
num_cat=0
split_feature=0 2 1 2 0 1 1 2 0 0 2 1 1 2 2 1 2 2 2 1 1 2 2 2 2 0 1 1 0 1 1 2 1 0 1 0 1 1 1 1 0 2 1 2 1 1 1 1 1 2 0 0 0 1 0 2 0 0 2 2 1 1 0 2 1 0 1 1 1 2 2 1 0 0 1 2 0 0 1 0 1 1 1 2 0 1 2 0 1 1 0 2 1 2 1 2 0 2 2 2 2 0 0 0 0 0 1 0 2 0 1 1 0 1 1 1 2 1 1 0 0 2 2 1 0 1
split_gain=2124.37 369.135 701.379 463.643 219.26 396.81 187.389 213.285 174.876 119.928 80.2739 76.4751 74.7868 587.054 108.823 128.543 162.892 74.1588 73.6921 93.096 91.4931 283.437 75.8144 68.6957 66.4424 61.712 54.4572 53.4052 52.5155 57.4112 49.7211 42.9568 68.9332 73.6182 65.2644 54.0376 42.4238 37.6225 37.6166 36.7639 35.86 36.1105 35.7936 34.4226 33.1654 33.0758 31.5633 30.1204 41.1222 28.9898 27.8765 34.2076 27.3517 27.0708 26.5666 26.5034 25.6653 24.155 23.4731 23.3453 22.9189 39.3545 22.8998 39.3764 27.2323 22.8939 22.4825 35.0025 22.0115 39.3038 25.5578 26.445 21.0274 20.9435 20.764 20.583 20.5207 19.5907 21.4471 20.6728 27.1166 19.5893 19.5691 19.4779 19.4682 23.6205 19.1828 19.1369 19.085 18.9311 19.0919 27.4509 22.0227 27.9792 40.9237 21.7677 18.6235 18.5203 28.0699 21.9948 18.3147 21.3069 18.194 29.3632 18.1738 17.8983 19.117 22.389 34.5186 17.7571 20.6058 17.4055 25.1332 17.295 17.0352 16.9322 16.848 51.346 23.1453 17.8826 16.8039 41.6058 22.9652 29.5951 27.5762 20.5596
threshold=-0.0036790539370661498 -0.35630246018258604 -0.4807717121566597 -0.31631712285803515 -0.042594808557503396 -0.055395742008837845 -0.016898340449052144 -0.089994859345020189 -0.4469866310544795 0.0075326174993469008 -0.023602117047064195 -0.74499341536842822 -0.13036320032404577 -0.18064596492564058 -0.14863180971724876 -0.055395742008837845 -0.12723224191508156 -0.27557548952950955 -0.20214349192617556 -0.24630673941802625 -0.24630673941802625 -0.26450638267790105 -0.21657680485501057 -0.15386793609780028 -0.10344116681174219 -0.015915459833090447 -0.24630673941802625 -0.4776136231999602 -0.18631092021126797 -0.23040979156109595 -0.11364471542485373 -0.43251931676146876 -0.74499341536842822 -0.49036279323113535 -0.72106380215398513 -0.60112028270266549 -0.95309126977067271 -0.050830214976625793 -0.052111692248527887 -0.47358294713267474 -0.40060345536510927 -0.30501445258460841 -0.71210918143295288 -0.047208380983194194 -0.094842593626440277 -0.23410810555736608 -0.96166079257841108 -0.23566794254376347 -0.22541969968415432 -0.37238619392362943 -0.15387237626217273 -0.16657365257312062 -0.81777180777821801 -0.47803924587439672 -0.48104341822092328 -0.27351496976600403 -0.70676740536954352 -0.37103904361467549 -0.42361968834671254 -0.42361968834671254 -0.20918511343265003 -0.22405746636374893 -0.53661268406215512 -0.34543731810191708 -0.72106380215398513 -0.032065789170723842 -0.21710813904101298 -0.2208837783710744 -0.71612184193198958 -0.37709725295564911 -0.37709725295564911 -0.71812935481538898 -0.043497320482800944 -0.072437044459174274 -0.46003162178374463 -0.20665409973929927 -0.53661268406215512 -0.22812234886198554 -0.23532720253242873 -0.19635331993367031 -0.2336069177026909 -0.71430453120688464 -0.10553806814020689 -0.36115784345938057 -0.015632973748406897 -0.011727735566653498 -0.21373288041107794 -0.45375823220984995 -0.9568837131593525 -0.23599758698921042 -0.15711496326514507 -0.20515132578797626 -0.2336069177026909 -0.20367595237971955 -0.22777380281379614 -0.20809933250701171 -0.17952745985470456 -0.20515132578797626 -0.20809933250701171 -0.20944396822267122 -0.37709725295564911 -0.56418930899237685 -0.1506671844401152 -0.14433456445824991 -0.18960475646941907 -0.79509165134678106 -0.96327402995621092 -0.81777180777821801 -0.4190247779068646 -0.039992892440049339 -0.10848957943860119 -0.22254545342856646 -0.090754536677263936 -0.11496029147994789 -0.93247982682549979 -0.71682396500411094 -0.36115784345938057 -0.71068358843533475 -0.68596843288239995 -0.49952676287171588 -0.10388342168602129 -0.15386793609780028 -0.15268847319423923 -0.11464064626279268 -0.08889978909691254 -0.11464064626279268
decision_type=2 2 2 2 2 2 2 2 2 2 2 2 2 2 2 2 2 2 2 2 2 2 2 2 2 2 2 2 2 2 2 2 2 2 2 2 2 2 2 2 2 2 2 2 2 2 2 2 2 2 2 2 2 2 2 2 2 2 2 2 2 2 2 2 2 2 2 2 2 2 2 2 2 2 2 2 2 2 2 2 2 2 2 2 2 2 2 2 2 2 2 2 2 2 2 2 2 2 2 2 2 2 2 2 2 2 2 2 2 2 2 2 2 2 2 2 2 2 2 2 2 2 2 2 2 2
left_child=1 31 3 11 8 109 7 38 53 10 -2 -3 13 18 82 16 30 57 20 -20 21 39 28 26 72 -9 -15 -23 47 -30 -16 46 36 34 100 115 54 -26 65 -10 -41 -42 62 84 73 104 52 -22 77 56 51 60 -1 87 59 -43 114 -5 -58 -33 61 -24 -13 64 -64 -7 67 96 70 -70 -37 83 -17 -18 -29 -63 -44 78 -49 -79 -81 -66 113 -72 -8 -86 -53 -4 105 -88 91 95 -93 -94 -95 -91 -47 98 99 -92 -34 -102 -68 -104 -21 106 107 108 -61 110 -6 112 -28 -14 -38 -36 118 -118 119 -71 121 125 123 -122 -125 -115
right_child=9 2 4 17 5 6 43 25 12 -11 -12 42 14 23 15 24 44 -19 19 45 22 27 50 -25 37 -27 111 74 29 -31 -32 32 33 -35 35 68 49 -39 -40 40 41 55 76 -45 -46 66 -48 48 -50 -51 -52 86 -54 -55 -56 -57 58 -59 -60 88 -62 75 63 -65 81 -67 102 -69 69 116 71 -73 -74 -75 -76 -77 -78 79 -80 80 -82 -83 -84 -85 85 -87 89 -89 -90 90 97 92 93 94 -96 -97 -98 -99 -100 -101 101 -103 103 -105 -106 -107 -108 -109 -110 -111 -112 -113 -114 120 -116 -117 117 -119 -120 -121 122 -123 -124 124 -126 -127
leaf_value=0.047250316087251137 -0.12328535863297047 -0.059773253385630755 0.054610062730703839 -0.082239110195990617 -0.1364981824082345 0.012741480694304492 0.021583097739747273 -0.036931824776314029 0.018554282937315238 -0.14205583119948012 -0.037813238174985615 -0.022207117910866464 0.065545205782846186 -0.11758012489321162 0.023372050999134669 0.02081489439826549 -0.13085449618489173 -0.11372361732733104 -0.10025526528289229 -0.11927646858207269 0.061787211994240192 0.012653152929018547 0.018152675212455494 -0.10674948761061079 -0.0020694525890002503 -0.095447593353769414 -0.027993529883701657 -0.043385158274698007 0.061139442616357786 -0.17735527980932908 -0.0075888845027677759 0.023254935252690474 0.077286665738842686 -0.20676524295126097 0.016771820550493973 -0.21496871056999756 -0.018969763784866221 -0.069491592680971978 -0.0089256525072263521 -0.075901215509972406 0.076736260302496528 0.0047980709840509768 -0.078612159488125194 0.0022671675646921481 -0.10648258494830216 -0.072971306642570968 0.0092203546268707082 -0.20921573184270473 0.13992964437167063 -0.058838667828139402 0.068299639480330604 -0.21051986374082624 -0.20926522391559918 0.015463389744165557 0.12265162394878278 -0.037903075744772488 0.078547062862248926 -0.042766945802500803 0.0028534506547368142 -0.10106905720297449 0.15321143900868281 -0.091119614142882374 0.1445271712292869 -0.005066754274213524 0.018667012834879339 0.05528525541703555 -0.119090022368465 0.046010399513717409 0.15481262581265109 0.037481783975164377 0.04850141498494049 0.071220413557890716 0.054706192675946633 -0.040168380922475572 -0.076123036240816844 0.022367372234937524 -0.01948968619962739 0.028831973154097631 0.013800682947422059 0.051993545582156658 -0.2072788547177225 0.079912510590715968 -0.057646060188498133 0.0048916884938843587 -0.15355026418167944 0.10444388717428743 -0.20702388054500553 0.094538896884894641 -0.017225115723064566 -0.053710728158254666 -0.20628703811910745 0.0019760797410568447 -0.1562646584628502 -0.12686231692350344 0.052579247753009685 0.02677259962718034 -0.01301120472715445 0.057669574883937307 -0.20668594660027742 0.13564803845576681 0.034598386867001105 0.12007579535753424 0.078200629561922433 -0.10163968796945884 0.019501960015904485 0.014856716999119902 0.0044837229753299582 -0.11085323089099866 0.05709389774163795 -0.10413878475610941 -0.01540514083569741 -0.067650229877938228 -0.16131747882124062 0.057061171738047978 -0.094397454763058788 -0.01097798329559996 -0.077217985503526668 0.039344043671428977 -0.16708401442416185 -0.20646125258490269 -0.14488118991409804 0.0056201766516839318 0.039741148749836988 0.019790398849919691 -0.21276466014118078 0.019256047491918629
leaf_weight=993.88059758674353 211.4558437584783 306.80598594999174 420.78385290200822 387.8885952300916 19.585247457609512 631.85477460478432 1598.0443343923544 1921.22702945536 3499.4453934534686 945.76626654007123 228.75069478718797 247.23078329226701 126.90357241034508 108.86414263650659 756.23265682114288 3369.5933559021214 26.983726466831286 682.93610789946979 109.14500806863362 9.6244924336497188 672.59433351177722 136.84332307579461 2805.9346645468031 318.86192406891496 377.89929583919002 198.88588847051142 489.83469950011931 565.31638593121897 18.763819681480527 21.843491112813354 1651.3420982674579 1452.2655437162612 275.13359005376697 13.394746923004275 2081.369891767099 3.6500452663749448 213.85909662244376 105.97373764391523 864.94935649330728 61.226687912654597 62.226779645192437 993.00660528469598 67.8201990408852 2953.3584979168954 108.52263268019306 54.970409367379034 300.7226037515793 7.7089154366403845 30.278522455133498 110.1698497426114 94.06434795469977 4.9414719827473155 4.1742414319887748 129.26923989958595 22.399778009857982 170.27704074286157 45.502820913330652 258.25342791026924 411.14945588447154 23.973238064907491 12.270066702272741 51.035268753534183 22.590350860496983 522.72212461393792 259.72321350715356 158.14571218646597 35.661392159527168 98.976104945817497 20.97260460536927 250.41925105964765 330.53597815521061 347.69881770329084 193.58379769616295 452.87079537817044 294.7469914915855 23.26765845954651 436.86764095950639 356.42569110670593 9.7864480572752637 7.544937530532482 8.6684286030940694 65.367810351308435 26.050745244137943 148.40053657494718 13.027689108857887 4.8772398916771627 4.9251415714388704 167.93812137260102 284.97139020997565 46.16834015538916 2.5072252470999956 42.786323931533843 33.986808693502098 25.978800631593913 24.882801573956385 123.49011544638779 898.35946625540964 64.626903823576868 7.3730405336245886 7.5339729599654692 310.13525291444967 32.188801837619394 16.852818039013073 19.681448495830409 482.53102846676484 1593.9150794666493 229.57838835119037 36.102561626350507 32.513465674128383 431.36716288441676 49.742936939786887 185.72826882294612 14.55969105963595 326.92247975245118 34.817090417433064 245.85799994409899 67.313601188943721 86.167781945376191 5.8234604062745339 3.0415676636621347 12.470294757978989 834.10950848221546 1364.8433618059498 198.50903818651568 5.2334003853611639 256.88410910742823
leaf_count=7132 79536 57824 2248 72976 6060 19184 27172 146652 76740 366884 100816 18968 880 36608 23816 52080 5740 215264 33748 920 4032 5148 61480 107464 17360 60364 43308 71532 72 208 99324 21692 992 424 30336 40 15268 12592 54984 8272 952 36896 12796 240568 31028 8764 4996 180 64 15952 1092 88 88 3420 180 17324 416 42684 21816 460 108 1768 232 31200 6804 2572 6476 5108 144 6600 5712 4168 1688 64500 57916 1412 28364 5264 188 60 148 1072 932 3864 2924 268 68 1072 19032 808 56 388 660 416 252 1312 45396 440 160 28 3784 200 1060 2804 16992 55592 10136 516 316 137420 6896 39088 1364 1332 5200 11300 2092 2036 336 84 328 12120 18820 2776 152 2084
internal_value=-3.02739e-10 0.00366236 -0.00104344 -0.0453 0.00334024 -0.010122 -0.00493368 -0.0214206 0.00829157 -0.121987 -0.0788703 -0.013989 0.00679565 0.00180791 0.0132223 0.00631076 -0.00939098 -0.0907473 0.00825517 -0.0108677 0.0114616 0.00313607 0.0221388 -0.0675083 0.0179345 -0.0424211 -0.0518479 -0.0453722 0.0445142 -0.0671517 0.00213612 0.0206544 0.0181255 0.0272991 0.028044 0.0228805 0.00950157 -0.0168357 0.00548274 0.0132398 -0.00121364 0.00251776 -0.00533051 0.00868742 -0.0565586 -0.00483292 0.0376203 0.0486628 0.0276658 -0.0111324 0.0146249 0.0130864 0.0461775 0.0569013 0.0140794 -0.00145236 -0.00368083 -0.0664627 0.0103959 0.0134137 0.0168315 0.0162505 0.00465098 0.0122798 0.0383595 0.0212581 -0.0142957 -0.010592 0.0395249 0.0212672 0.0490626 0.0502285 0.0226562 -0.0452679 -0.0546046 -0.0555816 -0.0274346 0.0189529 -0.0844662 0.0238085 -0.0866257 0.030982 0.0286663 0.0349888 0.0204213 -0.0832736 -0.0147467 0.0660001 0.00692047 -0.0122291 -0.00969994 -0.0214851 -0.0565191 -0.0860163 -0.0390749 0.00487106 -0.0164686 0.0330062 -0.0585236 0.050269 0.0580759 0.0426358 -0.0682788 -0.0186815 0.016788 0.0105115 -0.0109861 -0.0493439 -0.0100312 -0.0965891 -0.049614 -0.0414789 -0.031842 0.0293856 -0.0295304 0.0138402 0.0144817 -0.0117775 0.0300257 0.0345544 0.0278555 0.0199511 0.0349443 0.00466383 0.0138169 0.0404263
internal_weight=47550.4 46164.4 36152.3 3258.21 32894.1 8845.07 8344.37 3775.06 24049 1385.97 440.207 1929.13 23331.1 13136.1 10194.9 7043 2995.95 1329.08 12018.3 1725.8 10292.5 5783.09 4509.39 1117.85 4047.05 2120.11 798.987 996.907 1133.61 40.6073 2407.57 10012.1 8713.32 4222.1 4208.71 3591.25 4491.22 483.873 1654.95 4786.18 1286.74 1225.51 1622.32 4569.31 588.377 1616.66 1298.78 1093.01 420.413 815.498 3375.77 3281.71 998.055 717.991 3675.72 1163.28 705.328 646.142 456.652 3653.32 2892.51 2880.24 1117.63 870.403 347.681 790 1124.5 1052.31 1264.02 433.738 830.285 826.635 3563.18 479.855 860.063 74.3029 504.688 390.134 17.4954 372.639 16.2134 325.091 3151.93 478.937 1615.95 17.9049 389.201 588.722 2201.05 384.259 379.334 297.293 127.635 84.8484 50.8616 169.658 953.33 82.0411 17.4142 10.0412 617.458 342.324 72.1957 36.5343 492.156 1916.08 322.168 92.5893 56.4867 500.695 69.3282 690.123 504.394 3125.88 248.676 2327.23 412.766 153.481 259.284 253.461 2998.97 1417.92 1581.06 216.213 203.742 583.807
internal_count=3050312 2503076 2252172 488184 1763988 705064 554688 283756 1058924 547236 180352 157260 1052184 704632 347552 308128 224408 330924 476800 121268 355532 274780 80752 227832 83720 207016 120368 134596 10216 280 123140 250904 238688 72112 71688 66712 166576 29952 76740 140184 63444 55172 99436 270932 101268 87520 12216 9936 5904 58652 70536 69444 7220 6740 107924 54220 42700 115660 22232 107744 64768 64660 58276 39308 8108 21756 69608 59268 25076 11292 13784 13744 53768 70240 129448 3180 41160 5840 368 5472 208 7876 39424 9576 30364 3192 4676 3320 86052 4588 4520 3836 1716 1328 668 2120 54160 684 244 84 4976 3984 10340 3864 17912 67020 11428 1292 776 150376 12956 83760 44672 38492 20468 41636 11148 4128 7020 6684 37612 15536 22076 3256 2928 3416
is_linear=0
shrinkage=0.1


Tree=4
num_leaves=127
num_cat=0
split_feature=0 2 1 2 2 1 2 1 2 0 0 1 2 2 2 1 2 2 2 1 2 2 1 1 1 0 1 0 1 1 1 1 1 2 0 0 1 0 0 2 1 2 0 0 1 2 1 2 0 2 1 2 1 0 1 0 1 2 0 2 1 2 0 1 2 1 2 0 2 1 0 1 0 0 2 0 2 0 2 0 2 0 1 0 2 1 1 1 2 0 0 1 1 0 0 1 1 2 1 0 0 0 1 0 2 0 1 0 0 0 1 2 2 1 0 1 0 1 2 0 2 2 1 2 0 1
split_gain=1724.31 336.554 651.64 356.012 189.427 235.595 142.622 117.147 130.069 105.533 95.009 75.9365 570.57 87.6444 82.2646 104.587 126.291 72.1102 66.6103 62.0105 256.116 98.0106 53.4454 51.0807 48.5288 44.1263 40.8444 39.0309 38.7289 35.014 34.0096 48.4951 31.9098 87.8475 44.0342 38.1565 35.0229 40.8658 30.9647 27.3777 26.7521 26.672 49.2635 33.4697 25.6802 25.6499 31.5839 41.1173 26.8945 24.2372 24.1363 26.272 23.3832 23.2254 21.7812 25.2843 21.7016 20.6794 20.443 21.1248 24.2185 22.0288 19.6964 19.6952 19.5359 18.9215 18.4956 18.3869 18.3563 19.9201 18.2037 18.1056 18.0914 17.7358 24.9939 17.3605 23.5031 23.3937 17.3512 17.3144 16.7913 63.5152 26.6209 30.9052 25.8966 20.9984 23.73 17.844 16.3583 16.1782 16.7935 15.9524 54.1986 40.4538 15.7999 17.5924 15.1487 15.0286 14.9185 21.6478 14.8001 14.3585 39.1439 14.3056 14.2885 23.2073 15.6216 14.2082 14.1657 17.5265 17.5843 14.1444 14.0461 16.0949 13.9614 16.9897 13.9213 14.1922 13.9111 28.6984 13.6944 13.6435 17.1886 15.2786 14.9134 23.6219
threshold=-0.0036790539370661498 -0.35630246018258604 -0.4807717121566597 -0.31990743519233972 -0.10025920250119799 -0.055395742008837845 -0.3069182176798862 -0.017459182647068399 -0.074474998637262688 0.0075326174993469008 -0.030203840664285046 -0.13036320032404577 -0.18600744542610978 -0.15386793609780028 -0.14969957439215692 -0.055395742008837845 -0.13386717050078598 -0.023602117047064195 -0.27557548952950955 -0.24630673941802625 -0.25189009658576028 -0.21657680485501057 -0.74499341536842822 -0.24630673941802625 -0.47273153709079246 -0.016911544512757747 -0.23122885776863616 -0.016437921211779546 -0.052111692248527887 -0.10553806814020689 -0.23122885776863616 -0.23566794254376347 -0.74499341536842822 -0.40914208146223624 -0.65128288334546747 -0.66296264856676501 -0.72106380215398513 -0.67507720852462005 -0.19973559818887412 -0.3985026550475933 -0.47803924587439672 -0.20072230173162242 -0.17952745985470456 -0.1506671844401152 -0.71210918143295288 -0.27351496976600403 -0.47086971038938935 -0.30142823786451162 -0.38271326882703738 -0.21373288041107794 -0.96220769500476833 -0.35880853150930309 -0.11364471542485373 -0.48104341822092328 -0.96327402995621092 -0.66296264856676501 -0.23308188382694381 -0.40391977942515445 -0.033025581655028044 -0.091093451417810681 -0.05333623408881704 -0.092041108318620737 -0.72906430179917814 -0.2336069177026909 -0.047208380983194194 -0.96107307447085366 -0.088961363131546442 -0.37695430968305238 -0.048141712781510838 -0.010079509050053998 -0.32479942573172738 -0.22870086578889673 -0.25429961712210319 -0.81777180777821801 -0.42361968834671254 -0.53661268406215512 -0.35094276477896025 -0.51853370786954989 -0.38068604684451562 -0.45375823220984995 -0.10559191542727274 -0.048363350931855294 -0.05304324649076559 -0.039992892440049339 -0.10489360406358508 -0.053813715191389042 -0.051712330493647797 -0.048671137746396344 -0.20367595237971955 -0.52761166383581315 -0.60112028270266549 -0.23122885776863616 -0.21467356337135238 -0.14122675294982232 -0.094171059759721329 -0.10848957943860119 -0.92277323342080353 -0.20515132578797626 -0.050381940497459241 -0.034774350949225992 -0.58220801982383497 -0.030203840664285046 -0.05304324649076559 -0.40685446418933241 -0.33326188898323622 -0.53661268406215512 -0.71812935481538898 -0.16964136775263286 -0.19973559818887412 -0.20316145890803197 -0.23254794591152123 -0.42361968834671254 -0.37022799278864321 -0.72062205903738363 -0.11084575254409974 -0.11434119608273868 -0.20640555884427803 -0.23532720253242873 -0.10696120404267934 -0.039992892440049339 -0.09394744633189038 -0.37709725295564911 -0.7175299435958078 -0.36346890586850505 -0.56418930899237685 -0.71528689403269585
decision_type=2 2 2 2 2 2 2 2 2 2 2 2 2 2 2 2 2 2 2 2 2 2 2 2 2 2 2 2 2 2 2 2 2 2 2 2 2 2 2 2 2 2 2 2 2 2 2 2 2 2 2 2 2 2 2 2 2 2 2 2 2 2 2 2 2 2 2 2 2 2 2 2 2 2 2 2 2 2 2 2 2 2 2 2 2 2 2 2 2 2 2 2 2 2 2 2 2 2 2 2 2 2 2 2 2 2 2 2 2 2 2 2 2 2 2 2 2 2 2 2 2 2 2 2 2 2
left_child=1 32 3 22 6 71 40 8 28 17 11 12 19 23 114 16 52 -2 79 20 24 30 -3 -14 -8 -9 -25 -27 58 -18 31 38 33 35 39 65 37 -34 -21 62 -4 43 -43 -23 67 46 47 103 -48 72 51 57 -16 78 55 -41 107 -36 120 61 66 101 -35 -45 68 -1 -61 104 69 -29 -47 -6 -22 74 -67 -46 -77 -78 -52 -5 87 85 -83 -84 -85 -82 -87 -17 97 90 -39 93 -93 -90 95 -54 -75 -65 99 -86 112 -60 -103 -26 105 106 -24 116 109 110 -58 -98 -38 -114 115 -13 -33 -118 -89 -120 -7 -102 -123 124 125 -124
right_child=9 2 4 18 5 7 10 25 -10 -11 -12 14 13 -15 15 80 29 -19 -20 21 49 41 44 26 45 27 -28 64 -30 -31 -32 56 36 34 50 -37 100 89 -40 54 -42 42 -44 63 75 70 48 -49 -50 -51 53 -53 94 -55 -56 -57 108 -59 59 60 -62 -63 -64 88 -66 73 -68 -69 -70 -71 -72 -73 -74 96 -76 76 77 -79 -80 -81 81 82 83 84 98 86 -88 118 91 -91 -92 92 -94 -95 -96 -97 111 -99 -100 -101 121 102 -104 -105 -106 -107 -108 -109 -110 -111 -112 -113 113 -115 -116 -117 117 -119 119 -121 -122 122 123 -125 -126 -127
leaf_value=0.028968879125062526 -0.11634627751511835 -0.05655805013390635 0.060663356991754173 -0.10490705099526512 0.069252782668138571 -0.00854228764766987 0.014005603332236558 0.038865086334673615 -0.083821145142600792 -0.13443014069449452 -0.12264625840068298 0.057057421922430122 -0.10680504516163913 -0.10513851454112616 0.018958172137522971 0.019888818993502311 -0.022323941670317954 -0.031348749499584314 -0.10747557202945356 0.053816399024026323 -0.077189535631771888 0.014033737802967496 -0.0026885329310934137 -0.0087941532886665046 -0.00838738512912055 -0.011962086876646259 -0.056086172981300669 -0.15106784035056572 -0.028223430453663441 -0.061767142486416841 0.10886967807181305 0.022799038902534638 0.06961406933386613 -0.039605728855034439 -0.20626203571809457 -0.075554515868242841 0.022890222170120492 0.007892328502237941 -0.21724560512491214 -0.093587864062566584 0.023330340852984008 -0.10190831120421417 -0.00054214588415637762 -0.21157626362240217 -0.079804118767411683 -0.089050778078983886 -0.039280793284183442 -0.020018619673808653 0.015035539861144035 -0.09423839143681581 0.0089121508588325161 -0.20204709921248992 -0.0174607401521641 0.073674667889977216 -0.056564057678347185 0.15960479372349326 -0.2058095691694696 0.054301553367049421 0.035733687383503451 -0.20761742486281057 0.015195288115100942 0.087533541036323118 0.011535738391021705 -0.026980092848587392 0.0026396947009827438 0.00329281550599361 -0.036945192967859149 0.13038249438120572 0.033651726115053425 0.14205563795673432 -0.023313407624641846 -0.096430686335824287 -0.035902421207407567 0.022462396378120048 -0.091017314808088265 0.035546035004579174 -0.13521348407027045 -0.025045917541001852 -0.020219718301778836 -0.056640496076272279 -0.15929757799965144 0.031475587751340538 -0.0090214128044055261 -0.20176096623428982 0.077932473402793467 -0.019369594679321075 -0.13711502893307367 0.12155622428078677 -0.2062324983572098 -0.22083309951048144 0.06211628618241001 -0.20685893700703267 0.0877202168662638 0.15976024093119484 0.0028185175991124805 -0.11589598702554199 -0.21403926140807178 -0.20937019259492101 0.007010609582816474 -0.1011547653899264 0.10939545403769767 -0.21006566725904904 0.024826438680535107 -0.19989066968790908 -0.025877539113123765 0.013449305409043641 -0.058277955386986172 0.16732357100890277 -0.20939747734691427 0.069530024037599808 -0.027764940464074989 0.0046557402312510229 0.035086733926131604 -0.0016293676180387082 0.024631877531103411 -0.021276288644924018 0.038669652155897169 -0.066925639389992894 -0.21052173022616383 0.10452420991785963 -0.085355006373276199 0.045339553505416512 0.062209553812511656 0.031535096719048285 -0.028128698473034383 -0.049113203317454557
leaf_weight=2543.1245595694054 192.88746005215216 269.81547953782137 550.6806346452795 84.860168874787632 6.7325255509349509 233.12822047207737 3667.2188554356107 280.60586360027082 347.01653465619893 870.54271373731899 57.411042291671038 246.17659938242286 121.21053442926495 359.6514683420537 872.79296070223791 3129.0012628933182 595.20896955239004 206.84941346128471 643.02352092706133 714.12995759956539 150.09512900712434 3451.1637803124613 127.92675811855588 307.44988729414763 4.9028987358324256 2235.7957078682375 449.8045069205109 10.425927174772367 970.04687682335498 361.90107387161697 68.144258196814917 335.80202396272216 367.81241453811526 116.71910621016286 3.1056110411882392 38.979862174484879 1778.4631625793409 218.46973187197 4.2393550574779502 6.4370583180570984 294.64116218476556 50.246145208599046 1046.6733169228246 7.3659088159911326 58.897685549396556 51.268512133974582 105.3979099059361 154.33254949573893 674.79708403610857 145.53376861303695 534.70231817336753 4.2689703170908606 207.50188218086259 42.283631370402873 257.44318103400292 10.184142909478396 7.8015859797596923 158.30456996394787 113.40739468263928 9.6023872814839724 68.287525010178797 65.623200553003699 212.25954738887958 9.0821250256849453 2931.0058205816895 322.11213172099087 18.743911168421619 10.701025685761122 306.94572729856009 2.981375719420611 236.18584343267139 324.28017718222691 362.33579185948474 995.75761289522052 30.786518470908049 60.491792453103699 20.792004197486676 264.16436107543996 331.02493700798368 598.45318493980449 18.455459338147193 528.30877069971757 581.22278539091349 4.3982948567718259 104.41558372229338 83.139953060192056 21.553618672420271 30.338857742841356 3.9691531362477699 2.7676722258329383 77.334080229047686 12.051828011521138 12.964442122727633 12.629934421740472 1128.9733392232447 19.897105054405984 5.2313474933616817 8.9890936324372888 68.262719618389383 7.2161689967615521 22.566970684798434 9.5759808579459769 27.378723719506525 19.084940492990427 194.14314946212107 654.19349037401844 83.580369749222882 6.2262986898422232 5.343899128609336 11.210958308540283 19.195630211383108 6.8035554904490692 151.97625746799167 556.8521890953416 2569.428583494504 31.196537054493092 19.340051710605621 37.229312959127128 4.3776449752040199 8.5165573752019537 25.776263391016982 443.68267039360944 60.523633429082111 342.95311962917913 109.03998992929701 27.823745790519752
leaf_count=33416 79536 53332 3000 22020 704 12308 94344 9520 105292 366884 20176 1288 44768 126048 22916 38568 62952 100816 215264 3980 28340 76240 8880 25408 612 19952 78284 3048 134288 73484 532 4188 1476 12164 116 1328 23292 2676 52 604 4128 11208 49720 180 12692 11476 9172 7956 22232 45428 17156 308 11832 368 31244 80 208 4000 1432 600 6552 588 8404 200 240824 9340 3772 96 8424 36 26876 108704 53200 22588 5488 1804 3696 18772 31540 105772 564 11640 23888 352 1836 4080 1676 360 84 20 804 272 76 32 59656 3008 184 116 3164 272 100 316 340 528 15336 21348 9172 4 140 100 296 464 2524 23624 30332 484 124 592 204 200 4212 6944 568 5884 2924 1276
internal_value=1.55624e-10 0.00324224 -0.001313 -0.0453238 0.002889 -0.0104627 0.00729979 -0.00689165 -0.0285084 -0.114899 0.00583792 0.00615484 0.000921388 -0.0635568 0.0123888 0.00706392 -0.00685488 -0.0723631 -0.0843741 0.00791498 0.000366301 0.0151115 -0.0156376 -0.0465328 0.00821261 0.000186502 -0.0368853 -0.00179147 -0.0160572 -0.0372381 0.0402109 0.0361794 0.0196547 0.0147399 -0.00443289 0.0228934 0.0262935 0.0473026 0.0522168 -0.0260565 0.0476507 0.00842936 -0.00518538 0.0126742 -0.00815161 -0.00883771 -0.000980395 -0.0389498 0.00769785 -0.0582241 0.00771212 0.0428122 0.00619042 0.00130764 -0.0494009 0.0615483 0.0101231 0.0492882 0.00459259 0.021804 -0.017059 0.0391917 -0.00660886 -0.0573003 0.00520235 0.0238764 -0.0947609 -4.21289e-05 0.0286489 -0.0858861 -0.0350379 -0.0930608 -0.0479957 0.0143586 -0.0049347 -0.0296222 -0.0210664 -0.0330844 -0.00222689 -0.0626347 0.0167277 0.00767716 0.014209 0.00229273 0.0379753 -0.0609475 -0.0436102 0.0207704 -0.0382611 0.0198169 0.0220685 -0.00376283 -0.0541961 0.0722445 -0.00202533 -0.0260737 0.0211145 -0.117706 0.0438367 0.0663558 0.0222864 0.0180936 -0.0360406 -0.160749 -0.001359 0.00413956 -0.0246556 0.0174463 -0.0568999 -0.0355711 -0.0792158 -0.0904069 0.018146 0.00624274 0.0269328 0.0482471 0.015068 -0.0308245 0.0845759 -0.00243543 -0.0161897 0.0325173 0.0307543 0.0187781 -0.00338683 0.02715
internal_weight=46286.6 45016.3 35236.5 3071.04 32165.4 7987.36 24178.1 7656.35 1888.59 1270.28 23332.8 23275.4 12653.1 1238.12 10622.3 7775.48 3186.28 399.737 1326.34 11415 5571.15 5843.8 1744.71 878.465 4913.19 5767.76 757.254 5487.15 1541.57 957.11 1228.66 1160.52 9779.79 5619.53 1676.73 3942.8 4160.27 666.384 718.369 603.043 845.322 4615.14 1096.92 3518.22 1474.89 1245.97 958.515 178.32 780.195 657.965 1073.69 165.679 2229.17 908.011 274.064 16.6212 442.15 161.41 571.524 312.619 96.6338 215.985 328.979 67.0525 3251.36 3903.82 28.3463 1070.54 320.353 13.4073 287.454 331.013 512.431 1360.69 352.899 404.346 345.448 284.956 865.727 683.313 4589.21 1416.97 1293.82 765.516 184.293 123.149 104.694 3172.23 59.6866 298.571 295.804 41.6154 25.0163 16.5991 1356.37 227.399 1007.79 18.0712 179.894 111.632 3493.88 150.362 36.9547 23.9878 1059.84 865.701 211.507 398.598 43.5521 38.2082 26.9972 12.0349 2487.29 708.828 2846.8 277.373 392.371 56.5694 43.2331 12.8942 258.904 1006.59 984.023 540.34 197.387 88.3474
internal_count=3050312 2503076 2252172 488184 1763988 660912 1103076 551504 269700 547236 1095948 1075772 723016 274508 352756 320652 233848 180352 343056 448508 300164 148344 145128 148460 173196 281804 103692 272284 164408 136436 10216 9684 250904 178792 105984 72808 72112 4976 4032 52496 7128 138128 60928 77200 91796 78852 40500 9096 31404 126968 53488 4424 97412 49064 31928 684 5652 4116 30120 13600 10924 2676 20568 960 252332 71480 4372 54832 11508 3084 38352 109408 81540 38064 14828 36964 24272 22468 48696 127792 86804 47472 41152 29512 5624 6320 5756 39332 780 3500 3480 464 348 116 74496 14840 23236 316 5272 2108 67136 2088 656 1140 54736 39400 18052 4908 744 604 504 648 49440 26148 32104 1772 4904 716 764 404 16520 17696 17596 10652 4768 1844
is_linear=0
shrinkage=0.1


Tree=5
num_leaves=127
num_cat=0
split_feature=0 2 1 2 2 1 0 0 0 0 0 1 2 1 0 2 1 2 2 1 1 2 1 2 2 0 2 0 1 1 2 2 0 0 0 2 1 0 1 2 2 1 0 1 0 1 2 0 0 1 1 1 2 0 0 2 2 0 0 2 1 2 0 1 1 0 0 0 2 1 2 1 2 0 1 0 1 2 0 2 1 2 2 2 0 2 0 0 0 2 1 1 1 0 2 0 1 0 2 1 1 1 0 0 1 0 0 1 0 1 0 1 1 1 0 2 1 2 0 2 0 1 0 1 0 2
split_gain=1426.22 259.177 576.492 259.465 188.933 242.605 143.513 229.567 116.587 108.043 95.2164 79.0778 300.93 82.9358 79.8213 64.834 61.8198 293.505 57.8891 53.3029 48.0281 193.339 88.0776 43.3705 43.141 38.5529 38.5174 37.2379 36.9347 44.2953 35.1036 32.9394 32.1884 30.5912 28.5484 27.6719 27.7006 27.5134 26.8816 26.5897 25.2958 25.1373 24.0178 38.7387 22.3623 21.4951 43.2479 23.5906 20.5293 20.5209 67.3338 66.8805 35.5795 20.0277 19.8433 31.1824 19.6859 19.3885 20.1361 19.3601 18.8272 18.6302 25.9362 18.4501 18.0916 35.0575 26.1836 21.7987 27.9542 36.9739 18.0625 17.7458 17.5716 17.3939 17.2066 22.264 21.8645 17.2007 20.8792 16.8042 20.6211 16.4729 16.1148 16.076 37.6125 40.2157 16.1253 16.0112 15.9808 24.1388 17.2512 15.9655 19.7055 15.1837 14.586 14.4785 14.4215 14.2552 24.545 16.0376 16.2149 29.943 14.2067 14.1044 13.5165 15.5439 13.4367 23.796 42.6756 18.175 17.6245 16.6888 16.217 13.3834 18.7687 23.4032 13.3109 13.2781 17.5572 13.9152 20.7811 16.3928 30.6451 22.2792 18.2802 17.5103
threshold=-0.0036790539370661498 -0.35360228259485899 -0.4807717121566597 -0.29410093182016711 -0.10025920250119799 -0.017459182647068399 -0.016437921211779546 -0.016170974036845195 -0.021548260515449346 -0.4469866310544795 0.0075326174993469008 -0.055395742008837845 -0.13386717050078598 -0.11496029147994789 -0.065901049717554935 -0.023602117047064195 -0.13036320032404577 -0.18600744542610978 -0.33641659882246772 -0.055395742008837845 -0.24630673941802625 -0.25189009658576028 -0.23599758698921042 -0.28601930360984423 -0.14863180971724876 -0.016911544512757747 -0.20944396822267122 -0.17308892228930198 -0.24630673941802625 -0.23122885776863616 -0.089994859345020189 -0.30316363902933763 -0.53661268406215512 -0.34214549874473338 -0.027488108492816649 -0.19593749959900433 -0.23566794254376347 -0.48104341822092328 -0.10553806814020689 -0.2412491854845604 -0.20072230173162242 -0.47803924587439672 -0.0084095431999547474 -0.0088399031855410978 -0.11084575254409974 -0.22541969968415432 -0.21228837221702399 -0.19302442974493536 -0.19973559818887412 -0.74499341536842822 -0.9588556792679821 -0.72106380215398513 -0.38672275997846894 -0.63068056909053971 -0.077410346387952342 -0.14326778227523468 -0.22395330275887793 -0.09998117716449563 -0.08889978909691254 -0.21657680485501057 -0.22254545342856646 -0.42796333611014187 -0.87638225058285635 -0.22870086578889673 -0.23496412569006322 -0.21424070173515067 -0.18960475646941907 -0.19973559818887412 -0.21373288041107794 -0.23532720253242873 -0.16657956874767102 -0.47843616042554349 -0.20809933250701171 -0.25429961712210319 -0.19707218520820544 -0.17647610468099048 -0.23410810555736608 -0.27146435734549007 -0.30785733968320156 -0.21657680485501057 -0.23308188382694381 -0.31990743519233972 -0.30501445258460841 -0.20665409973929927 -0.18960475646941907 -0.20809933250701171 -0.17952745985470456 -0.017143733452137197 -0.77440736441515623 -0.4190247779068646 -0.9568837131593525 -0.051712330493647797 -0.042871776419197892 -0.45375823220984995 -0.071848619098804731 -0.49036279323113535 -0.45195880802317479 -0.20316145890803197 -0.21808593004673471 -0.23040979156109595 -0.23122885776863616 -0.23254794591152123 -0.38271326882703738 -0.67507720852462005 -0.11400760538314804 -0.096090438148224336 -0.18960475646941907 -0.23410810555736608 -0.18631092021126797 -0.23566794254376347 -0.18272896597153207 -0.22668930446942973 -0.23254794591152123 -0.052441984258318593 -0.026546538497534248 -0.091093451417810681 -0.93247982682549979 -0.094909710573410536 -0.031087829844658747 -0.091093451417810681 -0.029314945704153949 -0.053813715191389042 -0.029314945704153949 -0.053586349759798993 -0.029314945704153949 -0.093000166703081241
decision_type=2 2 2 2 2 2 2 2 2 2 2 2 2 2 2 2 2 2 2 2 2 2 2 2 2 2 2 2 2 2 2 2 2 2 2 2 2 2 2 2 2 2 2 2 2 2 2 2 2 2 2 2 2 2 2 2 2 2 2 2 2 2 2 2 2 2 2 2 2 2 2 2 2 2 2 2 2 2 2 2 2 2 2 2 2 2 2 2 2 2 2 2 2 2 2 2 2 2 2 2 2 2 2 2 2 2 2 2 2 2 2 2 2 2 2 2 2 2 2 2 2 2 2 2 2 2
left_child=1 49 3 18 9 8 25 -8 19 31 15 12 14 -14 16 -2 17 20 32 -6 21 23 59 -11 44 87 45 40 -19 -30 34 41 -3 96 117 36 -29 -20 -15 -5 48 82 -9 -44 -18 64 47 -47 -28 50 61 103 88 -54 55 57 73 -26 104 -22 -16 -1 -63 -10 66 -66 67 -24 69 -69 -31 -35 106 -23 75 -74 -77 -73 -79 97 -81 102 93 84 -61 -86 -87 -7 89 -52 -90 113 -93 -4 -32 -64 -25 98 -67 100 101 -99 -39 -51 -59 -106 112 108 109 -108 -109 -112 -50 114 -36 -116 -34 118 -21 121 -121 124 123 -123 125 -119
right_child=10 2 4 39 5 6 7 42 63 11 -12 -13 13 38 60 -17 24 28 37 30 22 56 26 33 54 -27 27 35 29 70 94 -33 116 71 91 -37 -38 81 -40 -41 -42 -43 43 -45 -46 46 -48 -49 72 51 52 -53 53 -55 -56 -57 -58 58 -60 83 -62 62 95 -65 65 79 -68 68 -70 -71 -72 77 74 -75 -76 76 -78 78 -80 80 -82 -83 -84 -85 85 86 -88 -89 90 -91 -92 92 -94 -95 -96 -97 -98 99 -100 -101 -102 -103 -104 -105 105 -107 107 110 -110 -111 111 -113 -114 -115 115 -117 -118 119 -120 120 -122 122 -124 -125 -126 -127
leaf_value=0.027088146667089249 -0.11045032997848442 -0.041536627036521938 0.050827805035586794 -0.076541990769421253 -0.07911049972909201 0.13803719584709964 -0.048044243934729683 0.0094811435426246822 0.06765568313947827 0.012888448151398783 -0.12816686900153598 0.017829826557628815 -0.10628041638588395 -0.021337467774878709 -0.13307853783919879 -0.027460096032810844 0.050288905012666134 -0.10199003268187896 -0.076684869310595732 -0.010548567699616745 0.056701744197377939 -0.069931176396557354 0.024878936168751396 -0.033954911874667079 -0.038885854607709686 0.035948163546194116 -0.052729792049899263 -0.070685009378677763 -0.012994222665580233 -0.043475515260996994 -0.038508555361545987 -0.14023967927166051 -0.038395179041725083 0.049005194305611177 0.075101494394710505 -0.0082528891522528451 0.021484199327185163 -0.024653550668760155 -0.05749975618577028 -0.11272042511639775 -0.065902974332712569 0.0069114001769762807 -0.13125894785538839 -0.0080309772086370555 0.020474639352062979 -0.15678165260724258 -0.079441718411970855 0.10866413169392489 0.075694399751097444 0.065625823800356503 -0.00013631684919526008 0.017217188717783504 -0.067546808957797785 -0.016499825203116294 0.020695445372093613 -0.022826584886840827 -0.076884798679057953 0.049332815171550887 -0.0038821622658719401 0.025603862287494995 -0.030495170672112899 -0.085683621106370636 0.013476495739710617 -0.087493533885696903 -0.032594712173386518 -0.14480768644876799 0.072554258761266963 -0.20793085428908303 0.0053360362632049255 0.044061590997189648 -0.080633947950846108 0.0074447589867322264 -0.01018434831178733 -0.02380503392330964 0.15403007608927283 -0.0085474524935893383 -0.15686762899989212 -0.053895593109561747 -0.0062071659296393878 0.025574795530627015 -0.0075049149231479848 -0.048295164920545593 -0.023440038180770256 0.055458020791805424 -0.20987034067823568 0.088555894480634612 -0.20793448621031946 0.0038389018143551142 0.035200807823241018 -0.065990926651106493 0.0037021584498498775 -0.18690589106530234 0.066828322771682672 0.088657438220650059 -0.11932723680155549 0.086796082443547209 -0.14062910245645813 0.086271886037220719 0.035062307827960541 -0.070359539610873462 0.15447293534533366 -0.21453451058557951 0.044801949695013582 0.035479842988514934 -0.034795354059750171 0.027373066486893638 0.11483984498326148 -0.038753904540825661 -0.19808575266979137 -0.078386525799727144 0.083035444622878499 -0.19990145306572907 -0.035781142590884191 0.12593910572720063 -0.22801420308081474 0.055167594973728563 0.0072100495252513082 0.0054602180134899064 0.052329131811998379 0.023128796980557989 -0.190872862527658 -0.18887778109399339 -0.17927813040117779 -0.032633813183038478 0.092052604012789252 -0.20373077981302068
leaf_weight=2008.1044053741498 180.70254646369722 213.53775052522542 389.30670747254044 460.3367149149708 179.30124483510735 9.0075187808833999 1154.411977161828 2255.2420990492974 7.8010585261508814 3614.1714246873744 799.79844580162899 4452.3826881447458 201.07580949965632 542.24129445623839 48.742889084416674 196.4970520172501 275.60735842655413 120.78529841062846 190.70745888428064 460.43417651409982 457.31606656941585 122.730263108504 895.6350359315984 233.60878272086848 76.286946919630282 1052.1615393330576 102.47367171378573 33.698735285317525 312.1462525750394 284.98182712931884 522.11548892705468 9.3549376591108722 71.035997128870804 66.892664234386757 29.491309770615771 615.25467126211151 1006.9056667987024 308.74120945698814 331.06975939971744 363.61160798635683 94.418140062538441 118.73479887528811 26.927869097853545 484.82911253441125 2885.1957662668428 3.5083121119532725 17.070052688010037 73.275020313216373 63.175128718605265 354.89863744238392 281.99745823943522 3706.3689286439039 100.54167232342297 326.28288037638413 497.21951332769822 486.74643141770503 222.64912175250356 182.12373635964468 339.94522651191801 289.88250503875315 28.265788156131748 26.171113657066599 1784.7747896200162 438.7834442545136 188.8764586483594 8.2306360986549389 103.70653036888689 15.840534159680828 82.375733319669962 9.2068945800419897 241.82013791991631 596.20567678730004 439.36021967011038 244.85567762079882 5.9777042567729941 18.521353128133342 21.448700108216144 120.8430856509658 382.13185915269423 361.80098868405912 393.3009622284444 380.07224377748207 23.517507618293166 143.17508799338248 14.649326235521585 10.143138480372725 2.2393593976739803 684.72879272629507 236.46342644793913 69.347602370136883 656.90497986669652 5.984223577892406 6.2652641838649288 145.84825373534113 23.329052924818825 27.34561703982763 13.400360421539515 24.984223026782274 96.949667694745585 6.2536278986372045 26.833225294481966 3.8144037612364619 32.554992689867504 275.82187416148372 52.79603380872868 168.81477527110837 10.688944266177716 22.982721636537462 14.792373840464277 8.9387656282633525 42.294975670287386 2.192793740425258 16.447603206615895 24.399696402484551 5.3768702268134785 6.3827450970420614 646.10515906184446 19.36634751374368 49.148396088450681 72.725161002541427 4.8396486359415567 9.4406767753534933 16.193431903957389 274.02581665670732 19.52422007266432 5.0433925184188402
leaf_count=19296 79536 31776 2136 125036 63104 52 9848 169196 616 73828 366884 86904 77072 60968 20304 100816 1772 49308 38660 38388 2164 27024 11968 23296 4940 19952 7100 820 30428 47944 89504 540 12712 1460 128 31104 20772 30880 73520 138664 17480 2984 4852 68436 37652 196 976 796 836 1476 9980 74736 17224 28864 18396 37348 64388 3772 13256 3564 2564 1400 60328 144032 4872 208 712 456 1268 200 70024 24656 16412 35556 8 704 1332 14388 32052 8064 9140 68616 380 2444 308 80 60 9468 6488 10144 29392 864 260 700 8304 268 3904 416 968 196 52 148 776 3744 4328 6940 52 616 492 236 480 124 520 96 84 108 28628 432 1332 5936 588 492 1128 23324 92 296
internal_value=-1.10312e-10 0.00290925 -0.00121933 -0.0458593 0.00256838 -0.0108721 3.29085e-05 -0.0105852 -0.0392222 0.00704108 -0.108634 0.00586874 0.00298102 -0.0483782 0.00615818 -0.0672177 0.00661061 0.00281573 -0.0250015 -0.0274839 0.00729976 0.00072389 0.0137256 0.00708065 0.0160321 0.0238818 0.00833171 -0.000220888 -0.0502886 -0.042845 -0.0215276 0.0461231 -0.00745545 -0.00777366 -0.0104754 0.00855927 0.0184994 -0.0429055 -0.0350465 -0.0925077 -0.0170537 0.0486967 0.00504304 -0.014515 0.0230743 0.0176535 0.0645289 0.0965356 -0.0110582 0.0171928 0.0131472 0.0223398 -0.00360983 -0.0285243 0.00369294 -0.00277671 -0.0534191 0.00912524 0.0140502 0.0421309 -0.0954256 0.0204294 0.0131555 -0.0847833 0.0156699 0.00665542 0.0247192 0.0197735 -0.0227931 -0.115304 -0.0605325 -0.0010018 -0.00465437 -0.0392057 -0.014582 -0.0166848 -0.0881389 -0.00404507 -0.0176646 0.0146945 0.00834496 -0.0339753 0.0575774 0.0276478 0.0150837 -0.0977316 0.034936 0.00558134 0.0049336 -0.0131345 0.0120395 0.047677 -0.0571281 0.0611377 -0.0419652 0.0145829 -0.039742 0.0433933 0.020987 0.081475 0.0985429 0.0464298 -0.0180284 0.0524426 0.0291493 0.0125622 0.021889 -0.00216263 -0.0698232 0.0268415 0.0323544 0.0690895 0.052667 0.0672322 0.0325074 -0.0743121 0.00269265 -0.0153426 -0.00448412 -0.0284809 0.00977618 -0.0371173 -0.0454808 -0.0378374 0.0199278 -0.0377616
internal_weight=45127.1 43950.1 34095.1 2666.7 31428.4 7847.28 5667.31 3921.41 2179.97 23581.1 1177 22894.4 18442 1074.39 17367.6 377.2 17290.6 12325.9 1842.75 1733.39 11366.1 5617.49 5748.64 5027.25 4964.74 1745.9 4831.23 2519.57 959.734 838.948 1554.09 686.762 930.679 1413.08 1008.64 1655.86 1040.6 912.076 873.311 823.948 863.713 677.407 2767 511.757 3160.8 2311.66 93.8534 76.7833 769.295 9855.02 5517.93 4337.09 1671.54 426.825 1803.93 1306.71 590.235 819.967 743.68 917.405 77.0087 3846.4 1838.29 446.585 2217.81 1111.04 1106.76 1003.06 107.423 25.0474 526.802 1166.07 666.821 367.586 485.308 479.33 39.9701 1099.18 502.975 922.168 755.102 721.368 558.672 460.089 316.914 27.0318 12.3825 693.736 1244.71 351.345 893.368 77.9001 12.2495 535.155 545.445 1812.12 247.009 167.066 105.18 61.8855 55.6319 28.7986 341.296 630.721 403.735 221.611 181.513 101.891 34.4201 19.6277 67.4705 44.4878 79.6227 65.6506 41.2509 11.7596 717.141 930.741 509.583 421.159 77.5648 343.594 299.66 283.466 43.934 24.4097
internal_count=3050312 2503076 2239736 475748 1763988 660912 281804 252332 379108 1103076 547236 1096336 1009432 211560 797872 180352 775004 646600 212048 234460 448896 300552 148344 173584 128404 29472 139724 99088 197704 148396 171356 6740 73116 99756 73548 52696 21592 138932 134488 263700 46392 6200 242484 73288 39424 40636 1968 992 28912 263340 183384 79956 102092 46088 88980 70584 126968 33236 28296 8620 22868 81292 61996 144648 38668 24064 14604 13892 1924 656 117968 72556 21812 62580 18456 18448 2036 71096 46440 19192 17204 100272 3216 6456 4012 448 140 9520 56004 20124 35880 1540 1124 2836 97808 60596 27200 1988 1176 812 616 564 31656 5220 15040 11268 3356 2000 780 288 1220 604 1356 416 320 192 41340 72008 39720 32288 6524 25764 24944 23816 820 728
is_linear=0
shrinkage=0.1


Tree=6
num_leaves=127
num_cat=0
split_feature=0 2 1 2 2 1 2 2 1 0 0 0 1 2 2 1 2 2 1 2 1 2 1 1 0 0 0 2 1 1 0 0 1 1 0 1 1 2 0 1 2 1 0 0 1 2 0 0 2 0 2 0 0 1 2 0 1 0 0 2 1 1 0 2 0 2 0 2 0 1 2 0 1 0 0 0 0 1 1 1 1 1 0 2 0 2 0 2 0 2 0 0 1 2 0 2 1 1 1 0 1 2 2 0 1 2 1 0 0 1 1 0 1 0 0 0 2 1 0 0 2 0 0 1 1 0
split_gain=1189.2 184.365 395.639 246.314 161.09 357.017 195.828 133.54 172.002 87.4199 86.8102 76.8031 105.48 114.028 56.7756 52.9746 50.9671 47.4553 87.0215 77.3285 46.5189 42.2229 39.9788 47.4221 39.4007 49.8866 45.7245 37.604 36.7283 31.3459 27.1562 26.8936 25.4063 25.1509 24.2167 33.7014 30.624 24.0458 26.7676 23.2715 50.4181 38.2904 37.488 31.3261 22.5982 20.8661 35.3962 22.2739 20.8517 20.7015 20.5523 20.3291 19.0286 18.9614 18.6938 18.3945 17.7523 16.9303 16.8502 16.4424 57.3276 16.1576 20.841 16.0982 16.0117 15.5758 21.3024 14.9801 23.1371 14.6838 19.0588 39.003 50.0548 31.8858 29.0095 14.568 14.1471 16.2943 17.2753 14.0647 14.0476 13.9335 13.916 16.201 13.8839 22.561 13.8524 16.7847 14.4959 13.6324 13.6294 15.7203 19.6657 17.0297 55.7606 15.794 14.5353 21.1463 18.6999 13.5209 18.6163 15.7313 12.7585 12.7494 12.6459 12.4229 35.0342 12.3245 12.2321 12.0489 15.8737 11.966 11.9187 20.5725 18.7295 25.8784 28.9076 24.0107 30.0761 19.2809 17.5509 17.1755 16.4126 13.1999 25.0914 24.1688
threshold=-0.0036790539370661498 -0.35630246018258604 -0.4807717121566597 -0.31990743519233972 -0.20214349192617556 -0.13036320032404577 -0.17482449589282525 -0.097692809065387978 -0.017459182647068399 -0.021548260515449346 0.0075326174993469008 -0.4469866310544795 -0.24630673941802625 -0.26209902589520834 -0.023602117047064195 -0.24630673941802625 -0.27557548952950955 -0.1464784144354013 -0.055395742008837845 -0.12723224191508156 -0.74499341536842822 -0.21657680485501057 -0.067660621698269183 -0.052111692248527887 -0.016911544512757747 -0.016437921211779546 -0.016170974036845195 -0.15386793609780028 -0.11364471542485373 -0.23532720253242873 -0.11084575254409974 -0.17308892228930198 -0.47843616042554349 -0.96327402995621092 -0.15711496326514507 -0.20918511343265003 -0.23532720253242873 -0.34543731810191708 -0.50882352849814516 -0.74499341536842822 -0.3985026550475933 -0.72106380215398513 -0.65128288334546747 -0.67507720852462005 -0.45775172826683003 -0.20072230173162242 -0.15387237626217273 -0.16040021829178028 -0.19756281312791257 -0.21032170149821991 -0.21519476118363043 -0.49036279323113535 -0.077410346387952342 -0.2208837783710744 -0.19431814948137657 -0.19302442974493536 -0.20918511343265003 -0.53661268406215512 -0.56418930899237685 -0.20665409973929927 -0.22870086578889673 -0.015733193129276297 -0.015915459833090447 -0.1399319370972518 -0.17308892228930198 -0.19107602987143713 -0.16040021829178028 -0.089994859345020189 -0.029314945704153949 -0.47561413189705504 -0.30501445258460841 -0.37103904361467549 -0.47503063369758042 -0.35349845189441281 -0.42616350983439105 -0.075721603246982988 -0.10825568198544869 -0.23599758698921042 -0.2336069177026909 -0.68082570368023165 -0.054018792523380398 -0.23599758698921042 -0.37103904361467549 -0.29604384602194034 -0.031087829844658747 -0.09854933075669578 -0.072437044459174274 -0.11527880188753729 -0.054622865191792137 -0.27351496976600403 -0.15387237626217273 -0.16346076377651192 -0.23193092615531155 -0.19756281312791257 -0.16964136775263286 -0.19593749959900433 -0.22870086578889673 -0.23410810555736608 -0.22777380281379614 -0.35349845189441281 -0.45195880802317479 -0.29604384602194034 -0.071848619098804731 -0.37103904361467549 -0.71812935481538898 -0.21228837221702399 -0.22777380281379614 -0.53661268406215512 -0.097949690084494181 -0.087028414229174886 -0.10553806814020689 -0.59165123493945093 -0.22870086578889673 -0.18631092021126797 -0.17308892228930198 -0.17647610468099048 -0.20944396822267122 -0.22668930446942973 -0.16040021829178028 -0.17952745985470456 -0.20367595237971955 -0.17952745985470456 -0.18960475646941907 -0.22541969968415432 -0.22254545342856646 -0.16657365257312062
decision_type=2 2 2 2 2 2 2 2 2 2 2 2 2 2 2 2 2 2 2 2 2 2 2 2 2 2 2 2 2 2 2 2 2 2 2 2 2 2 2 2 2 2 2 2 2 2 2 2 2 2 2 2 2 2 2 2 2 2 2 2 2 2 2 2 2 2 2 2 2 2 2 2 2 2 2 2 2 2 2 2 2 2 2 2 2 2 2 2 2 2 2 2 2 2 2 2 2 2 2 2 2 2 2 2 2 2 2 2 2 2 2 2 2 2 2 2 2 2 2 2 2 2 2 2 2 2
left_child=1 33 3 20 11 6 15 17 9 22 14 32 13 69 -2 -6 82 30 19 28 -3 53 -9 67 -10 -26 -27 76 -19 45 -7 -31 -4 51 36 59 -23 57 -39 40 -35 43 -42 -41 -15 47 48 -17 -47 50 -38 107 63 55 90 81 112 104 111 60 -36 62 -28 108 -50 -66 -67 68 -24 -13 71 72 -71 -73 -72 -32 -8 -78 -79 103 -70 -14 83 -5 -20 -86 -21 -88 -89 99 91 92 93 94 -33 -93 97 -92 -98 100 101 -76 -25 -40 -22 -62 -107 -1 -30 110 -65 -45 -51 122 115 116 119 118 -116 -115 -120 -118 -114 -119 125 -125
right_child=10 2 4 16 5 7 27 8 24 -11 -12 12 21 44 -16 29 -18 18 84 86 37 34 23 102 25 26 61 -29 52 31 75 54 -34 39 35 -37 49 38 79 41 42 -43 -44 58 -46 46 -48 -49 64 56 -52 -53 -54 -55 -56 -57 -58 -59 -60 -61 105 -63 -64 109 65 66 -68 -69 80 70 74 73 -74 -75 89 -77 77 78 -80 -81 -82 -83 -84 -85 85 -87 87 88 -90 -91 96 95 -94 -95 -96 -97 98 -99 -100 -101 -102 -103 -104 -105 -106 106 -108 -109 -110 -111 -112 -113 113 114 117 -117 121 123 120 -121 -122 -123 -124 124 -126 -127
leaf_value=0.028326402739153891 -0.10509335353951393 -0.051396506164917977 0.060788942758691705 -0.053538934283272957 -0.088379534398299292 0.049419410967723426 -0.070840022423818302 -0.081275875016678628 0.028209246813374569 -0.079027827631040354 -0.12296436555880152 0.011136071523108687 0.049711524772325405 -0.025167548912681512 -0.024921032886805014 0.084628081859491056 -0.094838303638504276 0.019439537108041961 0.011695225006536178 -0.11713272987563039 0.0086862013186027997 0.027462636412707433 0.002314934576949782 -0.03047744022914017 -0.013866362227187618 0.058001475956728533 0.0010850027308375797 -0.097310692845312699 -0.097454960761411275 -0.06475363320440311 0.016465576276622897 0.059143238512094978 0.020715038775401984 0.013977758051151418 -0.21778002235071126 -0.21466622862526974 0.0088256947762264722 -0.055031353864858516 -0.007081297117161111 0.061599049797825878 -0.050421092604625933 0.014211279240347624 -0.0020876224352469543 0.01586883239326075 -0.064982371089314511 -0.14955986080243053 0.04083552332756768 -0.21161549409848104 0.045600209063904551 0.01152786927881967 -0.069050211026657954 0.16555586132073741 0.001953846451058209 -0.23158015474036608 -0.0250580503243879 0.10241655023437013 0.081032713376179219 0.02094677684899025 0.076344750537950257 0.068061948513392229 0.13929616363610844 0.0058785176757019907 -0.050259605328886264 -0.032819064021027904 -0.13127255177222621 -0.13729125086481411 0.069128892729117791 -0.033211442914831545 -0.19730665940865744 -0.063251661302568707 -0.10597660207444688 -0.20669123683960955 0.068274247993529921 0.0055803218083007771 0.0079253761200219538 -0.20878807788133769 -0.086145566345593089 0.036578683699376516 -0.040616333934661027 -0.14980918236233831 0.068665026761256978 0.02688436043579899 -0.032862148124396987 -0.10444330983897708 -0.084785912472111175 0.11973771493534568 -0.023818003360850389 -0.11065130270557831 -0.048255263891832892 -0.025527673262761438 0.020862668326000193 0.036911030136858439 -0.056501289921712161 0.059012903541391853 -0.14883474689322071 -0.054231644997567163 0.1065449739202997 -0.10779114737833886 -0.023242668975188754 0.0099289822337655688 -0.15151785683859315 -0.025077016167572852 -0.11126487062185311 0.10245452494501209 -0.046489691876355523 0.13557336130927891 -0.21521526277735378 -0.20133325978727951 -0.0074064691108594403 0.21019078208958961 -0.096644566123446546 -0.052556310518016458 -0.031735170141427738 -0.16887572328075603 -0.19192344344758791 0.094887344678537697 0.069940528847060243 0.062496930757126416 -0.21181105853639012 0.0042800867723035907 0.15471910365424194 -0.097331029141841663 -0.14666934841142473 -0.012035351934095065 0.018779583721790574 -0.21168407319733551
leaf_weight=1070.9116459454526 166.97802160984429 247.18342361206305 409.12377346598078 291.80104300042149 100.66187743411865 267.16026978095761 256.60110281864763 111.58696557299118 456.22078371036332 377.42968119689613 732.43857043871685 2899.3016328003141 464.17798173287883 533.27587102242978 187.53821793905809 56.386086907819845 548.75341705506435 573.41224268323276 4801.6216708410066 24.95674582166248 91.111519105848856 1029.7509815854719 213.43091292559984 756.77186857332708 2198.588694115344 160.01224629752687 221.43931725068251 428.88355322234565 15.77335629070876 119.5996552814031 3289.7079097682144 32.269185679266229 257.95138364273589 3272.1326212208369 9.4361994366627169 4.7364248097874215 65.232641554670408 144.58398198665236 532.80688315746374 340.06224291631952 198.17211705056252 3503.0965229499852 843.49577991111437 244.17493235913571 194.56763052009046 16.106263540626969 104.71274514764082 2.6576684558531261 22.431166410096921 1373.4416025184328 70.528539930703118 10.824701916426418 530.26243439997779 2.5936080655083051 756.46326801908435 44.123229773656931 33.480931950733066 435.32813794893445 42.583020794903859 168.16915273189079 12.989023789763451 2465.3326311836718 122.94796433020383 164.52448874182301 17.291394994594157 7.7547383548226234 14.071065379539503 63.278235024539754 2.0314532304764716 35.546354970894754 27.434461480588652 11.844201819505544 155.56968990148744 17.579349957639351 302.19511261186562 2.8736640758579588 45.729502703936305 41.594965997850522 95.663733346678782 6.7811597385443738 88.328299200162292 630.75398645957466 223.44025490019703 79.570864394307137 6.8143052676459765 25.868056328501552 274.45637090853415 45.570420773496153 203.51807463669684 217.63860265692347 19.047585588414222 187.90014668065123 64.83699111698661 45.873262894805521 21.467035178793594 21.153365247067995 13.81252272124402 38.80080862948671 56.5558679131791 792.11220233712811 9.1618697100784612 276.67320628941525 20.066793282108847 10.842460046987979 76.344655474560568 7.2594405601266772 4.6841934712138027 2.3417867345269761 345.73633035895182 1.8236525434767816 51.059364756452851 28.54532264964655 64.815907074138522 13.735683546983637 15.715099784312772 43.161312599200755 39.547925327555276 24.328335484722629 1.7633313471451399 12.091470596147701 5.0416352087631813 7.2664418451022348 15.370929034193976 12.959125116933139 48.90798882371746 11.395265169441698
leaf_count=11420 79536 53332 2020 62128 42052 1772 54344 43024 9520 133952 366884 57464 2164 76824 100816 800 215264 19068 106388 7744 6592 16404 12936 121272 19952 9848 8836 161524 3028 20324 51416 624 4720 87204 252 120 1708 23860 35400 1476 31244 67136 48760 2868 51248 1420 3320 88 812 34700 5604 12 35612 60 63012 356 232 12436 200 1236 44 225728 7920 16804 1104 512 440 14560 176 444 2948 272 2200 124 9128 184 19260 1816 16120 1716 896 7636 43052 22612 328 216 41824 14920 47376 25808 596 4132 3320 1124 908 1184 272 2136 2196 25512 2032 20776 8296 40 11752 20 132 152 25528 36 9116 432 3628 564 688 672 984 312 68 296 12 368 772 304 1024 392
internal_value=-1.35778e-10 0.00260565 -0.000885906 -0.0376772 0.00232059 -0.00282451 -0.0375366 0.00219971 -0.00825627 -0.0368279 -0.103303 0.01247 0.0102152 0.00104433 -0.0626824 -0.0179905 -0.0728589 0.00934164 0.00459795 -0.0117383 -0.0116364 0.0220599 -0.0241417 -0.0185683 3.86896e-05 -0.002448 0.00600539 -0.0762442 -0.00110888 -0.0136146 0.0187569 -0.0194387 0.0452928 0.0148589 0.0159981 0.049015 0.0136289 -0.00406361 -0.0167401 0.0130238 0.007878 0.0183617 -0.0112828 0.0405469 -0.0358109 0.0196247 0.00289629 0.0712936 -0.0482626 0.00596507 -0.0316312 0.0292006 -0.0117318 0.0384976 -0.0151312 0.0391126 0.00892737 0.0105525 0.0178416 0.0551813 -0.00784483 0.00304423 -0.0172453 -0.0242672 -0.0217546 -0.0603782 -0.00421247 0.0110518 0.0202716 0.00669754 -0.00027448 0.0273105 0.0438113 -0.0798678 -0.00401772 0.016269 -0.0556907 -0.0344471 -0.0172231 -0.00668201 0.0626855 0.0365616 -0.0525815 -0.0644458 0.0121374 0.0770943 -0.0443454 -0.0408757 -0.0596705 -0.00226705 -0.000163926 0.00949293 -0.0136385 0.0142615 -0.0239417 0.0276886 -0.0282947 -0.0654297 0.00223318 0.00140098 -0.0100868 -0.00784829 -0.0325643 -0.00489673 -0.0164689 0.0716088 -0.00200301 0.0278253 -0.0113355 -0.0457704 -0.0479356 0.00870685 0.00749849 -0.010009 0.00486426 0.03356 -0.00287877 -0.0228023 -0.115877 -0.0878096 0.0597423 0.0439769 -0.0537668 -0.00132437 -0.0225176 -0.10545
internal_weight=44180.2 43093.3 33536.9 2688.55 30848.4 20470.9 2588.33 17882.6 7257.47 1632.92 1086.95 10377.4 9710.36 5472.9 354.516 1719.85 1143.57 10625.1 7065.4 2231.09 1544.98 4237.46 1255.49 1143.91 5624.54 5168.32 2969.73 868.473 1682.59 1619.19 3559.74 1377.78 667.075 9556.34 3095.81 207.274 2888.54 1297.8 695.014 8472.26 4313.8 4158.46 1041.67 655.366 727.844 241.411 182.367 59.0438 77.6546 1858.78 135.761 1084.08 1109.18 1141.65 1258.18 1139.06 1723.02 602.784 315.303 202.538 34.3689 2809.72 344.387 578.917 61.5484 39.1172 21.8258 367.069 303.791 4745.06 1845.76 220.54 191.116 29.4236 1625.22 3292.58 439.589 182.988 137.259 550.431 90.3598 1094.93 594.812 371.372 4834.3 32.6824 548.502 523.545 249.088 1597.78 501.717 373.5 164.446 99.6095 53.7362 209.054 128.217 57.8484 70.3684 1380.14 588.03 578.868 776.839 543.649 167.456 24.9327 11.9436 1073.25 361.51 217.408 215.584 272.72 1689.54 316.1 235.914 115.803 72.6415 120.111 22.5201 25.8272 6.80497 46.8144 80.1868 97.5907 73.2624 24.3544
internal_count=3050312 2503076 2252172 488184 1763988 1401716 403440 998276 616916 335112 547236 362272 355532 274780 180352 150376 343056 381360 327988 221056 145128 80752 201160 158136 281804 272284 252332 253064 109192 108324 53372 99828 6740 250904 70536 1804 68732 91796 61016 239320 167208 72112 80004 4976 128072 8496 7608 888 4288 52328 7312 11584 90124 10216 79504 10156 45016 30780 3500 1684 448 242484 16756 54512 2868 2056 952 28568 14008 146708 89244 3040 2644 396 86204 51600 91540 37196 17936 37156 1072 9800 127792 84740 106932 544 111864 104120 62296 83256 16492 11292 5976 2656 1532 5316 5200 2732 2468 57448 31936 29904 129568 35440 18344 196 152 11572 28556 25956 25920 3300 44784 10084 5684 2884 2212 2800 768 860 80 1352 4400 2032 1720 696
is_linear=0
shrinkage=0.1


Tree=7
num_leaves=127
num_cat=0
