tree
version=v4
num_class=1
num_tree_per_iteration=1
label_index=0
max_feature_idx=2
objective=lambdarank
feature_names=mfcc_norm_mean_dist mfcc_norm_min_dist mfcc_norm_centroid_dist
feature_infos=[-0.94851146721590318:1] [-0.96410519256675242:1] [-0.4381629183539727:1]
tree_sizes=7124 7139 7153 7115 7132 7138 7138 7135 7095 7176 7153 7133 7157 7147 7097 7157 7146 7108 7168 7123 7040 7107 7134 7072 7026 7086 7090 7039 7005 7031 7035 7097 7090 7102 7070 7106 7039 7109 7073 7075 7101 7118 7101 7121 7071 7066 7106 6989 7072 6996 7022 7079 7106 7052 7078 7084 7103 6991 7049 7073 6980 6934 6996 7004 7025 7087 7017 7098 7006 7055 7085 7008 6985 7028 6967 6947 6984 7036 7031 7011 7056 7025 7005 6968 7040 7023 7073 6984 7006 7074 7029 7037 6900 7055 6974 7052 7013 7075 7053 7050

Tree=0
num_leaves=63
num_cat=0
split_feature=0 2 1 2 2 1 2 2 1 1 0 2 1 0 2 1 2 2 1 2 1 2 2 0 2 2 2 2 1 1 1 2 2 2 1 1 1 1 1 1 1 1 1 2 2 1 0 0 1 1 0 1 0 1 0 0 1 0 2 0 1 1
split_gain=6785.22 1529.63 1971.03 904.383 863.46 635.963 1035.01 682.046 617.384 469.464 345.549 316.334 613.165 312.142 296.335 557.135 295.326 265.476 289.161 239.537 141.182 135.379 108.698 102.815 93.6497 92.7042 91.2214 86.8807 143.719 82.8744 71.4556 68.5979 67.9992 64.8906 61.4713 61.2712 58.4224 58.1912 57.3852 56.5986 53.3574 53.0639 56.0952 48.0816 43.21 47.0929 42.9408 42.5709 40.4481 39.8375 83.289 38.2559 36.8028 36.0904 35.5396 35.0848 34.5741 34.2362 33.6026 30.7417 30.4604 28.8939
threshold=-0.005340357206724349 -0.28601930360984423 -0.24630673941802625 -0.22993912075473577 -0.20072230173162242 -0.13036320032404577 -0.10025920250119799 -0.15986916107251428 -0.017459182647068399 -0.4807717121566597 -0.013239606673494149 -0.36569058307681451 -0.4807717121566597 0.0086554705750153029 -0.1464784144354013 -0.055395742008837845 -0.12993153369678698 -0.079352586742897788 -0.055395742008837845 -0.33641659882246772 -0.74499341536842822 -0.026885017245672899 -0.18243870196146031 -0.17308892228930198 -0.26675392187428931 -0.18939527439499718 -0.11527880188753729 -0.42796333611014187 -0.74499341536842822 -0.4807717121566597 -0.2208837783710744 -0.047208380983194194 -0.40391977942515445 -0.10626765577538949 -0.74499341536842822 -0.23193092615531155 -0.47503063369758042 -0.23532720253242873 -0.68082570368023165 -0.1118389438580132 -0.4776136231999602 -0.71973582716845297 -0.67419043572212012 -0.089994859345020189 -0.070506994918398083 -0.049300380913667445 -0.68907001975204396 -0.0036790539370661498 -0.013254426024038849 -0.71326667829334389 -0.54586058889992572 -0.94527888549880568 -0.61106258932184643 -0.41274546654790095 -0.46155281157305555 -0.10593424940744904 -0.71528689403269585 -0.067482362819015887 -0.38068604684451562 -0.36501677692120632 -0.95148568514851484 -0.45775172826683003
decision_type=2 2 2 2 2 2 2 2 2 2 2 2 2 2 2 2 2 2 2 2 2 2 2 2 2 2 2 2 2 2 2 2 2 2 2 2 2 2 2 2 2 2 2 2 2 2 2 2 2 2 2 2 2 2 2 2 2 2 2 2 2 2
left_child=1 11 3 9 37 7 14 22 17 41 31 27 19 21 55 16 39 18 -8 20 52 -2 23 -6 59 29 57 -1 32 -5 -9 -10 -29 -17 -21 -24 -14 -4 -36 -16 -26 51 -43 -20 45 -19 60 -23 -12 -22 -51 -3 -13 -42 -40 -7 -30 -18 -48 -11 -34 -31
right_child=13 2 4 25 5 6 8 30 10 24 48 12 36 -15 15 33 26 44 43 34 49 47 35 -25 40 -27 -28 28 56 61 -32 -33 46 -35 38 -37 -38 -39 54 -41 53 42 -44 -45 -46 -47 58 -49 -50 50 -52 -53 -54 -55 -56 -57 -58 -59 -60 -61 -62 -63
leaf_value=0.12791148927932819 -0.16076772467220476 -0.072458517200504988 0.12520389388327458 -0.15012580342755968 -0.053151775459099194 0.14543495795863157 -0.10420611144915966 -0.076194621183871783 0.093227288654698995 -0.015130281155051101 -0.17349896282471111 -0.10866399332722582 0.11587523566187866 -0.1879541188535816 0.073068589907301598 0.12080215220964637 -0.051996805884085534 -0.11464795449252117 0.022817713992062769 -0.059164371814750018 0.074945061958872281 -0.036433074501555612 0.025502038090096459 0.047679424287332767 0.077411748224381141 -0.16547884409657071 -0.081723340980648124 0.082102295867416158 0.12320975612385442 -0.053317544114851338 -0.14420575321217663 0.044087139785802615 0.022681669115655792 0.074778965724052557 0.002072426750828514 -0.052478308787162344 0.067366131342786614 0.081230439371171179 -0.19640178414742659 0.023127117615865889 -0.019594789410360622 -0.050692442043625108 -0.1347143988750453 -0.020543605426874726 -0.11384613832167312 -0.039821011631700216 0.07373460671896348 -0.10026014783350908 -0.015722054811427567 -0.043295991501518777 0.073833466200482964 -0.16144817110950416 -0.003113445735479857 -0.18069239980054932 -0.043663370677173449 0.10046612479455928 0.05762456764588611 0.0082635509356426759 0.020053116480254443 0.050662564564995197 -0.068095326759256516 -0.10729971318817133
leaf_weight=453.11704970951541 409.67359987051532 70.079914130590623 461.83149094233522 302.52501531345843 123.0338731451011 243.26864584616851 320.09013263717497 234.36828126594992 471.19824230920858 83.195831734148669 16.553735170455184 37.397748162355128 801.39779444761734 1402.5720357700302 423.69199950102484 597.02891882390759 135.52363944162789 133.30473081459786 602.22602603824271 330.11330229719533 650.16254221500276 131.457887576762 138.55035519130979 567.95012064716138 57.519682533718878 553.62238873203751 295.68742540918538 690.98255783157947 646.95059172097172 195.92129396913515 453.20950500661638 715.35408174269469 117.7281705631176 629.24806772263037 654.0513055318952 369.40955400615712 359.71589710516491 863.81223610368761 22.661625818276661 488.63268485727895 578.19729142026699 295.75481459638104 108.64832575137189 444.45608182255091 451.21272826524728 227.90421706005145 292.82168482524139 509.50831102067241 880.93798136992336 99.254638672537112 156.32700139224471 155.49471122760224 283.09988201216038 14.249071126047054 46.479538115880132 604.94029933380807 91.78153532950455 309.80390782371614 193.76944685467606 485.19091641165141 53.882447143711033 200.7495725632798
leaf_count=25016 96740 13068 22864 70660 18424 11596 62224 41276 37468 12204 3780 8532 47952 354444 38308 32644 23804 26760 73548 59936 54340 22652 15536 55808 4600 130636 53944 59960 34808 31540 99160 80132 15664 54260 87340 58232 32616 64552 5736 57900 82360 50108 23256 64836 91236 36328 25568 109312 135596 14500 14512 39644 39668 3612 7516 41776 8176 38748 24388 47556 11324 39628
internal_value=3.39396e-10 0.018996 0.00123889 -0.0693152 0.0207689 0.0105985 0.0229272 -0.0416246 -0.0107261 -0.0248552 0.0281876 0.0614596 0.041697 -0.157082 0.061414 0.046112 0.00823059 -0.0479407 -0.0210311 0.0115683 0.0416118 -0.115868 0.0039096 0.0297258 0.0113847 -0.134909 -0.0386649 0.088219 0.079605 -0.110703 -0.121023 0.0636015 0.0601913 0.097186 -0.0234079 -0.0312085 0.100847 0.09655 -0.00708631 0.0463204 -0.0145418 -0.0949418 -0.0732661 0.00440505 -0.0932118 -0.067436 0.0371891 -0.0871696 -0.0186322 0.0617959 0.0283465 -0.133802 -0.0154298 -0.0234694 -0.0937247 0.113363 0.115061 -0.0100751 0.0523577 0.0410323 -0.00582057 -0.0806372
internal_weight=22739.3 20286.1 14304.4 3101.15 11203.2 9877.59 7991.06 1886.52 4263.24 1848.33 2084.04 5981.69 3440.66 2453.21 3727.83 2879.62 1653.34 2179.19 1366.77 2279.55 1226.24 1050.64 1198.94 690.984 1218.35 1252.82 741.015 2541.03 2087.92 699.196 687.578 1186.55 1349.18 1226.28 1053.31 507.96 1161.11 1325.64 723.192 912.325 649.966 629.978 404.403 1046.68 812.422 361.209 658.202 640.966 897.492 905.744 255.582 225.575 320.498 592.446 69.1412 848.209 738.732 445.328 486.591 568.387 171.611 396.671
internal_count=3050312 2467164 1889612 548872 1340740 1253324 964888 288436 611908 276408 256976 577552 372648 583148 352980 299608 212704 354932 200608 292080 131552 228704 148000 74232 150332 272464 116496 204904 179888 141828 140436 117600 136904 86904 160528 73768 80568 87416 100592 96208 90572 126076 73364 138384 154324 63088 76944 131964 139376 83352 29012 52712 48200 85972 13252 53372 42984 62552 49956 59760 26988 71168
is_linear=0
shrinkage=0.1


Tree=1
num_leaves=63
num_cat=0
split_feature=0 2 1 0 0 2 1 1 2 0 0 2 1 1 2 0 0 2 0 0 1 1 1 0 1 2 1 0 2 1 0 1 0 1 2 1 0 2 2 0 2 1 2 0 1 1 1 2 2 1 1 2 1 2 1 2 2 0 2 2 0 2
split_gain=3130.92 284.778 971.135 219.867 205.399 200.098 383.599 180.195 144.963 138.724 122.623 113.069 112.593 121.514 165.504 113.962 112.11 164.945 119.267 106.163 154.036 88.6951 85.1825 107.846 69.9523 645.606 155.781 165.547 81.1547 234.988 186.793 80.5824 74.7697 77.596 69.0748 69.0649 69.2134 70.7119 67.7651 65.2808 67.9212 63.8928 63.6692 62.0326 70.6411 98.3636 150.162 86.6733 68.942 58.9263 58.6538 57.444 82.6966 105.816 97.3637 56.1969 55.794 49.9236 49.8884 48.0014 64.7465 47.6924
threshold=-0.0036790539370661498 -0.30316363902933763 -0.4807717121566597 -0.41314374241207047 0.0075326174993469008 -0.097692809065387978 -0.055395742008837845 -0.016898340449052144 -0.27557548952950955 -0.015915459833090447 -0.030203840664285046 -0.023602117047064195 -0.96327402995621092 -0.4807717121566597 -0.34543731810191708 -0.50882352849814516 -0.61106258932184643 -0.37238619392362943 -0.66296264856676501 -0.70676740536954352 -0.95964549180625391 -0.74499341536842822 -0.47843616042554349 -0.4469866310544795 -0.13036320032404577 -0.16657956874767102 -0.11364471542485373 -0.10199163852399813 -0.20944396822267122 -0.24630673941802625 -0.19973559818887412 -0.11324633465035448 -0.34214549874473338 -0.47717027445404708 -0.20665409973929927 -0.4776136231999602 -0.42616350983439105 -0.29964815890241658 -0.31990743519233972 -0.16346076377651192 -0.18600744542610978 -0.72020882371681505 -0.30142823786451162 -0.043497320482800944 -0.05333623408881704 -0.055395742008837845 -0.11132644924822394 -0.11527880188753729 -0.14969957439215692 -0.054018792523380398 -0.22870086578889673 -0.21657680485501057 -0.24630673941802625 -0.25189009658576028 -0.23599758698921042 -0.14544128085908048 -0.10828078571603493 -0.37103904361467549 -0.15072208309291157 -0.43251931676146876 -0.8448890797334675 -0.4190247779068646
decision_type=2 2 2 2 2 2 2 2 2 2 2 2 2 2 2 2 2 2 2 2 2 2 2 2 2 2 2 2 2 2 2 2 2 2 2 2 2 2 2 2 2 2 2 2 2 2 2 2 2 2 2 2 2 2 2 2 2 2 2 2 2 2
left_child=1 12 8 35 11 10 -7 9 57 -8 24 -2 59 14 16 -16 17 19 -19 20 -14 61 23 -15 25 28 -26 31 32 -30 34 58 33 42 -31 -4 -37 -38 -17 50 -41 -20 -5 44 45 46 48 -48 -29 -47 -32 52 53 -34 -54 -27 -45 -3 -28 -1 -61 -22
right_child=4 2 3 5 -6 6 7 -9 -10 -11 -12 -13 13 22 15 38 -18 18 41 -21 21 -23 -24 -25 26 55 27 43 29 30 39 -33 51 -35 -36 36 37 -39 -40 40 -42 -43 -44 56 -46 49 47 -49 -50 -51 -52 -53 54 -55 -56 -57 -58 -59 -60 60 -62 -63
leaf_value=0.074224954157772069 -0.13885760880505785 -0.085401947527783864 -0.018005171962055259 0.080793017870908812 -0.16281159012987267 -0.11074638273207849 -0.020142977275121675 0.0053842995235678483 -0.11903588187522168 -0.10213081989268631 -0.11898809276770746 -0.047815671679689607 0.019356540426578882 0.10553216804926208 -0.071391956536430712 0.0096588940333552017 0.030219282605886685 -0.096331712807577158 0.01708732450718901 0.028342991219182902 -0.012866803770404531 0.10998624856862399 0.024425060647060456 0.0069665016079468196 0.033892889100089495 -0.065600858450630545 0.027416897879733983 0.057781416535463863 -0.10451483370955013 -0.040914499444153721 0.0043130584299903643 -0.072183539573246511 0.030950327332798684 -0.013601653608934129 -0.14754977031239522 -0.12926786961876105 0.024054233637143898 -0.091581296832298625 -0.044530631278441334 0.038358859786760721 -0.0047815428752673072 -0.031248789242696997 0.011177658660173064 -0.12914477858540327 -0.0081859752774302644 0.051885342823766306 -0.010432299302486549 -0.086074489152108233 0.011027935386222392 0.018148128008161939 -0.04075995434212059 0.0092618538143126716 0.090982663679771467 -0.022098214870153579 0.028582382726044561 -0.12380707833532119 0.034505779283514837 -0.017338464515607926 -0.11809358853416084 -0.021927058516042257 0.056989092166607296 -0.050594606406551161
leaf_weight=430.27352842735127 242.77778381083044 186.40790117610595 310.88507685193326 150.31083759921603 1061.5655991296808 363.7757759745873 2224.618191822723 4964.8511550578696 708.66949792814557 227.47552558418829 76.031756485259393 311.3703538927366 2425.4841006279457 333.16942981665488 349.29983896721387 798.94020859280135 3137.5974766368308 195.59873115306254 457.65298732201336 3016.1310787269031 1041.7938939188025 50.269378489349037 1363.3990810636169 166.47423684771638 2891.2276472155645 354.7525683194981 168.33141275553498 458.65821114485152 217.73114728103974 172.82199231552659 1554.2393563932565 372.93187046749517 1513.7210492551676 1632.8485063932749 93.670852827606723 169.28615031854133 89.745458976191003 128.74456977698719 324.4958576769277 1045.3957587965415 560.69462320342427 679.50696791452356 1042.9613680564798 21.200839398254175 2112.7588572441455 741.66671115899226 1643.609893516521 166.85889762162697 1009.7477335893782 1714.5271548979799 354.57591807690915 2496.4110816496832 402.94147083943244 500.28993972024182 658.98919839225709 311.53928238188382 1200.8240335177106 255.43551727975137 27.396781577961519 166.54516128322575 276.67831286799628 493.91604774602456
leaf_count=2756 79536 36572 3836 1032 366884 97900 200180 270932 215264 60364 22752 100816 40928 1948 40892 58920 107888 6740 14436 55012 15808 192 16688 1740 50996 85012 1440 4748 66364 4008 41208 6284 79668 51580 3864 4776 1232 3844 49320 36588 63528 17368 14012 1256 46020 7016 111256 40628 42600 21196 20128 48244 2164 76252 8052 95296 46768 38164 588 2308 7296 29224
internal_value=1.79802e-11 0.00434129 -0.000643018 0.00240145 -0.137051 0.00356109 -0.0104871 -0.00556974 -0.0910077 -0.0277488 0.00781924 -0.087702 0.0155427 0.0134882 0.010058 -0.0215044 0.0141008 0.00805157 -0.0242025 0.0141684 0.00351091 -0.0207223 0.0373695 0.0726915 0.00819595 0.00307595 0.0135342 0.0074273 0.00822956 -0.00349525 0.00232141 -0.0449122 0.0138126 0.000563491 -0.0783962 -0.0531196 -0.0812714 -0.0440836 -0.00599333 0.00844126 0.0232983 -0.0117958 0.0199468 0.0107089 0.00744544 0.0132039 0.00186906 -0.0174037 0.0256314 0.0283353 -0.00405957 0.0205321 0.029679 0.0177728 0.0522597 -0.0928164 0.0316666 -0.0460535 0.00704927 0.0504327 0.0273356 -0.0250008
internal_weight=52622.5 51006.8 35299.6 34149 1615.71 33450.4 7780.72 7416.94 1150.51 2452.09 25669.7 554.148 15707.2 14833.7 12970.7 1472.74 11498 8360.35 1332.76 7027.59 4011.46 1585.98 1863.04 499.644 25593.6 13063.9 12529.7 9638.51 12397.6 3999.13 3781.4 568.66 8398.47 2826.12 266.493 698.661 387.776 218.49 1123.44 3514.91 1606.09 1137.16 1193.27 9069.85 7847.83 5735.07 3278.87 1810.47 1468.41 2456.19 1908.82 5572.35 3075.94 2014.01 1061.93 666.292 1222.02 441.843 195.728 873.497 443.223 1535.71
internal_count=3050312 2503076 2033612 1743612 547236 1729924 629376 531476 290000 260544 1100548 180352 469464 457104 436728 149132 287596 179708 38544 141164 86152 45224 20376 3688 1077796 697000 380796 329800 516692 235688 169324 8312 281004 66624 7872 13688 9852 5076 108240 161452 100116 31804 15044 321488 273464 227444 199232 151884 47348 28212 61336 214380 166136 155920 10216 180308 48024 74736 2028 12360 9604 45032
is_linear=0
shrinkage=0.1


Tree=2
num_leaves=63
num_cat=0
split_feature=0 0 1 2 2 1 2 2 1 0 0 2 1 2 1 1 1 1 2 2 0 2 2 1 2 1 1 0 2 1 2 0 2 2 2 1 1 1 1 0 1 1 1 2 2 0 1 2 2 0 0 0 0 0 2 1 2 2 0 0 2 1
split_gain=2397.05 453.359 368.304 608.138 324.463 335.393 438.025 329.711 410.878 177.564 147.701 126.794 126.23 419.92 125.955 153.651 125.489 100.165 91.4351 84.5182 115.466 76.2681 75.5188 75.511 74.7939 74.21 65.7219 64.9669 63.8306 148.744 184.079 75.275 114.479 60.2778 59.9006 50.3657 49.3537 48.4162 47.4241 61.5714 46.0596 45.1436 44.0005 43.0236 42.2093 41.8135 41.5745 41.2189 40.8666 40.0814 39.1278 38.5411 38.4939 35.3056 34.8166 33.905 33.1479 33.0537 32.6777 32.1835 30.8924 30.7364
threshold=-0.0036790539370661498 -0.61106258932184643 -0.4807717121566597 -0.29604384602194034 -0.29009269770597285 -0.24630673941802625 -0.22395330275887793 -0.10025920250119799 -0.017459182647068399 -0.021548260515449346 0.0075326174993469008 -0.21657680485501057 -0.13036320032404577 -0.17678425853497282 -0.74499341536842822 -0.96107307447085366 -0.4776136231999602 -0.055395742008837845 -0.023602117047064195 -0.33326188898323622 -0.53661268406215512 -0.38068604684451562 -0.27351496976600403 -0.72106380215398513 -0.15386793609780028 -0.83248604796330594 -0.21710813904101298 -0.8448890797334675 -0.14863180971724876 -0.055395742008837845 -0.12723224191508156 -0.10593424940744904 -0.15386793609780028 -0.2412491854845604 -0.089994859345020189 -0.11464064626279268 -0.1118389438580132 -0.23599758698921042 -0.46851847567513721 -0.31921043572440727 -0.71682396500411094 -0.40218990615649658 -0.049861780789267646 -0.20214349192617556 -0.35360228259485899 -0.45375823220984995 -0.88954681139981684 -0.34830286127978521 -0.14969957439215692 -0.58220801982383497 -0.016911544512757747 -0.46155281157305555 -0.09998117716449563 -0.039992892440049339 -0.071848619098804731 -0.88954681139981684 -0.40914208146223624 -0.37709725295564911 -0.13473106311594013 -0.072437044459174274 -0.10696120404267934 -0.23308188382694381
decision_type=2 2 2 2 2 2 2 2 2 2 2 2 2 2 2 2 2 2 2 2 2 2 2 2 2 2 2 2 2 2 2 2 2 2 2 2 2 2 2 2 2 2 2 2 2 2 2 2 2 2 2 2 2 2 2 2 2 2 2 2 2 2
left_child=1 14 3 19 51 6 16 11 9 17 18 37 13 26 15 56 -6 -9 -2 20 47 27 -18 57 58 -22 61 -17 31 30 36 32 35 -5 53 -14 52 -7 -24 41 -25 -40 -31 -28 -27 -21 -29 49 -34 -3 -10 -4 -30 -19 -36 -47 -1 -16 -15 -32 -44 -13
right_child=10 2 4 33 5 7 -8 8 50 -11 -12 12 28 24 23 21 22 34 -20 45 25 -23 38 40 -26 44 43 46 29 42 59 -33 48 -35 54 -37 -38 -39 39 -41 -42 -43 60 -45 -46 55 -48 -49 -50 -51 -52 -53 -54 -55 -56 -57 -58 -59 -60 -61 -62 -63
leaf_value=0.037282318783424681 -0.13114389742623919 -0.02442751670899327 0.076394404679357888 -0.077119590796233969 0.032615971873627858 0.064703910025839112 -0.11433219261720513 -0.095113366507110969 0.034589401659769918 -0.097681094372107702 -0.15117046685987692 0.016127597555820061 0.069502556907463237 -0.10426907536211645 0.11402355140810475 -0.037058237590941866 -0.0059223247481475913 -0.035758553399168204 -0.044009589691454951 -0.072136806955754015 -0.029700375954179084 -0.077430655900493597 -0.022135689410608242 0.041885714818883285 -0.10593193119318318 0.048521280002143855 0.019376207053293001 0.011074480665071801 -0.050013256836804292 0.024129002996816612 -0.14183980553388795 0.040525853766549332 -0.0094297870683741382 -0.12986868424944048 -0.040919970327484484 0.012297233377551609 -0.012271146912820378 0.025168588750405535 -0.15874923854358347 -0.048347314996548978 -0.012096085738782288 0.13040982916365546 0.039801237645139299 -0.074669275461200071 0.012316483512808596 -0.069200795880543092 -0.19817004610060585 -0.064799653876909322 -0.1603902929815422 -0.00088419591036571093 -0.00069803870464222413 0.028628764214736153 0.020789586278800402 0.0072572024150356941 -0.14418707052869162 -0.0090921347942897225 0.0048774748771001821 0.057904706613172346 -0.031033099447055547 -0.046343308631394554 -0.023295003768555433 0.00049527481626494385
leaf_weight=2572.1039792735828 219.08582678093808 1600.9202957547823 176.95887891249731 519.40279259643285 475.79243175080046 528.12472279462963 516.69618040195201 226.48707893441315 333.60736228121095 556.36434965042281 936.12415314413374 3000.5597471394867 336.83961680810899 73.456674720102455 193.96594159840606 337.7188308268087 1193.2198412506259 281.43859707459342 267.4394857804291 272.9385989580187 292.24453694414115 121.56513121520402 606.69890767638572 1700.2333926756983 346.6618332308135 512.5487906531198 70.616137319011614 2127.3607054649037 80.982671451638453 4499.3447800872964 37.236905159603339 1811.439984289289 878.64081120915944 371.63876350584906 649.26789076963905 283.39765228272881 900.21374116931111 749.14764291764004 81.492307876877021 484.58212373632705 174.26141151657794 5.782202413189224 100.43612643284723 156.33848301804392 866.24348202248802 123.85547574306838 9.5380933843553048 167.52417716238415 18.306140894303098 1318.8019018089399 5409.4010030014324 3720.7484039815026 1482.3151100708637 592.49066420170129 34.377102757804096 387.22624475730117 359.83400472917128 228.70970226067584 357.1538977373566 675.16829905667691 341.23635096242651 2165.5441319316742
leaf_count=33580 79536 30148 956 130492 12768 2164 145824 63104 9520 144648 366884 69580 1548 14084 992 9144 46500 26892 100816 50372 29452 19752 50224 28496 109332 7300 1368 70448 3096 76412 7744 27972 7664 138664 89504 1808 72884 8052 11168 54616 11400 364 768 13340 31212 24804 884 20392 432 38548 272284 66308 47160 46656 8304 46372 13616 3020 55964 95768 9724 87484
internal_value=3.01368e-10 0.00375312 -0.000487851 -0.0224409 0.00363708 0.00014796 -0.0296243 0.00386087 -0.0130407 -0.0483574 -0.127942 0.0110922 0.0088863 -0.00264272 0.0257956 0.0176172 -0.0142539 -0.0329757 -0.0832468 -0.0101131 -0.00510043 -9.97164e-05 -0.0236563 0.0454767 -0.071359 0.0160731 0.00726099 0.00369915 0.0151016 0.0103194 -0.00656546 0.0267633 0.0103314 -0.0991204 -0.0239403 0.0433644 0.00638108 0.0415156 -0.0416109 -0.0622727 0.0368673 -0.139592 0.0211724 -0.0454074 0.0257752 -0.0405353 0.0101405 -0.0165611 -0.0125108 -0.0137933 0.00135178 0.0307974 0.0171218 -0.00659551 -0.0461128 -0.0236589 0.0333053 0.0836577 -0.0435262 -0.0513348 -0.00894695 0.00957479
internal_weight=49919.9 48497.2 40671.9 6433.35 34238.6 30340.9 3364.26 26976.6 8083.43 2340.43 1422.65 18893.2 17615.9 6170.33 7825.29 5528.12 2847.57 1784.06 486.525 5542.3 4758.28 2596.18 2371.78 2297.17 777.272 1671.04 5393.06 2474.62 11445.6 8116.93 3175.92 3328.62 1517.18 891.042 1557.57 620.237 2463.51 1277.27 1178.56 571.857 1874.49 87.2745 4941.02 226.955 1378.79 784.02 2136.9 3087.25 896.947 2919.72 5743.01 3897.71 1563.3 873.929 683.645 511.082 2931.94 422.676 430.611 712.405 441.672 5166.1
internal_count=3050312 2503076 2311744 547756 1763988 1696724 321464 1375260 660912 379108 547236 714348 704132 351152 191332 147424 175640 234460 180352 278600 157052 100228 162872 43908 179380 67964 171772 80476 352980 313556 226652 39424 11452 269156 171356 3356 123140 10216 116372 66148 39896 11532 86904 14708 38512 121548 71332 89088 8096 68696 281804 67264 50256 73548 97808 71176 47196 4012 70048 103512 10492 157064
is_linear=0
shrinkage=0.1


Tree=3
num_leaves=63
num_cat=0
split_feature=0 2 1 2 2 1 1 1 2 0 1 2 1 2 2 1 2 0 2 1 2 2 2 1 2 0 1 1 1 1 0 0 2 1 1 1 0 0 2 0 0 1 1 1 0 1 0 0 0 2 1 2 0 0 1 0 1 0 0 2 1 0
split_gain=1919.85 292.664 507.799 420.748 203.151 587.11 126.996 195.786 461.036 124.828 116.372 95.9606 87.9448 84.44 83.6035 83.4018 344.423 191.723 77.3488 69.2292 201.495 66.9598 62.9744 58.9678 56.496 52.8958 51.3661 50.8276 49.7932 47.3027 43.2301 41.2533 40.9982 81.684 39.2812 51.2766 63.8362 59.5649 58.1123 50.6819 48.5509 54.3417 40.3886 37.923 35.2435 35.0941 31.8199 30.4283 29.9411 40.5724 37.4276 29.3609 29.1476 29.0743 27.0717 25.3255 48.912 25.1856 24.5272 26.2105 23.3491 22.9987
threshold=-0.0036790539370661498 -0.35880853150930309 -0.4807717121566597 -0.31631712285803515 -0.099426734573005979 -0.016898340449052144 -0.47717027445404708 -0.24630673941802625 -0.24663671249669575 0.0075326174993469008 -0.055395742008837845 -0.21657680485501057 -0.74499341536842822 -0.089994859345020189 -0.27557548952950955 -0.13036320032404577 -0.16657956874767102 -0.10593424940744904 -0.023602117047064195 -0.055395742008837845 -0.13386717050078598 -0.21373288041107794 -0.18600744542610978 -0.71210918143295288 -0.27351496976600403 -0.016437921211779546 -0.10553806814020689 -0.23599758698921042 -0.21913087602619752 -0.11364471542485373 -0.013239606673494149 -0.096090438148224336 -0.3069182176798862 -0.47803924587439672 -0.96327402995621092 -0.74499341536842822 -0.61106258932184643 -0.49036279323113535 -0.40914208146223624 -0.68907001975204396 -0.68907001975204396 -0.72062205903738363 -0.68596843288239995 -0.052111692248527887 -0.66296264856676501 -0.11324633465035448 -0.25429961712210319 -0.32479942573172738 -0.56418930899237685 -0.36346890586850505 -0.70730777627618135 -0.38068604684451562 -0.033025581655028044 -0.051968964463006841 -0.72106380215398513 -0.51853370786954989 -0.71870758957367675 -0.56418930899237685 -0.25429961712210319 -0.2493024727843792 -0.11496029147994789 -0.41967837265468727
decision_type=2 2 2 2 2 2 2 2 2 2 2 2 2 2 2 2 2 2 2 2 2 2 2 2 2 2 2 2 2 2 2 2 2 2 2 2 2 2 2 2 2 2 2 2 2 2 2 2 2 2 2 2 2 2 2 2 2 2 2 2 2 2
left_child=1 34 3 12 6 10 32 8 24 18 -6 27 -3 43 -5 16 22 -17 -2 20 29 46 -13 -14 -8 -7 60 -9 -18 -19 -15 45 33 -4 -1 38 40 42 44 -40 41 -37 48 52 -36 -31 -10 -26 50 54 -38 -41 -12 -21 -50 -51 -57 -25 -34 -60 -22 -35
right_child=9 2 4 14 5 25 7 11 21 -11 13 15 23 30 -16 17 28 19 -20 53 26 -23 -24 57 47 -27 -28 -29 -30 31 -32 -33 58 61 35 36 37 -39 39 51 -42 -43 -44 -45 -46 -47 -48 -49 49 55 -52 -53 -54 -55 -56 56 -58 -59 59 -61 -62 -63
leaf_value=0.036435826990049054 -0.12258870689797573 -0.054894511610149181 0.06786942710038997 -0.058018975889790075 -0.099545460548281228 0.030737796027788807 0.0074223520970239992 0.060645421715205573 -0.10725818186642007 -0.14186244842567897 0.0052755716479798579 0.0087693055576956794 0.0086212420307108639 -0.04288644912665808 -0.10993641690915755 0.052758859032415562 -0.048866109704785221 0.022249126655083978 -0.037578019579439452 0.033850189231655364 -0.14121764535221679 -0.11625176246712648 -0.026252018252528427 -0.10839936845776488 -0.076431781930956497 0.0060994921083885956 -0.065902123429122328 0.019630229333439584 -0.11218046271359701 0.015308893916783152 -0.10092911960383893 0.008450625804344563 0.022379039850123631 -0.0083607558294978741 0.01881748175401728 0.072634381355294361 0.065761601966923044 -0.20627986353301872 -0.040389459113706797 0.012443294148481471 0.010955812295350349 -0.0090619356868121906 -0.15661744206059725 -0.022278342881134946 -0.060850225223569476 -0.037021303487098249 -0.04006260520921312 -0.016289199144105024 0.16163960919188444 0.074172253358875687 -0.095972933747936029 -0.021533810311682632 0.087189421663413036 0.013216127151963745 -0.0094579153386877678 -0.20737779087185804 0.03464655978580345 -0.023821428166912254 -0.20079264920311149 -0.01461906320660465 -0.017780820176635077 -0.21032450507448566
leaf_weight=1106.3387779046898 195.51520628907019 390.2235453890753 515.17332513234578 629.5341556747444 327.86969658281305 1198.5796924239257 2678.2905216179788 500.56438616057858 93.228336856234819 865.91564304448548 162.07662509463262 4805.6375577410799 1355.6753637364018 2098.5795538085222 611.40579794568475 1063.6506753945141 237.96933787377202 1792.6001502105501 236.4928032803582 816.43358674552292 15.716403697151689 367.63250535115367 574.87242773699109 37.589609168586321 99.674459848785773 3191.7819956813619 423.35905390404514 762.21696557622636 259.84237148673856 181.96808113151928 136.67643718223553 1799.1023196358001 2148.4836285179481 142.41719133686274 3068.946184005792 279.73881039954722 632.28243825928075 9.4418183052912337 338.39892727066763 928.08010182616999 2356.7202577600256 114.84603353356943 9.7706153900362533 513.58937586587854 56.551492563565262 433.33448387024691 288.712851317483 539.16165304271271 9.660468887537716 206.13595959939994 14.63952505844645 350.3343139833305 59.345633758115582 4174.2461680792621 216.37415516556939 9.0519769918173534 107.70825185533613 555.64003879349912 9.047777036787009 46.051356599142309 614.20000876617269 5.8708433825522652
leaf_count=11464 79536 62204 3000 115660 105652 19396 85756 2164 18848 366884 12924 138128 63884 162616 215264 11608 55736 32068 100816 6684 2156 124584 67048 7760 15492 251536 75572 8052 91288 2728 44408 69048 36520 1444 62900 1276 15472 208 34888 27904 36848 1300 436 50480 1308 14064 46448 51060 36 3212 1380 35948 3344 87020 3492 140 912 35192 536 4928 61540 112
internal_value=-1.84726e-10 0.00335024 -0.000756007 -0.0365314 0.00311601 -0.0111252 0.00742856 0.00490521 -0.014957 -0.119958 -0.0430078 0.00928182 -0.0115617 -0.036767 -0.0835985 0.00732762 -0.00233525 0.0123478 -0.0760516 0.00815471 0.00015014 -0.0857875 0.00502751 -0.00288532 0.00104862 0.0128258 -0.0389648 0.0358886 -0.0819143 0.00994305 -0.0464355 0.00080627 0.0272511 0.0490443 0.0186866 0.0164318 0.0248222 0.0439122 0.00941424 -0.00597682 0.0163914 0.0488562 0.0458716 -0.00736391 0.017376 -0.0215453 -0.0564644 -0.025673 0.047526 0.0303484 0.0621016 0.00313227 0.0272301 0.0165917 -0.0021454 0.0530948 0.0158833 -0.0291807 0.0206895 -0.0451905 -0.0208606 -0.0163567
internal_weight=47771 46473 36658 3580.07 33078 7688.5 25389.5 22522.4 4066.7 1297.92 3298.14 18455.7 2339.13 2970.27 1240.94 17192.9 5878.32 11314.6 432.008 10251 5260.28 749.574 5380.51 1948.91 3317.13 4390.36 1053.28 1262.78 497.812 4207.01 2235.26 2414.4 2867.04 663.461 9815.02 8708.68 3966.37 1215.07 4742.31 1616.81 2751.31 394.585 1205.62 735.012 3125.5 615.303 381.941 638.836 1195.85 548.931 646.922 1278.41 221.422 4990.68 226.035 322.896 116.76 593.23 2203.58 55.0991 629.916 148.288
internal_count=3050312 2503076 2263952 499964 1763988 650356 1113632 1067092 342188 547236 379424 724904 169040 273772 330924 714688 352200 362488 180352 350880 257176 189880 205176 106836 152308 270932 139268 10216 147024 117908 207024 85840 46540 4556 239124 227660 64712 25288 162948 98740 39424 2576 25080 66748 64208 16792 65296 66552 24644 7792 16852 63852 16268 93704 3528 4264 1052 42952 41984 5464 63696 1556
is_linear=0
shrinkage=0.1


Tree=4
num_leaves=63
num_cat=0
split_feature=0 2 1 2 2 2 1 1 2 0 1 1 1 2 1 2 1 1 2 1 2 0 1 2 1 0 2 0 2 0 1 2 1 2 1 1 2 1 2 0 0 2 0 1 1 2 0 1 0 0 0 1 1 1 0 1 1 2 0 2 0 1
split_gain=1555.91 237.637 504.589 299.042 194.035 118.084 239.373 103.623 405.646 102.275 73.9088 68.762 68.0516 238.901 67.7628 156.346 62.5357 59.9866 59.7348 133.87 65.5267 75.3925 59.1627 58.3735 51.5478 47.3349 47.0107 45.101 38.1465 101.228 39.3262 37.8857 38.6761 58.2908 50.4366 42.5927 36.8489 36.5835 36.282 42.1551 36.1077 34.103 32.896 32.059 31.8908 30.1106 29.9569 53.9942 30.7457 29.3223 35.4594 57.362 48.8572 29.1512 27.8443 27.4601 26.3329 26.0662 25.4373 25.0443 30.2357 22.9527
threshold=-0.0036790539370661498 -0.35630246018258604 -0.4807717121566597 -0.29410093182016711 -0.30501445258460841 -0.10267371889143063 -0.055395742008837845 -0.24630673941802625 -0.2327281033554868 0.0075326174993469008 -0.23599758698921042 -0.74499341536842822 -0.13036320032404577 -0.17678425853497282 -0.017459182647068399 -0.074474998637262688 -0.052111692248527887 -0.47273153709079246 -0.14434138936552279 -0.055395742008837845 -0.12723224191508156 -0.079067065355732935 -0.47843616042554349 -0.023602117047064195 -0.71210918143295288 -0.21868628353138017 -0.14544128085908048 -0.41314374241207047 -0.42796333611014187 -0.79509165134678106 -0.92807685552277308 -0.42361968834671254 -0.74499341536842822 -0.37709725295564911 -0.71973582716845297 -0.9568837131593525 -0.26675392187428931 -0.45506458071376005 -0.19756281312791257 -0.17952745985470456 -0.19302442974493536 -0.2412491854845604 -0.37103904361467549 -0.95445311773971186 -0.7175299435958078 -0.20214349192617556 -0.65128288334546747 -0.71923393537953717 -0.49036279323113535 -0.1506671844401152 -0.14122675294982232 -0.22957357325287067 -0.23040979156109595 -0.96275196613035841 -0.4469866310544795 -0.45775172826683003 -0.68082570368023165 -0.13520867336397427 -0.24802046744205394 -0.29604384602194034 -0.33643942062604132 -0.47183271688661071
decision_type=2 2 2 2 2 2 2 2 2 2 2 2 2 2 2 2 2 2 2 2 2 2 2 2 2 2 2 2 2 2 2 2 2 2 2 2 2 2 2 2 2 2 2 2 2 2 2 2 2 2 2 2 2 2 2 2 2 2 2 2 2 2
left_child=1 28 3 11 22 7 -7 8 17 23 25 -3 13 38 15 16 -8 54 -14 20 21 -20 -4 -2 -13 -9 -15 -19 30 43 -1 -31 35 34 -34 -33 42 -10 40 -40 45 -5 55 53 -36 -12 47 -35 -48 -42 51 -51 -52 -30 -6 -29 -26 -23 -38 60 -56 -44
right_child=9 2 4 41 5 6 14 10 37 -11 12 24 18 26 -16 -17 -18 27 19 -21 -22 57 -24 -25 56 -27 -28 36 29 31 -32 32 33 46 44 -37 58 -39 39 -41 49 -43 61 -45 -46 -47 48 -49 -50 50 52 -53 -54 -55 59 -57 -58 -59 -60 -61 -62 -63
leaf_value=0.028701574039655533 -0.11496158313893415 -0.057773102658698984 0.066653496516464988 -0.074860918532911436 -0.055009078601097751 -0.08871587998359394 0.015145290111312168 0.05979373113680108 -0.06224076213587254 -0.1341607256732576 0.0021068390985292027 0.00019329277785430198 0.021634536645769899 -0.040519586121941481 0.00041098714250278261 -0.082171808732837623 -0.022178844138743561 -0.1452235580279472 -0.027950146867045278 0.01623279345591766 -0.045156196477410732 0.031789161014975933 0.023545673772864498 -0.037738302552459045 -0.029088091200454996 0.015514996421714711 -0.098635960188938818 -0.027390663267648902 -0.045029215095472044 0.061491498124971733 -0.20739082881747062 0.016475910734900116 0.062567363271620574 0.013400937877282455 -0.040978705023150458 -0.0096557112281055128 -0.05484928680197737 -0.11554473097972458 -0.12504349572055298 -0.0066190672002832103 0.022581271034738254 -0.11662285432537263 -0.055278613916058698 -0.10313520562509032 0.059396401028509065 -0.13214798892646643 0.021879279286693948 -0.046566801974589761 -0.20298589381107696 -0.18547000823138129 0.12305231761623175 0.0016050470680332224 -0.20548475853306516 -0.0012195115697687779 0.021259067152039301 -0.15076950060714933 -0.098420767491105704 -0.0037005011122881581 0.00099725091111616958 0.0028452913107837349 -0.21341330565975683 0.010951322268418542
leaf_weight=2243.4730333150947 175.44464126994717 413.12500919570448 508.12590304552577 451.57061209800304 67.280111888772808 361.60358167102095 691.98765620670747 436.41246580798179 235.97962340799859 785.35000566241797 2191.6475772613776 1128.680771533458 3924.8222826406709 415.83191124131554 5618.3518530595175 343.57367080822587 1277.8584673875885 26.469984439900145 729.76759932603454 4190.8875075211981 528.84599265491124 465.52148873329861 852.54734255420044 221.42553713114467 530.76635863439878 540.37216488370905 209.21634626729065 158.18460395996226 240.84308772883378 184.31557861575857 7.077600378310307 1535.8122227468994 528.67892414389644 684.00355478911661 89.031157811405137 1050.2932475542766 285.76072493306128 283.36594314416288 30.807972716575023 1235.559887112875 1848.8155307794223 344.87548343723756 56.425460404832847 46.742163394403178 49.114341460750438 16.833794784790371 2824.7105162447551 192.37287249031942 6.0936301372712469 27.265073460992426 23.266871087718759 41.094882929697633 5.61976952292025 411.2123175188899 1376.7196059166454 20.36131007806398 61.084604190080427 372.59751336451154 114.13617553166114 2014.9928797794273 5.5122872227802864 720.40979791374411
leaf_count=24844 79536 83124 2916 125036 1448 120920 38704 2184 60368 366884 42428 74020 67252 90684 281804 105292 146324 3552 47392 66284 95136 18772 10932 100816 54940 8292 84140 10112 4788 3312 172 55716 3204 8216 1132 67784 45552 103132 6184 72980 46696 138664 3336 6016 756 2556 51664 6716 424 824 160 852 252 16160 23576 2880 12400 29148 14480 74672 88 31684
internal_value=1.48918e-10 0.00295699 -0.000923251 -0.0406558 0.00268614 0.00105842 -0.00914755 0.00480351 -0.00733222 -0.113252 0.00858156 -0.0211376 0.00697646 -0.00143192 -0.00552009 -0.0199242 -0.00906724 0.00166877 0.0119544 0.0059119 -0.0147172 -0.00445018 0.0396437 -0.0718764 -0.0123408 0.0352981 -0.0599723 -0.0159482 0.0164828 0.0131897 0.0279591 0.0167427 0.0155577 0.0212896 0.0485088 0.00586309 -0.0134233 -0.0913245 0.00531798 -0.00950008 0.00983474 -0.0929446 -0.00275526 -0.0231358 -0.00529273 0.0010835 0.0163935 0.000237455 0.0213952 0.0197661 -0.0337557 -0.073009 0.0591369 -0.0174011 0.00869492 -0.0414607 -0.0362439 0.0160117 -0.0389099 0.00995654 0.0203232 0.00614071
internal_weight=46460.9 45278.7 35184.9 2930.1 32254.8 30894.2 8293.38 22600.8 5365.6 1182.22 17235.2 2133.66 16258.4 6045.96 7931.77 2313.42 1969.85 4846.25 10212.4 6287.62 2096.73 1567.89 1360.67 396.87 1720.53 976.785 625.048 1381.75 10093.8 7843.22 2250.55 7144.43 6960.11 4374 666.824 2586.11 1355.28 519.346 5420.91 1266.37 4154.54 796.446 955.381 698.798 138.145 2208.48 3707.18 876.376 2830.8 1946.06 97.2466 68.36 28.8866 652.055 3464.5 178.546 591.851 838.119 399.897 3397.22 1382.23 776.835
internal_count=3050312 2503076 2252172 488184 1763988 1750140 693044 1057096 374880 547236 682216 224484 671740 347756 572124 290320 185028 211380 323984 256732 190448 95312 13848 180352 141360 10476 174824 111596 250904 225888 25016 198924 195612 72112 5092 123500 108044 163500 172932 79164 93768 263700 48012 26964 1888 44984 67020 14932 52088 48784 2088 1676 412 20948 99784 12992 67340 47920 60032 98336 23664 35020
is_linear=0
shrinkage=0.1


Tree=5
num_leaves=63
num_cat=0
split_feature=0 2 1 2 2 1 0 1 2 2 1 0 2 2 0 1 2 2 1 1 1 0 2 1 2 0 2 1 0 1 2 0 0 1 0 0 0 2 1 2 0 1 1 0 1 2 1 1 2 0 2 0 2 0 2 1 1 2 0 0 0 2
split_gain=1284.48 219.898 358.969 335.496 126.744 315.341 93.0756 86.2999 201.149 140.783 186.3 81.1055 66.8443 59.6706 78.2816 75.5348 127.038 52.5067 45.5994 44.0505 43.2813 42.352 41.9996 96.7569 68.2873 50.4497 40.2414 33.8792 31.9651 30.9559 34.9512 30.7305 29.7341 29.534 48.4379 110.539 42.7369 48.8807 27.4574 73.9175 68.0268 45.8481 35.0179 63.8606 27.0006 26.9318 26.4879 43.5914 25.3227 24.3201 24.744 23.8073 23.6421 23.3366 23.2399 23.1291 22.8716 39.0532 44.2869 22.5613 21.8743 22.255
threshold=-0.0036790539370661498 -0.36115784345938057 -0.4807717121566597 -0.32341050389310638 -0.20809933250701171 -0.24630673941802625 0.0075326174993469008 -0.13036320032404577 -0.16657956874767102 -0.097692809065387978 -0.017459182647068399 -0.021548260515449346 -0.27557548952950955 -0.3069182176798862 -0.43975421649624474 -0.24630673941802625 -0.28399827010811624 -0.023602117047064195 -0.47273153709079246 -0.055395742008837845 -0.2208837783710744 -0.5729496455514953 -0.14326778227523468 -0.055395742008837845 -0.12723224191508156 -0.079067065355732935 -0.33641659882246772 -0.050830214976625793 -0.45375823220984995 -0.23566794254376347 -0.21657680485501057 -0.38271326882703738 -0.19973559818887412 -0.23599758698921042 -0.17308892228930198 -0.1506671844401152 -0.17308892228930198 -0.18767565328655836 -0.74499341536842822 -0.3985026550475933 -0.66296264856676501 -0.96220769500476833 -0.72106380215398513 -0.67507720852462005 -0.11364471542485373 -0.37238619392362943 -0.71973582716845297 -0.74499341536842822 -0.20072230173162242 -0.34214549874473338 -0.25706278892402629 -0.22812234886198554 -0.14220590828556448 -0.48104341822092328 -0.2327281033554868 -0.23532720253242873 -0.2208837783710744 -0.21228837221702399 -0.17952745985470456 -0.52761166383581315 -0.016911544512757747 -0.048574085703540444
decision_type=2 2 2 2 2 2 2 2 2 2 2 2 2 2 2 2 2 2 2 2 2 2 2 2 2 2 2 2 2 2 2 2 2 2 2 2 2 2 2 2 2 2 2 2 2 2 2 2 2 2 2 2 2 2 2 2 2 2 2 2 2 2
left_child=1 38 3 21 13 -6 17 8 33 22 11 19 28 14 -4 16 -15 -2 49 -11 -10 46 -9 24 25 -24 -23 -21 -5 30 32 -16 -17 34 -7 -36 48 -38 39 -1 -41 -42 43 -40 52 -43 47 -3 -35 -18 -51 55 -27 -28 -20 -31 -53 58 -58 -44 -12 -62
right_child=6 2 4 12 5 7 -8 9 20 10 60 -13 -14 15 31 29 18 -19 54 27 -22 26 23 -25 -26 44 53 -29 -30 51 -32 -33 -34 36 35 -37 37 -39 42 40 41 45 59 -45 -46 -47 -48 -49 -50 50 -52 56 -54 -55 -56 -57 57 -59 -60 -61 61 -63
leaf_value=0.01749407827764048 -0.10859046336470926 -0.081338208604330373 0.054402145002794916 -0.099851771401924028 -0.10542146396481732 0.073471120809701959 -0.12805106681885348 0.017504564745143975 -0.041169809076802989 -0.080467601857375115 0.023641914944637767 -0.078773105197531154 -0.098577427751302238 0.013284415953398626 -0.0071422300295488463 0.049250179060547981 -0.046783919174385902 -0.031992464443302074 -0.027476568229437059 0.00605463880223073 -0.1022505399792983 0.0060565914861126051 -0.028645121362103856 0.011916832195687796 -0.044150049094477506 -0.20616829970888517 -0.065886000501247835 -0.031864822673754754 -0.043322787464944862 -0.21024537893464418 0.016231846442147358 -0.17956194198197428 -0.22267832741982296 -0.020717510451803978 -0.18686559787281609 0.077221064166302922 0.009221277933554449 -0.024371460664373134 0.076248947201943196 -0.059685791977266159 0.055724952010661792 0.0012233044362057553 0.016895088278406457 0.010895178564160288 -7.06114265404554e-05 -0.048339511405853103 -0.064620607001969754 0.027329623103884489 -0.073754549081016918 0.014488342916352179 -0.025626631354171727 0.015844624674668861 0.04189516282476774 -0.012179099605247308 -0.070181339898002473 0.0092814148578094068 -0.21008468866393817 -0.20508816229715282 0.078321864491102774 0.057688438188897753 -0.11777538680222299 -0.0012707048269037006
leaf_weight=4486.6958179067879 160.92317435063887 56.035129157738993 645.53281763172708 119.31177752593067 289.86585428557009 113.61915192788001 725.02775716058386 4097.994449288235 206.29945934680291 131.96712395737995 366.19259444478666 385.20584415004123 547.16799232168705 3536.6062658264418 196.53985241486225 729.03865693276748 109.73930781829404 201.60672902621445 805.91610187303741 353.79624027275713 265.06241988681722 1448.0841162118886 464.44546709943097 5023.1774168638512 555.78426002571359 3.8978723478503516 127.33237397280755 705.38619115864276 618.99888887013367 9.3607530975714344 676.50370205705985 10.910903297597541 4.0434117279946795 682.35953547223471 27.530296612996608 37.356991791748442 1510.6045171703445 607.29735738004092 314.50010035233572 232.97921971548931 131.29584885982331 539.95300525875064 2948.7574773214874 285.0194480412174 558.97622708079871 137.56895227730274 189.49970643490087 108.18352250952739 103.70397840312216 562.32620420807507 211.63478349961224 1842.0159132296103 268.16777366236784 221.89455148467096 151.36706681971555 9.8490900630131346 7.1126717571169165 12.732537025352938 21.176212832331657 142.11103252205066 16.447504513751483 5245.2424952107831
leaf_count=96924 79536 12952 4544 28356 117424 1580 366884 74044 52080 49832 9520 133952 215264 79988 2316 3980 9068 100816 88596 35584 109512 75932 41292 106932 111864 200 22124 115744 111372 188 8076 268 52 23556 1064 924 46080 71372 1476 27488 3940 25520 51140 3032 39600 16376 17508 4052 18116 24960 23044 39236 7428 23908 38520 196 160 588 224 1724 2792 269492
internal_value=3.41175e-12 0.00264066 -0.000978595 -0.0316708 0.00236312 -0.00180839 -0.107365 -0.000426282 -0.0146784 0.00236023 -0.00850091 -0.0388858 -0.0720888 0.0119894 0.0372287 0.00951187 0.00219512 -0.0659935 -0.0191079 -0.0259866 -0.0755175 -0.0075165 0.0094914 0.00471459 -0.0148277 -0.002248 -0.00129162 -0.0191987 -0.0524579 0.0213925 0.0326236 -0.0162107 0.0477503 -0.00537505 0.0341053 -0.0348253 -0.0078019 -0.000411265 0.0163811 0.0119222 -0.0120739 0.00164062 0.0230608 0.0451789 0.0125046 -0.00884029 -0.0391463 -0.00975031 -0.0277146 -0.00272756 0.00351915 0.01307 0.0383412 -0.0317613 -0.0342291 -0.0976917 0.0142 -0.0596517 0.00580783 0.0187707 9.81328e-06 -0.00163489
internal_weight=45305.7 44218.2 34999.3 3436.51 31562.8 22020.4 1087.56 21730.5 3553.83 18176.7 7204.24 1576.36 1285.48 9542.41 852.984 8689.42 5377.59 362.53 1840.98 1191.15 471.362 2151.03 10972.4 6874.45 1851.27 1295.49 1797.31 1059.18 738.311 3311.83 1409.59 207.451 733.082 3082.47 178.506 64.8873 2903.97 2117.9 9218.88 5528.49 1041.8 808.818 3690.39 599.52 831.042 677.522 353.718 164.219 786.064 883.7 773.961 1902.25 272.066 349.227 957.283 19.2098 1883.04 41.0214 28.2889 3090.87 5627.88 5261.69
internal_count=3050312 2503076 2275456 511468 1763988 1439984 547236 1322560 324284 998276 616916 335112 354992 324004 7128 316876 264176 180352 184188 201160 161592 156476 381360 307316 200384 88520 121964 151328 139728 52700 12108 2584 4032 162692 3568 1988 159124 117452 227620 170248 73324 45836 57372 4508 47228 41896 34512 17004 41672 57072 48004 40592 7628 46032 127116 384 40208 972 384 52864 281804 272284
is_linear=0
shrinkage=0.1


Tree=6
num_leaves=63
num_cat=0
split_feature=0 2 1 2 2 1 2 2 1 0 1 0 2 1 1 2 1 1 2 1 1 0 1 0 1 0 0 1 2 0 1 2 0 1 1 1 1 2 1 0 2 1 2 1 0 0 0 2 0 1 1 1 2 0 0 0 1 2 0 0 0 1
split_gain=1051.82 172.487 386.123 199.577 105.371 268.348 176.228 97.567 135.601 87.0499 83.5587 68.0418 49.9516 56.3545 49.2562 117.113 50.1178 49.4165 46.2235 45.988 42.4802 41.488 37.8781 37.7418 36.2898 34.8943 34.798 58.5062 34.1414 35.3979 33.065 99.9369 28.9251 26.1855 25.7659 33.0345 71.1859 36.3997 29.8497 29.7369 25.4813 25.2267 24.8134 23.8841 23.6866 23.5119 23.3472 23.1896 23.5795 23.1189 22.9208 22.6253 22.5931 22.4075 21.2243 20.4065 27.7556 19.9928 23.9024 19.927 21.9908 35.1242
threshold=-0.0036790539370661498 -0.35630246018258604 -0.4807717121566597 -0.29410093182016711 -0.20072230173162242 -0.13036320032404577 -0.15386793609780028 -0.097692809065387978 -0.017459182647068399 0.0075326174993469008 -0.24630673941802625 -0.021548260515449346 -0.3069182176798862 -0.47803924587439672 -0.24630673941802625 -0.26675392187428931 -0.4776136231999602 -0.23599758698921042 -0.023602117047064195 -0.74499341536842822 -0.2336069177026909 -0.016911544512757747 -0.067660621698269183 -0.41967837265468727 -0.11464064626279268 -0.4469866310544795 -0.10388342168602129 -0.11364471542485373 -0.33641659882246772 -0.53661268406215512 -0.055395742008837845 -0.13386717050078598 -0.17952745985470456 -0.71812935481538898 -0.96327402995621092 -0.74499341536842822 -0.72106380215398513 -0.38672275997846894 -0.91632992484061326 -0.67507720852462005 -0.15386793609780028 -0.71812935481538898 -0.2412491854845604 -0.050381940497459241 -0.50882352849814516 -0.17308892228930198 -0.094171059759721329 -0.18243870196146031 -0.16964136775263286 -0.96275196613035841 -0.46003162178374463 -0.10553806814020689 -0.15268847319423923 -0.13809136877548026 -0.56418930899237685 -0.29060794571086895 -0.47843616042554349 -0.091093451417810681 -0.027488108492816649 -0.016437921211779546 -0.011210337927545498 -0.011206517934266849
decision_type=2 2 2 2 2 2 2 2 2 2 2 2 2 2 2 2 2 2 2 2 2 2 2 2 2 2 2 2 2 2 2 2 2 2 2 2 2 2 2 2 2 2 2 2 2 2 2 2 2 2 2 2 2 2 2 2 2 2 2 2 2 2
left_child=1 34 3 19 12 6 10 24 11 18 -6 22 13 23 15 -14 55 45 -2 -3 32 -10 -9 -4 40 -15 -26 46 29 41 31 -29 -12 -30 -1 37 39 -36 49 -37 -7 -21 -5 57 -35 -16 -28 48 -22 -39 -18 -33 -48 -19 -41 56 -17 58 -24 -23 -61 -62
right_child=9 2 4 42 5 7 -8 8 21 -11 20 -13 14 25 17 16 50 53 -20 28 47 59 43 -25 26 -27 27 30 33 -31 -32 51 -34 44 35 36 -38 38 -40 54 -42 -43 -44 -45 -46 -47 52 -49 -50 -51 -52 -53 -54 -55 -56 -57 -58 -59 -60 60 61 -63
leaf_value=0.028339754755647213 -0.10260729094035814 -0.052649081618721484 0.054579492333370186 -0.067041101671128325 -0.091606893227782343 0.045030108642395233 -0.095496385194563604 -0.079630671269381836 0.034776146613708731 -0.12273454792054335 -0.13848533603848581 -0.07281584500170292 0.0083400871927137733 -0.041444040086893438 0.037309210192041586 0.049807752708738516 -0.029643027448024929 0.010696826258187988 -0.027756504417509521 -0.001100843153529921 -0.060620800841176208 -0.0097665193718469642 0.012041741866691769 -0.22392341708534472 -0.012242088571557567 0.02861961613622821 0.043889549705834419 0.0077637211926992666 0.0074953792875462506 0.010950062748707993 0.0094696663607289986 -0.019077135926917062 0.011875936008481599 -0.11263359033291531 0.0095981405789595641 0.070928380082994014 0.013165913294855511 -0.13313766200631402 -0.12145698440544823 0.01747052081647887 0.013253282652224488 -0.059912426219071918 -0.10493124916463901 -0.028729314533744766 -0.035644154210637533 -0.20227667528379803 -0.21575641442100635 -0.045030720793217113 -0.0097078712708926016 -0.0089598633636165225 -0.066805858434209373 -0.054065293586102708 0.017393232544955003 -0.22972939259320024 0.10511703588709097 0.041851122445837975 -0.11394959080400176 -0.026274759919650371 0.14169703566380648 0.00789790364220864 -0.12469368251591968 -0.0072265509755553726
leaf_weight=1115.3024171926663 145.61554469159455 374.42536056751851 549.20007635373622 407.37748047040077 157.43508047267096 408.24644490238279 389.73100813245401 104.26472388711409 321.64755590946879 659.57695311361749 13.119195171806494 348.47784813772887 4354.180924241693 127.60738704074174 924.39459169982001 18.949252140941098 519.24867649236694 3695.5561453705886 190.35399271687493 144.26719327119645 103.93460366199724 2102.649730584526 236.76599379826803 4.9093978460878125 946.3099008895806 160.47708364418941 537.95854315697215 1913.6046357566956 133.01280852331547 664.54816954175476 5041.2853482352803 394.61803083799896 515.98272341612028 43.881601590226637 3868.6850351730245 322.56441007554531 3604.1678538387059 15.441522391163742 26.42833636701107 259.30392049741931 660.81742400897201 147.50834864465287 300.20103558691335 615.2864737410564 447.3227087019186 4.1142805941635734 4.1822896450757971 413.46761378314113 729.01357782736886 515.7803806104348 243.92889450784423 347.63977774296654 668.7555710063607 3.8804760132916263 30.923943452304229 116.3792205962236 22.808103856630623 150.12276595633011 15.127159466734154 2303.8440531496453 26.248940233839676 841.61953238979913
leaf_count=11584 79536 83124 2944 125036 68288 1632 161524 43024 9520 366884 2720 133952 133200 1432 7032 360 76836 79992 100816 8604 17064 19952 20632 56 12748 2696 8136 83344 14596 27652 106932 54684 26452 11084 110784 1476 67136 1304 5468 3300 14048 17968 138664 110824 61456 288 100 79836 38548 49652 61004 79804 19932 104 200 4404 932 26264 416 129508 5628 117196
internal_value=-6.69958e-11 0.00232705 -0.00106128 -0.0376085 0.00207186 -0.0021647 -0.0341526 0.00196536 -0.00719121 -0.10163 -0.0217841 -0.0342194 0.0100801 0.0334602 0.00809185 0.00148644 -0.0309043 0.0156215 -0.0601982 -0.0211373 -0.0155929 -9.10384e-05 -0.0222272 0.052112 0.0078885 -0.00241517 0.00599004 0.00792686 -0.0136723 -0.00179809 0.00471247 -0.00431752 0.0081477 -0.0318639 0.0140353 0.0121895 0.0185233 0.00615523 -0.0177299 0.0500329 0.025388 -0.0308333 -0.0831166 -0.0163439 -0.042522 0.0362476 0.0283593 -0.0256708 -0.0160607 -0.0125695 -0.0415211 -0.035464 0.0159442 0.0104446 0.0268093 0.0203334 -0.0396374 0.00261211 0.019828 -0.00221735 0.00278728 -0.0107794
internal_weight=44474.5 43478.9 33720.3 2662.54 31057.8 20312.2 2322.68 17989.5 7066.05 995.546 1932.95 1470.04 10745.6 842.194 9903.44 5275.5 921.314 4627.95 335.97 1954.97 1775.52 5596.01 1121.57 554.109 10923.4 288.084 9854.35 8908.04 1580.54 956.324 7697.15 2655.86 529.102 624.217 9758.6 8643.3 4216.96 4426.34 557.65 612.792 1069.06 291.776 707.579 1017.3 491.204 928.509 1210.9 1246.42 832.948 531.222 763.178 742.258 672.938 3699.44 290.228 158.137 41.7574 402.016 251.893 5274.36 3171.71 867.868
internal_count=3050312 2503076 2252172 488184 1763988 1392708 394432 998276 616916 547236 232908 335112 371280 7128 364152 276736 143536 87416 180352 224484 164620 281804 201160 3000 381360 4128 365680 352932 141360 54224 324764 217832 29172 87136 250904 239320 72112 167208 56424 4976 15680 26572 263700 158136 72540 7320 28168 135448 55612 50956 137840 134488 20032 80096 3500 5696 1292 47312 21048 272284 252332 122824
is_linear=0
shrinkage=0.1


Tree=7
num_leaves=63
num_cat=0
split_feature=0 2 1 1 0 1 1 2 2 1 0 2 1 1 1 1 0 2 0 1 2 2 2 2 0 1 2 0 1 2 0 1 2 1 1 1 2 1 2 0 2 0 2 0 2 0 0 2 1 0 1 1 1 0 2 0 1 1 2 0 2 0
split_gain=849.103 150.065 203.763 72.2423 549.671 64.0037 50.1098 215.74 105.154 52.9789 49.0562 48.314 44.2649 39.5734 35.9677 35.8893 38.842 35.5623 33.1166 31.7623 214.316 77.4141 39.759 33.0349 37.3334 30.6667 181.5 96.8987 46.7673 30.4634 28.8009 28.5859 26.4421 25.8608 23.4174 20.4819 96.5278 21.7827 27.2625 26.9577 42.2409 30.7879 22.517 21.5146 32.8504 20.8012 20.4577 36.6013 20.0468 59.19 24.0946 25.7504 34.6373 19.9341 19.775 18.9071 39.813 30.2725 45.4616 19.5142 18.7557 37.906
threshold=0.0055472831591080012 -0.37238619392362943 -0.74499341536842822 -0.016898340449052144 -0.026546538497534248 -0.95309126977067271 -0.4807717121566597 -0.32341050389310638 -0.3069182176798862 -0.66699791396514707 -0.015350012997231698 -0.089994859345020189 -0.053813715191389042 -0.72020882371681505 -0.74499341536842822 -0.72106380215398513 -0.65128288334546747 -0.42361968834671254 -0.43975421649624474 -0.24630673941802625 -0.24663671249669575 -0.21657680485501057 -0.21373288041107794 -0.28399827010811624 -0.34214549874473338 -0.13036320032404577 -0.18243870196146031 -0.10593424940744904 -0.23193092615531155 -0.28808522387392249 -0.64057316246825502 -0.23566794254376347 -0.14220590828556448 -0.72020882371681505 -0.71528689403269585 -0.055395742008837845 -0.12723224191508156 -0.05304324649076559 -0.10764347298542408 -0.045157831498790039 -0.10696120404267934 -0.043497320482800944 -0.10626765577538949 -0.039992892440049339 -0.10417991579120309 -0.050018401130363439 -0.72906430179917814 -0.40914208146223624 -0.22541969968415432 -0.18631092021126797 -0.23040979156109595 -0.23122885776863616 -0.23308188382694381 -0.20316145890803197 -0.073180056682635483 -0.042594808557503396 -0.049861780789267646 -0.050381940497459241 -0.10626765577538949 -0.043497320482800944 -0.34830286127978521 -0.55505175450583166
decision_type=2 2 2 2 2 2 2 2 2 2 2 2 2 2 2 2 2 2 2 2 2 2 2 2 2 2 2 2 2 2 2 2 2 2 2 2 2 2 2 2 2 2 2 2 2 2 2 2 2 2 2 2 2 2 2 2 2 2 2 2 2 2
left_child=1 14 5 4 6 60 7 13 18 -9 -5 19 -6 -4 17 16 -16 -1 -8 20 23 31 -22 -10 -25 26 -23 -27 -28 -7 34 -21 -30 -17 -15 36 -29 39 -39 -37 41 -41 -42 44 45 -40 47 -19 50 -50 51 52 -33 -52 -14 59 57 -57 -59 -47 61 -3
right_child=-2 2 3 10 12 29 8 9 11 -11 -12 -13 54 30 15 33 -18 46 -20 21 22 25 -24 24 -26 27 28 35 32 -31 -32 48 -34 -35 -36 37 -38 38 43 40 42 -43 -44 -45 -46 55 -48 -49 49 -51 53 -53 -54 -55 -56 56 -58 58 -60 -61 -62 -63
leaf_value=0.018405506926261878 -0.11443610114565202 -0.059427864448176243 0.022485796566398583 0.022833335570371635 -0.091742427776375146 -0.057022356667515033 0.049887138473797679 -0.042622749024390061 0.0084366278687507384 -0.10884141095865996 0.0019066016116849182 -0.035170613967672425 -0.016895430813558571 -0.033115847965132776 0.062077394476967543 0.0023909095816016779 -0.033202722868857025 -0.000521575917446007 0.0013070978828530241 0.042848408203618432 -0.038179560075537196 0.0044842049522548794 -0.090652727600551097 -0.052425983157194427 -0.0034721642193383528 0.034753240536480975 -0.0047732364153123688 0.0036329825228671796 -0.049836275260190459 -0.11104440119586295 -0.00081786036859953426 0.014972439391601443 -0.098570480641426497 0.029555812761247011 -0.15995219264334701 0.008263470279964328 -0.040987339083304986 0.026674567460088228 -0.043321183277980874 -0.015088374647167273 0.094608062698114587 -0.2102688893559356 0.031442947859965459 0.010197593941782775 -0.029426327372053435 0.0089964235143180533 0.0091791865498783258 -0.05186829007276287 0.15309216886175678 -0.21706682554167514 0.036361828205970531 0.11416327533585478 -0.081523099570244367 -0.16716744336762857 -0.049970825262446533 -0.036464776555493128 -0.18184201080949428 0.16171922200786726 -0.21117489799478226 0.065114636795552169 -0.045152818426583446 0.042076179600004378
leaf_weight=2768.4707783305785 638.94754352523159 55.396189692663029 787.54485331021715 2169.7578281810711 242.47138857265236 340.2765170619241 632.50408685411094 645.56749075633707 3506.6671995358483 148.63934534718283 2315.7511074687063 335.10361518710852 203.77681212994503 98.331368051585741 392.04220335837454 567.6972984271124 48.027023437432945 798.96783894242253 180.33028639550321 699.1611600209726 339.82200591312721 4623.1845204693964 251.09311638906365 179.19749498023884 1192.3512608587043 1084.0955724227242 180.57749649381731 4258.4222364661982 401.33175861218479 150.57564361218829 2545.005002461432 340.35971161816269 154.07666553635499 915.77046922990121 17.085512857243884 2576.5547287890222 547.11732773168478 330.03776109754108 87.240384279633872 31.489001641282812 63.184075061697513 10.872169401496647 528.42664749990217 669.86342929815874 586.02598106354708 450.86528544058092 1512.7003736713086 168.02068331144983 25.063923291047107 5.2194868614897123 7.2818177011795369 22.650977017823607 41.763297327794135 14.188936656340955 1600.4763084783626 73.230011620558798 14.735081435181199 18.570573374629024 3.9680330818518987 71.837544655427337 111.20872384871473 109.54356152424589
leaf_count=37156 391424 8728 18236 55356 110004 79232 4544 153308 79988 65200 321524 74476 37448 5440 2052 5700 452 27580 2584 4032 68396 151432 116360 23152 83200 11608 25404 150956 98252 80916 109240 4908 73472 12512 2736 31120 134540 4412 2908 332 300 120 16468 45152 44108 11880 64056 20908 64 88 84 100 744 196 131656 1108 648 24 128 812 31532 9816
internal_value=-4.15255e-10 0.00169054 -0.000935595 0.000171952 -0.00155336 -0.0519273 0.00200757 -0.00802797 0.00374249 -0.0550159 0.0120294 0.00253083 -0.0516264 0.00279525 0.0149023 0.0265999 0.051679 0.0106149 0.0391095 0.00307096 -0.00359961 0.00510664 -0.0604766 0.0032901 -0.00986815 0.00338106 -0.00285845 0.00631259 -0.0489822 -0.0735944 -0.0030336 0.0301397 -0.0633557 0.0191603 -0.0518918 0.00332567 -0.0014471 0.00748303 6.93765e-05 0.0128088 0.0312819 -0.0651823 0.038189 -0.00437355 -0.0118446 0.0024568 0.00191705 -0.00944341 0.0106767 0.0892935 0.00509121 0.010567 0.00442617 -0.0981404 -0.0462352 0.00876388 -0.0288181 -0.00527361 0.0960694 0.016709 -0.0134141 0.00798532
internal_weight=43890.5 43251.6 36079.9 35312.9 30827.4 767.001 28780.6 4242.17 24538.5 794.207 4485.51 23725.6 2046.72 3447.97 7171.7 1923.54 440.069 5248.16 812.834 23390.5 5469.13 17921.4 590.915 4878.22 1371.55 16765.7 5359.17 11406.5 735.986 490.852 2660.42 1155.69 555.408 1483.47 115.417 10322.4 4805.54 5516.9 2306.37 3210.53 633.972 42.3612 591.611 1976.34 1306.47 720.447 2479.69 966.989 456.528 30.2834 426.245 404.774 382.123 21.4708 1804.25 633.207 110.504 95.7686 22.5386 522.703 276.148 164.94
internal_count=3050312 2658888 2488472 2278248 1901368 210224 1622260 354160 1268100 218508 376880 1260972 279108 135652 170416 20716 2504 149700 7128 1186496 371096 815400 184756 186340 106352 805184 348560 456624 197128 160148 117416 10216 171724 18212 8176 445016 285496 159520 111180 48340 17220 452 16768 106768 61616 17508 112544 48488 6184 152 6032 5752 5652 280 169104 14600 1908 1260 152 12692 50076 18544
is_linear=0
shrinkage=0.1


Tree=8
num_leaves=63
num_cat=0
split_feature=0 2 1 2 2 1 0 1 0 1 0 1 2 2 1 2 0 2 1 2 0 1 1 0 2 0 2 0 0 0 0 1 1 1 0 0 1 1 0 1 0 1 2 2 2 1 0 2 0 2 0 2 1 1 2 1 1 0 2 1 0 2
split_gain=732.939 112.983 295.19 125.659 86.3758 118.069 73.6929 68.7581 72.643 50.4675 68.5604 48.4492 193.078 70.9333 46.3649 149.863 44.1913 56.2548 40.8406 40.8214 37.5412 33.8691 30.3192 29.9148 28.6503 32.5499 26.2595 27.2342 26.1773 24.6703 23.6434 36.1618 25.7347 33.6916 22.6117 23.7561 21.7695 21.7549 20.1939 22.7271 19.4274 23.55 24.24 22.1036 24.7313 25.5203 19.2502 19.1519 37.0302 19.0388 38.5293 63.9316 37.4361 37.1656 48.3257 21.2144 20.8807 29.2484 20.1713 27.7121 28.2334 20.1045
threshold=-0.0031014672555211495 -0.35360228259485899 -0.4807717121566597 -0.27557548952950955 -0.10267371889143063 -0.055395742008837845 0.0075326174993469008 -0.015733193129276297 -0.015915459833090447 -0.47803924587439672 -0.4469866310544795 -0.24630673941802625 -0.2327281033554868 -0.21657680485501057 -0.13036320032404577 -0.18600744542610978 -0.4469866310544795 -0.27974682450598176 -0.22254545342856646 -0.020200185649321547 -0.19302442974493536 -0.23456483380671736 -0.23566794254376347 -0.21032170149821991 -0.33326188898323622 -0.53661268406215512 -0.20214349192617556 -0.15387237626217273 -0.016437921211779546 -0.17308892228930198 -0.16346076377651192 -0.2336069177026909 -0.20918511343265003 -0.21710813904101298 -0.33051767100016455 -0.34214549874473338 -0.20918511343265003 -0.45506458071376005 -0.0084095431999547474 -0.0088399031855410978 -0.15711496326514507 -0.22777380281379614 -0.20367595237971955 -0.20515132578797626 -0.20367595237971955 -0.22777380281379614 -0.12821942226888852 -0.30142823786451162 -0.37695430968305238 -0.14969957439215692 -0.10593424940744904 -0.15386793609780028 -0.11464064626279268 -0.055395742008837845 -0.13386717050078598 -0.094842593626440277 -0.10553806814020689 -0.08398288893100099 -0.15268847319423923 -0.11464064626279268 -0.08889978909691254 -0.15386793609780028
decision_type=2 2 2 2 2 2 2 2 2 2 2 2 2 2 2 2 2 2 2 2 2 2 2 2 2 2 2 2 2 2 2 2 2 2 2 2 2 2 2 2 2 2 2 2 2 2 2 2 2 2 2 2 2 2 2 2 2 2 2 2 2 2
left_child=1 -1 3 24 9 -6 19 8 28 10 -4 12 16 20 15 21 -11 47 -17 -2 22 46 -13 -23 25 -3 27 30 -7 -28 32 -32 33 -25 35 -12 -29 -14 -9 -40 43 -42 -43 -33 -45 -46 -15 -18 -49 50 51 52 -16 54 -51 -56 58 -58 59 61 -61 -52
right_child=6 2 4 -5 5 7 -8 38 -10 11 34 13 37 14 49 18 17 -19 -20 -21 -22 23 -24 26 -26 -27 29 36 -30 -31 31 40 -34 -35 -36 -37 -38 -39 39 -41 41 42 -44 44 45 -47 -48 48 -50 53 56 -53 -54 -55 55 -57 57 -59 -60 60 -62 -63
leaf_value=0.011284787253782297 -0.091207360799879927 -0.044678246179821579 0.05247920662333995 -0.083681023219703637 -0.070899836581618289 -0.011405533923046478 -0.11427164080678254 0.014526587297200955 -0.061282027999151403 -0.045625732317359384 0.0031854855069351658 0.03853176654960272 -0.047484826383815182 0.014575703509563094 0.04663254606838995 -0.024192453980114451 0.020431334230019919 -0.016535117742954328 -0.06923317433033617 -0.016182789404671629 0.11284525971615873 -0.056989359557197521 0.0055328895117187082 0.0091389069218552939 -0.037699874258040583 -0.0022296654840704157 -0.058342342754392922 0.06704339597358798 0.0093270554264186043 -0.0084626575576250695 -0.21090742850753075 -0.0050185726052649777 0.14322182063434369 -0.15931055820670553 0.037934665654276743 -0.095489952947148307 -0.20844981540926077 -0.09503064546813364 -0.11826091301805808 -0.00432005880158074 0.074837126899405679 -0.20800837599743227 0.018473404385057787 -0.16456333586579142 -0.13982294950204191 0.031915894911546297 -0.20682373367209125 -0.014317540534740384 0.014760809134907125 0.004381631959673748 -0.22334688073775469 -0.016628549340354164 -0.0042493333369339817 0.011593033069820785 -0.019008340236376181 -0.07119551388566768 -0.17058849540480056 0.078185041669529748 0.034322596656354509 0.019790376508483337 -0.21981306016714877 -0.03730329431126584
leaf_weight=9738.0681907142862 138.63431866516476 238.89568830598728 504.83606367721222 441.33743531916116 282.32744386857667 4349.2273730608285 546.72005768649979 1774.3059533188934 274.94962133238732 196.93058682396077 800.11991944164038 709.65429572109133 178.57116775470786 1883.964638592035 376.5072129946202 506.87128260868485 1106.5880377646536 1091.6835436109104 333.95809343352448 152.08299465593882 51.475886872853152 100.77564056625124 458.21167157124728 1134.9859478821745 846.22482416548883 740.8346698237001 112.66614011122147 92.769564749323763 708.1598269456008 827.03928195207845 10.182840375229715 85.157834547571838 14.117045675404368 11.99912910396233 196.33561866596574 25.165581588167697 2.9598308018175876 208.71500111944624 18.20322425433551 457.00519020672073 39.850038565695286 6.9884236962534496 14.595319863408804 23.39988240855746 13.919352717231957 22.868082751054317 3.9353911976795635 701.80950793914963 1164.795412528445 2148.5912833285984 7.8989122360944775 738.64230900246184 234.75803820346482 4107.6031700314488 651.78655169295962 88.46620587259531 12.275247581070291 7.6845679664984337 1112.718050529249 255.75970754167065 5.0142961405217639 21.948258894262835
leaf_count=263340 85032 34724 3320 215552 122172 256928 366884 153564 69544 3420 12720 4028 58840 38948 1548 86736 15788 119996 123180 82968 412 4924 5776 34004 175444 50316 17952 908 21968 37696 212 976 156 724 5928 772 92 103344 4280 76368 316 140 120 436 220 184 120 30228 34628 97412 84 7664 1808 66284 102312 25872 484 104 15904 3828 152 528
internal_value=-5.06067e-11 0.00183504 -0.000993018 -0.0357957 0.00161364 -0.00740307 -0.09264 -0.00503862 -0.0112239 0.00477815 0.0223308 0.00349501 -0.00550554 0.0060729 0.00418894 -0.00339711 0.000637755 0.00287908 -0.0420816 -0.0519597 0.0292685 0.00399175 0.0255847 -0.00360891 -0.0242217 -0.0125803 -0.00138001 0.00694907 -0.00850246 -0.014443 0.00336624 -0.0269353 0.00902833 0.00737668 0.00743293 0.000176557 0.0585255 -0.0731081 0.00962323 -0.00868465 -0.0178755 0.0292711 -0.0548573 -0.0378033 -0.0841897 -0.0330654 0.0141142 0.0100075 0.00382788 0.00826008 0.0152718 0.00316864 0.0270912 0.0054808 -0.00321009 -0.0252451 0.026751 -0.0748102 0.0281955 0.00473618 0.0151832 -0.0865388
internal_weight=43114.5 42277.1 32539 2267.29 30271.7 7864.18 837.437 7581.85 5332.34 22407.5 1526.46 20881.1 4649.09 16232 15012.7 5243 4261.81 4064.88 840.829 290.717 1219.34 4402.17 1167.87 2514.27 1825.96 979.73 2413.5 1473.79 5057.39 939.705 1378.06 216.962 1161.1 1146.99 1021.62 825.286 95.7294 387.286 2249.51 475.208 206.779 61.4338 21.5837 145.345 60.1873 36.7874 1887.9 2973.19 1866.6 9769.65 2773.21 1349.91 611.265 6996.45 2888.84 740.253 1423.3 19.9598 1403.34 290.621 260.774 29.8472
internal_count=3050312 2515428 2252088 476036 1776052 704824 534884 582652 348440 1071228 22740 1048488 366244 682244 672028 348044 204060 200640 209916 168000 10216 138128 9804 99060 260484 85040 94136 38488 278896 55648 37488 2604 34884 34728 19420 13492 1000 162184 234212 80648 2392 576 260 1816 840 404 39068 80644 64856 323984 32104 11020 3356 291880 225596 128184 21084 588 20496 4592 3980 612
is_linear=0
shrinkage=0.1


Tree=9
num_leaves=63
num_cat=0
split_feature=0 0 2 1 2 2 1 1 1 2 2 1 1 0 2 0 2 0 1 2 2 2 1 0 2 1 2 0 1 0 2 0 1 0 1 1 1 1 0 1 2 0 1 1 1 2 0 1 2 1 1 2 1 1 0 2 0 1 1 0 2 2
split_gain=622.361 158.413 293.22 91.3371 109.609 56.2305 114.991 59.1715 44.1849 143.618 76.5309 38.572 36.42 31.3838 34.6138 26.9571 27.9901 30.9032 25.3074 172.867 79.146 37.5209 36.944 29.8889 30.4477 29.2905 161.98 66.6925 40.9713 25.0174 22.6147 22.4131 37.7323 22.086 21.1581 20.6962 44.3881 28.1171 28.0468 20.5988 19.067 29.8422 22.0069 18.6321 18.591 17.4691 21.1207 17.2517 79.7011 37.0524 18.7884 16.8665 19.5711 16.591 15.4379 33.4809 15.1339 15.0497 14.999 26.7591 28.9158 20.8611
threshold=0.0055472831591080012 -0.016437921211779546 -0.047208380983194194 -0.017459182647068399 -0.089994859345020189 -0.37022799278864321 -0.74499341536842822 -0.95445311773971186 -0.4807717121566597 -0.31631712285803515 -0.3069182176798862 -0.66699791396514707 -0.016898340449052144 -0.0069425419894079488 -0.029953275872949547 -0.65128288334546747 -0.34543731810191708 -0.50882352849814516 -0.24630673941802625 -0.25189009658576028 -0.21657680485501057 -0.19593749959900433 -0.47358294713267474 -0.40060345536510927 -0.29009269770597285 -0.13036320032404577 -0.18600744542610978 -0.10593424940744904 -0.22254545342856646 -0.43975421649624474 -0.28808522387392249 -0.53661268406215512 -0.71210918143295288 -0.013239606673494149 -0.23122885776863616 -0.74499341536842822 -0.72106380215398513 -0.9568837131593525 -0.67507720852462005 -0.23566794254376347 -0.20072230173162242 -0.17952745985470456 -0.23410810555736608 -0.2120609456240036 -0.68082570368023165 -0.34830286127978521 -0.49036279323113535 -0.055395742008837845 -0.11527880188753729 -0.11132644924822394 -0.096802511821427725 -0.071848619098804731 -0.054018792523380398 -0.011727735566653498 -0.70676740536954352 -0.4190247779068646 -0.35349845189441281 -0.11074321147127829 -0.051712330493647797 -0.033025581655028044 -0.09394744633189038 -0.10559191542727274
decision_type=2 2 2 2 2 2 2 2 2 2 2 2 2 2 2 2 2 2 2 2 2 2 2 2 2 2 2 2 2 2 2 2 2 2 2 2 2 2 2 2 2 2 2 2 2 2 2 2 2 2 2 2 2 2 2 2 2 2 2 2 2 2
left_child=1 3 33 4 5 35 7 45 9 15 29 -11 -5 -4 -15 -8 31 -18 19 22 34 -21 -12 -24 -25 26 40 -27 -28 -10 -9 32 -17 -3 39 37 38 -1 -37 -20 43 -42 -43 -22 -19 46 -7 48 49 -29 57 52 -6 -35 -39 -56 -26 -51 59 60 -49 -60
right_child=-2 2 13 12 51 6 8 30 10 11 18 -13 -14 14 -16 16 17 44 20 21 25 -23 23 24 56 27 28 47 -30 -31 -32 -33 -34 53 -36 36 -38 54 -40 -41 41 42 -44 -45 -46 -47 -48 58 -50 50 -52 -53 -54 -55 55 -57 -58 -59 61 -61 -62 -63
leaf_value=0.011197370284211297 -0.10697975575209501 -0.04929014207353434 0.0055850396249543391 0.071897016103094541 -0.078067612496644984 0.0040784474381914413 -0.061482196843623986 -0.047914540734146319 0.04409796678810305 -0.039093162175009702 0.00871631526821387 -0.10075335248918138 0.021986366477187342 -0.089041816260728407 -0.011568853107246493 0.0047510965212353706 -0.056466684050605488 -0.0017383621772421171 0.036513740932454464 -0.037909425427795837 0.0069741169209175799 -0.093339602180172399 -0.065318533555140071 0.013649921648691103 -0.055159036868826263 0.029399976385163132 -0.025365839526674497 0.0072305367184001398 -0.070183289587372993 0.00099965518388063349 -0.099210791398581244 0.021280064064609465 -0.057711565140431242 -0.08855634879813884 0.082477456769026958 0.064206531577117754 0.011843270362244335 -0.020085877942984602 0.011587767816669859 0.0073871010113666733 -0.090103798932981732 0.016924366266912304 -0.014782584531578706 0.065754416647002656 -0.14746443566038323 -0.034992328654892928 0.10381156230739937 0.0090422411221898515 -0.054545255868823486 -0.046266453296425675 -0.061836627043942896 -0.080289058523249579 -0.024567637861167616 0.094407741163261935 0.058251592298445815 -0.0059543579526928981 -0.013722887661928274 -0.0063427310931467949 0.015876362454943515 0.052441683482958593 -0.081439919071327971 -0.01214074657193432
leaf_weight=4134.443082296988 536.93629520725517 1170.2747155046673 2485.6959901770169 163.49834787822329 79.370830551430117 117.80495962325949 67.631495737587102 308.39925842784578 605.96558725833893 504.3844003494014 3395.3064627234708 126.99663893887191 1382.0219599563279 66.470234083360992 435.58263905058266 1407.2658167508198 145.56738969113212 504.54137413430726 699.17171237757429 475.84302991465665 3284.4613240279141 164.2776241912361 94.842695190804079 444.26953050657175 102.81289676908636 1064.5990774771199 503.48583200498251 3263.9811439978657 342.89841892130789 173.17720915575046 119.14952959954098 785.83544998045545 103.84664309356594 209.07729293037846 71.788113051326945 304.1550257820636 1846.4996966521721 484.82995416154154 151.88263239944354 371.99038987536915 42.10236045048805 329.72052853589412 651.30200757988496 54.826038352912292 8.9090278217336145 85.683598574774805 25.902721561258659 4026.9484917736263 265.89846238426981 104.92388409073465 75.982467950962018 82.695566036287346 493.64202169567579 5.0764401135384096 95.29444697056897 549.77323179610539 617.79239162857994 943.21780640020734 396.10768634884153 141.79577219998464 35.631538932095282 807.60575963332667
leaf_count=89252 391424 39508 192216 10076 37628 13772 4292 81204 4544 140080 86676 65932 19396 37448 135960 41668 24852 41612 4032 111128 76468 91552 8156 12072 13460 11608 87016 87780 131340 2584 79076 17140 11584 110008 532 1456 25140 31652 1612 5652 11208 10860 38860 732 2192 27284 1388 75836 86472 9224 15316 33108 100464 544 1064 31520 52832 88204 5580 3992 3812 71232
internal_value=3.01651e-10 0.00136749 -0.0166494 0.00346069 0.00244116 0.00319089 0.00111491 -0.0402267 0.00211312 -0.00811673 0.00370062 -0.0514956 0.0272663 0.000978961 -0.021826 0.000941544 0.00236978 -0.0157971 0.00264625 -0.00341023 0.00448108 -0.0521348 0.00328996 -0.0113356 -0.00694041 0.00270112 -0.00348776 0.00559835 -0.0435229 0.0345187 -0.0622098 0.00758203 0.000458539 -0.0546932 0.029921 0.0108356 0.0187434 0.00737683 0.0466819 0.0263987 0.00427976 -0.00766397 -0.00412592 0.0079392 -0.0042669 0.0007463 0.0220549 0.00308007 -0.00138347 0.00183788 -0.0138201 -0.038071 -0.0319782 -0.0842192 -0.00660301 0.00353065 -0.0196348 -0.0103393 0.00692123 0.0097391 0.00824865 -0.00292112
internal_weight=42541.9 42004.9 4372.18 37632.8 36087.2 35431.5 27864.6 656.94 27207.7 3654.98 23552.7 631.381 1545.52 2987.75 502.053 3023.6 2955.97 659.018 22773.6 5295.14 17478.4 640.121 4655.02 1259.72 1164.87 16335.5 5208.8 11126.7 846.384 779.143 427.549 2296.95 1511.11 1384.43 1142.95 7566.88 2302.54 5264.34 456.038 1071.16 4362.41 1023.12 981.023 3339.29 513.45 229.391 143.708 10062.1 4654 4388.11 1124.12 655.708 573.013 214.154 1129.9 645.068 720.605 1048.14 5408.09 4204.38 4062.58 1203.71
internal_count=3050312 2658888 515684 2143204 2113732 1942532 1760836 202724 1558112 349352 1208760 206012 29472 365624 173408 143340 139048 68656 1201632 375876 825756 202680 173196 86520 78364 815540 356484 459056 218356 7128 160280 70392 53252 150060 10216 181696 28208 153488 3068 9684 138128 60928 49720 77200 43804 42444 15160 447448 286996 200524 112744 171200 138092 110552 64236 32584 66292 97428 160452 83640 79648 76812
is_linear=0
shrinkage=0.1


Tree=10
num_leaves=63
num_cat=0
split_feature=0 2 1 2 1 0 1 2 2 1 2 1 1 0 2 0 1 1 2 1 2 1 2 1 1 2 1 0 0 2 1 2 0 1 1 0 0 2 0 1 1 1 1 0 1 2 0 2 1 0 2 2 0 1 2 1 2 2 0 0 1 1
split_gain=538.823 76.549 199.501 92.1292 72.0055 48.7981 44.8888 124.09 76.1609 43.7338 42.7934 86.5749 55.5966 33.9609 33.7746 28.6015 34.1909 28.4061 126.746 51.2314 27.7561 19.1609 19.1163 22.1889 18.1459 17.834 17.2272 17.4944 16.2873 16.0609 15.9374 57.4036 15.0119 27.4195 14.5843 13.9743 13.8728 25.6632 18.9923 25.7502 23.9027 18.6817 14.6031 13.3909 13.3283 13.2843 15.3728 13.1338 13.0435 14.6531 14.7717 13.0198 12.5731 13.3997 12.5352 12.3048 12.2857 12.253 21.7892 12.4739 12.1798 46.6049
threshold=0.0075326174993469008 -0.35360228259485899 -0.4807717121566597 -0.27557548952950955 -0.47717027445404708 -0.0036790539370661498 -0.24630673941802625 -0.26675392187428931 -0.21657680485501057 -0.43442640589111409 -0.10112306897229204 -0.054018792523380398 -0.016359892809369298 -0.015915459833090447 -0.023602117047064195 -0.4469866310544795 -0.47803924587439672 -0.13036320032404577 -0.18064596492564058 -0.11464064626279268 -0.14544128085908048 -0.68082570368023165 -0.19431814948137657 -0.23410810555736608 -0.74499341536842822 -0.15386793609780028 -0.05304324649076559 -0.042594808557503396 -0.16346076377651192 -0.18243870196146031 -0.055395742008837845 -0.13520867336397427 -0.49036279323113535 -0.72020882371681505 -0.71528689403269585 -0.065901049717554935 -0.077410346387952342 -0.14326778227523468 -0.096090438148224336 -0.11236483798470759 -0.1118389438580132 -0.10848957943860119 -0.096802511821427725 -0.48104341822092328 -0.22870086578889673 -0.11011354524610605 -0.074055898494138836 -0.11527880188753729 -0.71210918143295288 -0.52761166383581315 -0.35094276477896025 -0.30501445258460841 -0.45375823220984995 -0.47843616042554349 -0.047208380983194194 -0.094842593626440277 -0.10025920250119799 -0.15169859634590258 -0.10199163852399813 -0.10593424940744904 -0.74499341536842822 -0.72106380215398513
decision_type=2 2 2 2 2 2 2 2 2 2 2 2 2 2 2 2 2 2 2 2 2 2 2 2 2 2 2 2 2 2 2 2 2 2 2 2 2 2 2 2 2 2 2 2 2 2 2 2 2 2 2 2 2 2 2 2 2 2 2 2 2 2
left_child=1 32 3 21 15 6 7 -6 -8 29 17 44 13 26 -7 16 51 18 22 25 -20 24 -10 -24 -3 -19 -13 -28 -25 -9 31 35 60 -34 -35 36 37 38 39 -21 57 -42 -38 -36 -12 46 -33 -27 -26 -50 -51 52 53 -4 -14 -48 -29 58 59 -41 -1 -62
right_child=-2 2 4 -5 5 14 8 9 10 -11 11 12 54 -15 -16 -17 -18 19 20 30 -22 -23 23 28 48 47 27 56 -30 -31 -32 45 33 34 43 -37 42 -39 -40 40 41 -43 -44 -45 -46 -47 55 -49 49 50 -52 -53 -54 -55 -56 -57 -58 -59 -60 -61 61 -63
leaf_value=0.0055436263838326274 -0.10769533788983357 -0.040216664895484124 0.049861672656537355 -0.074885489276644304 -0.0001024721232528117 -0.086505050426876381 0.026618277664257801 -0.029507661630948364 0.0058779259398835867 -0.093969563448734361 0.12092804009615682 0.014348566723474891 0.036814214797655426 -0.063524592558383372 -0.014464586393431737 0.011309784959489406 -0.028491081938434692 0.046050478160898592 -0.03200269696635101 0.0030307974002421511 -0.079041199672458096 -0.07719543179422636 0.013352705266265736 -0.06522878136854536 -0.0063960443370150739 0.01895141199779635 -0.053428243345697846 0.034342563166845377 -0.015923302707150391 -0.087642484909043417 0.008234272475004592 -0.047591041657539801 0.11064748646246195 -0.19939719794534561 0.064027139498133143 -0.12241062732228494 0.026039188081386746 -0.020280941884546492 0.015297869204210182 -0.20144846119372584 -0.0040385865003440182 -0.13776019190678004 -0.13321065904486229 -0.17249274727328223 -0.064486832689306176 -0.058602324307631105 -0.0071965037587405443 -0.15566335566250425 -0.079781112769677545 0.053146733838101347 -0.026051206675180044 -0.024712410604557429 0.077048257391073877 0.00033611145237122175 0.0055108488794820484 -0.062304996651406777 -0.011006406681798517 -0.16660333014246176 -0.21084853913602158 0.11560946984777978 0.038779659068509748 0.0084715054934733844
leaf_weight=5405.7531501778285 459.49167493195273 322.73350989681785 273.02882598387077 390.52277965701069 2554.2182919626357 106.90892058294412 1136.8247884809971 619.77436080043844 3743.326935963938 148.30117663119745 3.9342957896296857 279.52603424756671 134.47891154076206 120.29729538496758 166.3248151051157 2044.9058855187031 70.169336295221001 358.3932586456649 460.19977576378733 1567.5345933015924 172.45299980565323 58.563951626827475 235.82443368202075 80.078364472894464 849.1305736519862 571.2273795651854 96.362719900644151 60.704054444329813 410.13985699333716 51.46862911178323 4415.5694274815032 153.98754012366408 36.817902961163782 4.3461357770720523 10.636619573342614 8.6032774019986373 365.97119554190431 410.03260814340319 1336.1075084090699 1.5218104769010086 94.196619482361712 11.750800218200309 5.8502649225993073 3.0888704785611454 265.73927950643701 100.84828037500847 491.47163173923036 4.3402742941980241 47.694067479984369 25.075716792372987 387.20724860168411 24.635419264435768 124.76182655710727 68.295818183105439 2624.1903826229245 44.157300549704814 3760.7327030637098 19.636287222034298 4.8045378464739761 6.7214814717881373 589.97755972412415 3622.8504076997051
leaf_count=182212 366884 97184 1376 220044 103884 74712 10216 129276 104900 78712 796 15180 7540 60632 100816 41664 1600 1632 105152 22620 86940 19344 9188 12376 76780 12296 14124 2352 31592 30316 79952 22480 1216 292 320 616 13368 33016 31172 132 5668 1444 720 320 115788 31088 69812 1392 10924 756 55496 484 700 760 240364 13744 214944 1644 208 172 5216 73764
internal_value=1.35211e-10 0.00119056 -0.00117298 -0.0311089 0.000916709 -0.000604361 -0.000177762 -0.0109659 0.00136725 -0.0448234 8.69184e-05 -0.0061715 -0.00405222 -0.0111374 -0.0426521 0.0167967 0.0368009 0.00313666 -0.00293233 0.00624154 -0.0448248 -0.0209955 0.00299767 -0.0118523 -0.0189785 0.0285388 -0.00963592 -0.0113472 -0.0239775 -0.0339652 0.00393761 -0.000166099 0.00898261 0.0611305 -0.039752 0.00489431 0.00518071 0.00320407 0.00636934 -0.000622644 -0.0419328 -0.0188699 0.0235335 0.0107992 -0.0617818 -0.0247025 -0.0197451 0.0176347 -0.0137427 -0.0273049 -0.0212343 0.0461372 0.049882 0.0399521 0.00703682 -0.0117397 -0.010286 -0.116693 -0.04158 0.0570768 0.00868502 0.012716
internal_weight=42024.2 41564.7 31891.3 2080.93 29810.3 27204.5 26931.3 3373.76 23557.5 819.544 22420.7 7345.97 7076.29 4317.62 273.234 2605.8 560.891 15074.7 5102.02 9972.73 632.653 1690.41 4469.37 726.043 1631.84 933.961 4197.33 3917.8 490.218 671.243 9038.77 4623.2 9673.47 54.8895 18.0716 3832.73 3824.13 3452.31 3042.27 1706.17 138.632 105.947 371.821 13.7255 269.674 790.465 689.616 575.568 1309.11 459.977 412.283 490.722 466.086 341.325 2758.67 535.629 3821.44 32.6841 13.0478 8.24329 9618.58 4212.83
internal_count=3050312 2683428 2420088 480528 1939560 1892976 1717448 342188 1375260 238304 1365044 671720 555136 307232 175528 46584 4920 693324 350148 343176 192092 260484 158056 53156 241140 15320 246600 231420 43968 159592 327856 247904 263340 2148 932 110780 110164 96076 63060 31888 9268 7112 14088 640 116584 137124 106036 13688 143956 67176 56252 3320 2836 2136 247904 83556 217296 2156 512 304 261192 78980
is_linear=0
shrinkage=0.1


Tree=11
num_leaves=63
num_cat=0
split_feature=0 2 1 1 2 1 1 2 1 0 1 2 1 1 2 0 2 1 1 0 0 2 1 2 0 1 2 2 0 0 1 0 2 0 0 1 2 0 1 1 1 0 2 1 1 2 2 1 2 2 1 1 1 1 0 0 0 2 0 0 1 0
split_gain=463.418 65.2931 190.03 39.8472 105.152 63.4761 36.4655 36.1621 93.1153 69.5323 43.4707 104.248 33.8909 31.1131 26.7823 36.4878 26.0152 28.1993 26.5851 25.2972 25.1087 22.3551 22.1353 80.9328 26.8681 37.9188 21.19 20.7025 20.5725 18.5218 18.5055 17.0058 18.0794 23.3927 21.1513 16.8291 28.1641 29.9809 21.0324 19.5159 18.9248 16.0782 17.8039 21.7537 38.9197 18.4022 18.0232 17.0755 16.9469 15.8018 15.6642 16.5896 15.3515 22.2807 15.2187 15.0713 14.5982 24.0595 13.3636 17.5105 13.3013 19.6379
threshold=0.0075326174993469008 -0.29604384602194034 -0.4807717121566597 -0.24630673941802625 -0.21373288041107794 -0.23496412569006322 -0.4776136231999602 -0.097692809065387978 -0.016359892809369298 -0.015915459833090447 -0.13036320032404577 -0.18243870196146031 -0.44852317534989444 -0.067660621698269183 -0.27351496976600403 -0.35349845189441281 -0.15386793609780028 -0.11464064626279268 -0.11400760538314804 -0.21032170149821991 -0.11084575254409974 -0.15386793609780028 -0.4807717121566597 -0.34543731810191708 -0.4469866310544795 -0.47803924587439672 -0.21082301999604522 -0.2412491854845604 -0.016437921211779546 -0.50882352849814516 -0.016633486979943348 -0.21868628353138017 -0.20214349192617556 -0.17308892228930198 -0.17647610468099048 -0.23308188382694381 -0.21657680485501057 -0.18631092021126797 -0.23040979156109595 -0.2336069177026909 -0.23122885776863616 -0.10825568198544869 -0.14969957439215692 -0.055395742008837845 -0.11364471542485373 -0.13128562515983497 -0.11527880188753729 -0.11496029147994789 -0.15268847319423923 -0.21808593004673471 -0.42149012502180988 -0.44436727736652964 -0.21710813904101298 -0.2208837783710744 -0.074055898494138836 -0.37103904361467549 -0.15387237626217273 -0.20072230173162242 -0.18272896597153207 -0.19635331993367031 -0.23410810555736608 -0.17308892228930198
decision_type=2 2 2 2 2 2 2 2 2 2 2 2 2 2 2 2 2 2 2 2 2 2 2 2 2 2 2 2 2 2 2 2 2 2 2 2 2 2 2 2 2 2 2 2 2 2 2 2 2 2 2 2 2 2 2 2 2 2 2 2 2 2
left_child=1 12 27 4 6 19 -4 10 9 13 11 31 22 -9 15 -8 17 -12 -19 26 -20 -13 23 -1 25 -24 -5 55 30 -25 -15 -7 34 -34 35 39 37 40 -39 58 -37 48 47 44 46 -46 -44 -43 -18 -41 51 -17 53 56 -47 -3 -35 -58 59 -33 61 -36
right_child=-2 2 3 5 -6 7 14 8 -10 -11 16 21 -14 28 -16 50 41 18 20 -21 -22 -23 24 29 -26 -27 -28 -29 -30 -31 -32 32 33 52 60 36 -38 38 -40 49 -42 42 43 -45 45 54 -48 -49 -50 -51 -52 -53 -54 -55 -56 -57 57 -59 -60 -61 -62 -63
leaf_value=0.0074083304377095876 -0.1047569729757641 -0.087432473542702033 0.01316137626905736 0.028215192825041008 -0.077923252931644482 -0.046841650054373435 -0.025541541091441723 -0.066115113412443902 0.0064811499005718838 -0.069934896808785604 0.044009147791897983 -0.030933502362172467 -0.20658761446575916 -0.0088467757901925636 -0.027276642034163297 0.006436412369136996 -0.0030165610472717378 -0.02158737622271463 -0.18144181909772494 0.0066632986024400837 0.051697982637417705 -0.07095369829164809 0.045945856948057549 -0.052668447363232312 0.0096246931874476322 -0.018166268244689917 -0.086517147824879181 -0.084430510608421216 0.046101981859038438 -0.0162907836871693 -0.025264740233944618 -0.011017832329590515 -0.055343923434865196 0.0069258956777080508 0.058095102937054235 -0.043429117291271642 -0.022498427917801066 0.01646083528957553 -0.21987528314611141 -0.20896453671690543 0.083541065922075927 0.069446827245077863 0.01290823837486087 0.0065381399230876385 -0.0067149120970654277 -0.084597891909414455 -0.12513528681220176 0.011761654649606242 -0.056801968535761728 0.042999927329585755 -0.19900430996096188 0.072004997959823624 -0.053857003647789593 0.055364549201860416 -0.023778761588403492 -0.033866621630814907 -0.20300141836954824 -0.017333764023623598 -0.054383376870839453 0.027859893620536737 0.026187133225334253 -0.0625295016019429
leaf_weight=10114.57907514734 418.05425857638329 65.580487493512919 726.78687405056553 1140.4747349405661 220.01465032871056 75.021126318490133 495.78668829915114 108.76529019497684 3058.5831638093732 230.13064486684016 347.81710153305903 387.25888265355024 7.4512404105626038 2848.3469537325582 797.06389445898822 785.22802743583452 184.7255687173456 181.55384742282331 4.8374774563126257 1416.2510599792295 102.49934752169065 218.23660264232603 477.83177864109166 168.27380191558041 2247.3293555062264 114.32312115328386 16.327974810497835 214.82631337441853 60.239945813489612 831.90712431792053 904.56175879581133 279.13906632480212 100.98185543951695 406.3772111182916 20.121490396792069 14.266082094050942 495.05091776663903 8.1864061001688224 6.9729124414734533 2.5261474233120671 66.267694688402116 52.805930778384209 957.83144830877427 4830.9545582850697 1247.5489534108201 44.914436944789486 9.5523456507071369 1817.6536474438617 85.787152527016588 169.34707367711235 3.6133846440352491 40.581603717524558 58.678143503086176 64.772009563690517 489.97339354155702 263.86748278995219 7.1318547943374133 326.38826565665659 40.98889689007774 198.04369038157165 592.08720100240316 40.992262656800449
leaf_count=299516 366884 26684 17252 11420 131768 2640 32168 58824 369560 139264 1632 85652 312 217004 134956 29656 2132 1552 72 34020 1188 110680 3320 40960 39380 3420 648 143444 6360 129456 8008 8104 19424 20636 356 608 20428 40 148 60 292 464 30120 106932 86084 11660 3240 23604 1492 3432 316 1084 6700 3248 111304 103808 328 20192 1360 4164 9848 1004
internal_value=-1.08071e-10 0.00106049 -0.00178131 -0.000592867 -0.0113148 0.000794366 -0.00617109 -0.00101002 -0.00675906 -0.0165124 0.00196432 -0.00753704 0.0066242 -0.0133777 -0.0127916 -0.00407943 0.00524703 0.0248295 0.00173774 0.0156246 0.0411908 -0.0453578 0.00673805 0.00472498 0.0146179 0.0335682 0.0265958 -0.0602785 -0.0118734 -0.0224111 -0.012804 0.000164841 0.00138157 -0.00980337 0.00695863 -0.00050975 -0.0128986 0.0367644 -0.0922479 0.0100963 0.061049 0.00396451 0.00465252 0.00249661 -0.00460366 -0.0133681 0.0115451 0.0133902 -0.0200734 0.0392966 0.00874952 0.00965856 -0.0044767 -0.000875782 -0.0288857 -0.0445295 -0.00579917 -0.021304 0.000410779 0.00511747 0.0216025 -0.0228143
internal_weight=41714.1 41296 27334.3 26790 3069.08 23721 2849.06 21147.9 7210.63 4152.04 13937.3 3578.84 13961.7 3921.91 2122.27 1325.21 10358.5 636.708 288.891 2573.05 107.337 605.495 13954.2 11114.8 2839.48 592.155 1156.8 544.274 3813.15 1000.18 3752.91 2973.34 2898.32 964.329 1933.99 1280.79 590.744 95.6931 15.1593 690.045 80.5338 9721.75 9451.23 7580.78 2749.82 1782.44 967.384 1870.46 270.513 171.873 829.423 825.81 863.347 804.669 534.888 329.448 739.897 333.52 518.172 477.183 653.201 61.1138
internal_count=3050312 2683428 2167064 1893128 347200 1545928 215432 1499840 799020 429460 700820 319344 516364 290196 198180 63224 381476 4444 2812 46088 1260 196332 516052 469932 46120 6740 12068 273936 231372 170416 225012 123012 120372 70528 49844 38636 21516 1088 188 17120 900 377032 373408 349340 242408 209048 33360 24068 3624 3492 31056 30740 51104 44404 122964 130492 41156 20520 13628 12268 11208 1360
is_linear=0
shrinkage=0.1


Tree=12
num_leaves=63
num_cat=0
split_feature=0 0 2 1 2 2 1 1 1 1 0 2 1 1 2 0 1 1 1 2 0 0 2 0 2 1 1 1 1 2 2 0 1 2 2 1 1 1 1 1 0 1 1 1 2 1 1 0 2 2 2 1 0 1 1 0 0 0 1 1 2 0
split_gain=402.809 112.232 292.461 64.4477 72.5394 35.4327 66.3886 57.9067 26.4112 86.6271 60.2102 35.8652 21.0605 33.1555 28.9735 26.2362 20.1922 57.0628 19.9498 20.7555 19.7684 16.3161 24.9755 16.785 16.0744 123.884 38.5111 40.2976 33.4162 92.5453 38.5792 22.8865 22.1829 54.9758 29.1373 25.8868 21.3615 18.3423 15.671 15.6615 15.4026 26.3194 14.9756 14.6731 14.4514 14.7719 14.4495 13.7887 13.5668 13.5251 13.2516 13.1459 17.7582 23.6336 20.8903 17.1406 15.8816 13.0324 12.9789 12.9176 12.882 20.9597
threshold=0.0075326174993469008 -0.016437921211779546 -0.047208380983194194 -0.017459182647068399 -0.089994859345020189 -0.37238619392362943 -0.74499341536842822 -0.95309126977067271 -0.4807717121566597 -0.68082570368023165 -0.4469866310544795 -0.33641659882246772 -0.74499341536842822 -0.72106380215398513 -0.40914208146223624 -0.72906430179917814 -0.016359892809369298 -0.016633486979943348 -0.47843616042554349 -0.3069182176798862 -0.67507720852462005 -0.55505175450583166 -0.35630246018258604 -0.49036279323113535 -0.1464784144354013 -0.11496029147994789 -0.055395742008837845 -0.11364471542485373 -0.13036320032404577 -0.18767565328655836 -0.15386793609780028 -0.097949690084494181 -0.24630673941802625 -0.28399827010811624 -0.21519476118363043 -0.47273153709079246 -0.11324633465035448 -0.24630673941802625 -0.017459182647068399 -0.010079509050053998 -0.59165123493945093 -0.72020882371681505 -0.094842593626440277 -0.71870758957367675 -0.36569058307681451 -0.95445311773971186 -0.21467356337135238 -0.090754536677263936 -0.071848619098804731 -0.045149777323089897 -0.28808522387392249 -0.22541969968415432 -0.19973559818887412 -0.23566794254376347 -0.22870086578889673 -0.18272896597153207 -0.18631092021126797 -0.66296264856676501 -0.39101032920510098 -0.054018792523380398 -0.20072230173162242 -0.17952745985470456
decision_type=2 2 2 2 2 2 2 2 2 2 2 2 2 2 2 2 2 2 2 2 2 2 2 2 2 2 2 2 2 2 2 2 2 2 2 2 2 2 2 2 2 2 2 2 2 2 2 2 2 2 2 2 2 2 2 2 2 2 2 2 2 2
left_child=1 3 16 4 5 12 7 21 9 11 18 40 14 20 57 -16 17 -3 -10 -20 -14 -7 23 44 28 -26 27 -27 29 32 31 -30 33 -12 51 -35 -33 -31 -4 -18 41 -8 47 -13 45 -23 -39 -29 59 -40 -9 52 -34 -54 55 56 -55 -1 -37 -6 -36 -62
right_child=-2 2 38 -5 48 6 8 50 10 -11 24 43 13 -15 15 -17 39 -19 19 -21 -22 22 -24 -25 25 26 -28 42 30 37 -32 36 34 35 60 58 -38 46 49 -41 -42 -43 -44 -45 -46 -47 -48 -49 -50 -51 -52 -53 53 54 -56 -57 -58 -59 -60 -61 61 -63
leaf_value=0.01017224036930231 -0.10211118645359313 -0.068209896664886957 -0.075204645318122959 0.021517399571806217 -0.067219101209352691 -0.047870483772229189 0.008489887993663103 -0.046617639182079812 0.049550802922223719 -0.075698952404459757 0.0063038017229646755 0.010157492481654158 0.05778286829360918 0.010961265164774601 -0.048301955625112324 -0.0025572348059314434 -0.063526979849673579 0.0068836409042149138 0.030728351763815678 -0.038253677622693764 0.0083818987934037321 -0.095945704325352835 -0.019785742143339891 0.09701562726890299 -0.073844648842756794 0.010400799691462232 0.0050659208950456945 -0.047788838464955061 0.040050641361304748 -0.075898338107348307 0.0077408004941758868 -0.22484214175040509 0.022036011727615153 -0.0038510351139794579 0.0070314332584798514 -0.027310669762562946 -0.0083025988284749566 -0.020274254818750937 -0.006318218085729476 0.12270124179631613 0.0070427324897658419 -0.024218685497197613 -0.052772169430141208 -0.029192260895315972 0.043583289644434996 0.14344421002041519 -0.05971292210859952 -0.013545983587089389 -0.07213746358545578 0.0078710178186861702 -0.090918509846360351 0.077502368383200348 -0.21485223554981006 -0.0085228609460719692 -0.15824460445443136 0.079649605244242791 -0.21935804768587067 -0.066833051319891465 -0.12919852818103936 -0.020794908995964947 -0.080362975550631779 -0.0036150447980595364
leaf_weight=3884.6008808212355 382.75367934987298 234.25229368630971 25.682112510505249 1744.585757533845 68.73720602368121 51.572855566046201 480.51821807699162 265.77651124514523 354.59267129842192 170.89749890805979 3491.0649041764555 112.48470292967977 281.0689032105729 1492.9083460691618 140.71707867557416 1150.150060018932 878.88542617287021 178.1493572666659 150.89040061389096 61.352615167852491 113.79920462984592 15.926928060944194 110.27568099701602 42.137859974522144 230.68128469980729 621.0135470549576 5344.1485109536734 130.26114872185281 569.8816980937263 84.096199108214932 2816.053720957425 5.7218480107840177 1314.5345291199628 858.38980419322615 2822.0814417613437 775.10392608944676 22.353445974877104 590.91233894778998 997.49211631860817 4.5392122082703272 1984.5682945057051 504.08498753374442 127.26567180786515 601.49166982252791 56.612975924042985 3.0753751610172904 110.22791251592571 1209.1862731728179 75.021802156625199 2057.2370730962139 90.518465294997441 39.300310090184212 5.9144443012773982 63.998341244296171 8.5791585042607021 22.977468312252313 3.7840480809099963 22.102801964967512 12.707350747223243 468.15730102735688 37.178819175809622 829.39719693921506
leaf_count=71480 366884 144444 21404 29472 37628 10340 8348 79232 2020 90740 80376 19016 1436 18212 20908 55984 8000 3196 2128 2592 1068 1800 33484 336 120724 23408 160452 14588 4084 56812 48928 84 14720 60536 70428 148992 276 93032 35468 276 65744 29140 47320 143856 3688 136 35860 156560 33108 327436 77496 336 152 1164 316 208 92 1328 8040 100464 11060 43472
internal_value=-1.707e-10 0.00095275 -0.0141832 0.00276031 0.0018227 0.00243173 0.000791166 -0.0311402 0.00155544 -0.0060988 0.00285421 -0.00286936 0.00873052 0.017777 0.00544481 -0.00754385 -0.0540412 -0.035771 0.0350366 0.0107879 0.0435457 0.00292463 0.0144129 0.0464398 0.00203052 -0.00167349 0.000566659 -0.0109505 0.00399004 0.00132267 0.0126392 0.0357083 0.00384903 -0.000799859 0.00848846 -0.0158644 -0.0524342 -0.0317676 0.00258367 -0.0625701 0.00196959 -0.00825584 -0.0199908 -0.0229928 0.0182556 -0.0572023 -0.0264745 -0.0168761 -0.0323045 0.00323766 -0.0578725 0.0204506 0.0188714 -0.0206521 -0.00908978 0.00500922 -0.020293 0.00973657 -0.0289541 -0.0267385 0.0037567 -0.00690777
internal_weight=41404.4 41021.7 4376.24 36645.4 34900.9 34288.9 27203.6 635.897 26567.7 3854.05 22713.7 3683.15 7085.35 1887.78 5197.57 1290.87 1295.83 412.402 566.836 212.243 394.868 279.602 228.029 117.753 22146.8 7662.56 7431.88 2087.73 14484.3 11070.2 3414.01 597.957 10285 5137.27 5147.75 1646.2 28.0753 785.236 3080.41 883.425 2969.17 984.603 1466.71 713.976 75.6153 19.0023 701.14 1339.45 611.916 3054.73 356.295 1459.09 1419.79 105.253 99.339 90.7599 67.7824 3906.7 787.811 536.895 3688.66 866.576
internal_count=3050312 2683428 540224 2143204 2113732 1942532 1772116 206512 1565604 356844 1208760 266104 170416 20716 149700 76892 155916 147640 6740 4720 2504 49784 39444 5960 1202020 523052 402328 241876 678968 625596 53372 4444 439892 297944 141948 217568 360 185704 384308 8276 103232 37488 218468 162872 5624 1936 128892 171148 171200 362904 156728 16988 16652 1932 1780 1464 1256 72808 157032 138092 124960 54532
is_linear=0
shrinkage=0.1


Tree=13
num_leaves=63
num_cat=0
split_feature=0 0 1 1 1 2 1 1 1 2 1 0 2 1 2 1 1 2 2 1 0 0 1 1 2 0 1 0 1 1 2 1 2 1 2 2 1 1 0 2 1 2 0 2 0 1 2 1 2 0 0 0 1 2 1 0 1 0 0 0 1 1
split_gain=350.932 44.2659 162.282 25.4061 22.6348 74.352 27.0607 23.5384 22.7925 96.804 26.3674 22.0228 22.5668 21.9079 19.9222 19.1763 18.7119 55.2773 23.3261 33.2738 42.6309 33.9281 28.0009 38.3506 18.679 20.4194 18.2535 17.1538 16.3403 17.7616 15.5382 15.2626 14.9902 14.8532 23.7998 26.0042 14.8391 47.3697 31.9615 24.8964 17.8327 27.1917 17.3734 17.3821 23.1197 13.6487 19.2856 13.4567 20.5498 13.0695 12.4772 12.1768 12.0508 31.9615 12.0229 11.7731 11.6197 15.4028 13.9654 22.7477 11.6071 11.5964
threshold=0.0075326174993469008 -0.08889978909691254 -0.11496029147994789 -0.96327402995621092 -0.13036320032404577 -0.19431814948137657 -0.24630673941802625 -0.23410810555736608 -0.24630673941802625 -0.27146435734549007 -0.4807717121566597 -0.0036790539370661498 -0.023602117047064195 -0.11006174916391824 -0.1464784144354013 -0.46851847567513721 -0.055395742008837845 -0.11527880188753729 -0.10559191542727274 -0.016633486979943348 -0.016911544512757747 -0.048363350931855294 -0.017459182647068399 -0.050830214976625793 -0.37467857802477345 -0.58220801982383497 -0.23599758698921042 -0.11084575254409974 -0.053813715191389042 -0.051712330493647797 -0.35880853150930309 -0.043910091993200097 -0.071848619098804731 -0.11464064626279268 -0.14863180971724876 -0.13635973436963733 -0.74499341536842822 -0.95309126977067271 -0.68907001975204396 -0.37238619392362943 -0.72062205903738363 -0.37709725295564911 -0.87638225058285635 -0.3985026550475933 -0.64057316246825502 -0.96166079257841108 -0.43251931676146876 -0.054018792523380398 -0.093000166703081241 -0.087267521020372593 -0.30785733968320156 -0.045157831498790039 -0.10762468972326659 -0.15072208309291157 -0.40218990615649658 -0.0084095431999547474 -0.049300380913667445 -0.03741150391300984 -0.045157831498790039 -0.043497320482800944 -0.96275196613035841 -0.21467356337135238
decision_type=2 2 2 2 2 2 2 2 2 2 2 2 2 2 2 2 2 2 2 2 2 2 2 2 2 2 2 2 2 2 2 2 2 2 2 2 2 2 2 2 2 2 2 2 2 2 2 2 2 2 2 2 2 2 2 2 2 2 2 2 2 2
left_child=1 3 -3 24 5 8 -7 -8 9 36 -11 16 -13 27 52 -12 17 33 31 20 21 28 23 47 25 -1 -10 -6 -20 -30 -26 56 -25 34 -4 49 37 42 40 -39 -38 -42 45 -44 -45 46 -5 48 -23 -36 54 -49 -15 -54 -17 -22 57 -18 -58 -60 -48 -9
right_child=-2 2 11 4 13 6 7 61 26 10 15 12 -14 14 -16 50 18 -19 19 -21 55 22 -24 32 30 -27 -28 -29 29 -31 -32 -33 -34 -35 35 -37 38 39 -40 -41 41 -43 43 44 -46 -47 60 51 -50 -51 -52 -53 53 -55 -56 -57 58 -59 59 -61 -62 -63
leaf_value=0.01628107932734529 -0.099610374686178602 -0.071202283253513785 0.12789307876077408 0.0096047465127791463 0.037115592168249244 -0.075585169790270884 0.0060907335830980161 -0.022051632277998084 0.021921951470652377 -0.056739611799252826 -0.0078775640695258452 -0.077175616775511532 -0.010630229000248539 -0.027441016990271523 -0.074524062864654531 -0.095328360811017934 0.0067132291524619808 -0.047473615850216755 -0.16393438549396394 0.0045849068271739176 -0.019943102567502702 0.047918570153677231 0.024347844060129013 -0.015621756670642431 0.1055821586477441 -0.2111782397848784 0.0059947169557728131 0.010007103659038057 -0.022676618692364137 -0.13664669409099381 -0.088229480104468086 -0.16270871973832846 -0.068172163404342942 -0.0056514205905027551 -0.19413570732508256 0.065432194032047419 0.049580641656961806 -0.010947067753424146 0.0044341139359576785 -0.046417251794937386 -0.064964002545959895 0.05287868680443511 0.011176873917384667 -0.039406228192204296 0.003310457122900809 -0.039605698345474033 -0.080586296185519712 -0.01454821579274187 -0.14816535981342946 -0.018704473975647336 -0.029207087198438005 0.0087620396960567306 -0.20851724133364852 0.07371987143745512 0.07416690264963989 -0.084306156043127606 0.09885859047971092 -0.22119948223646135 -0.17288082784998671 0.033001374056940397 -0.015441933497611261 -0.054838402217513675
leaf_weight=1087.6551059723133 350.64873876817001 346.48183163492649 20.560902948956937 318.4315362740308 253.96621276950464 89.901887247513514 287.07201342043118 683.82244043174433 889.20576960814651 228.4893202445528 599.13402019962086 76.036832337398664 154.52423718495993 63.076074896147475 55.011367219325621 49.643014975707047 3174.1480980369961 331.46173924976029 12.36747666983865 3609.1049020290084 1631.0996624490945 115.17478672415018 435.32878606580198 901.37840277512441 36.831588015658781 3.9610862564295521 3771.4855819218792 2886.2047133836313 81.009889688459225 16.451070964336395 4.6599279405490952 5.2704566138563669 57.760382625754573 1775.1836024211661 4.5756747967097899 49.305011088727042 245.93832168355584 707.87243280775147 9768.9227874820353 274.66469437466003 38.612539200577885 39.726628919597715 2302.7486323753837 166.03528871701565 534.85687988973223 136.34187357872725 40.793608645210043 281.46348255703924 5.604802743298932 59.053871396696195 323.98387156394892 1099.57020966243 4.5135119953192762 36.135186270868871 4.570272385608404 28.923620924688294 29.222568395547569 2.9680340331979087 5.7877176147885612 73.758835486951284 82.998613760340959 128.08178752726235
leaf_count=10848 366884 209760 128 3180 1780 65636 17336 97840 7980 148216 64592 62284 100816 2884 9116 13476 38052 144524 580 259208 59652 2528 9520 138820 520 96 107136 53816 4088 1680 1172 104 28012 138492 288 1536 1276 43608 373044 93256 668 632 58048 16968 51200 3744 792 13596 1548 1768 89008 60504 308 1008 664 19340 244 72 180 680 1240 44336
internal_value=-1.2656e-10 0.00086181 -0.00359389 0.00331306 0.00264958 0.00147702 -0.0228366 -0.0185215 0.00288539 0.00107912 -0.0261566 -0.00192509 -0.0325763 0.0103673 -0.0258782 -0.0190066 -0.00141323 -0.00977846 0.000206918 -0.00262517 -0.00820193 -0.00109898 0.0009698 -0.00316565 0.0179589 0.0154557 0.00903345 0.0121995 -0.0556547 -0.0419144 0.0838151 0.00732787 -0.0187864 -0.00323231 0.0289363 0.0109201 0.00331964 -0.00141158 0.00545937 -0.0208626 0.0363456 -0.00520472 0.0039235 0.00697997 -0.00680876 -0.0119442 -0.00341594 0.00681061 0.0388193 -0.0313199 -0.0366371 0.00401126 -7.84328e-05 0.0423811 -0.0810396 -0.0210645 0.0076006 0.00650032 0.0397398 0.0180216 -0.0369091 -0.0272239
