tree
version=v4
num_class=1
num_tree_per_iteration=1
label_index=0
max_feature_idx=11
objective=lambdarank
feature_names=mfcc_norm_mean_dist mfcc_norm_min_dist mfcc_norm_centroid_dist mel_band_mid_norm_mean_dist mel_band_mid_norm_min_dist mel_band_mid_norm_centroid_dist mel_band_low_norm_mean_dist mel_band_low_norm_min_dist mel_band_low_norm_centroid_dist mel_band_high_norm_mean_dist mel_band_high_norm_min_dist mel_band_high_norm_centroid_dist
feature_infos=[-0.999903462988043:1] [-0.99996465887549157:1] [-0.99999990157385565:1] [-0.41239619522111892:1] [-0.47722808472567629:1] [-0.19884795789535559:1] [-0.49426878710928318:1] [-0.50721817693871096:1] [-0.22753659441171439:1] [-0.58193245165184604:1] [-0.6205261611915921:1] [-0.19390983941355919:1]
tree_sizes=14156 14060 14059 14101 14109 14095 14064 14115 14097 14122 14115 14138 14161 14138 14106 14105 14113 14138 14126 14151 14146 14126 14118 14108 14171 14112 14094 14113 14109 14118 14108 14106 14148 14124 14126 14138 14141 14127 14129 14135 14114 14163 14122 14203 14132 14124 14133 14172 14177 14158 14162 14170 14174 14189 14149 14140 14197 14184 14141 14206 14179 14158 14191 14134 14170 14191 14185 14195 14184 14210 14181 14234 14179 14183 14203 14174 14201 14155 14214 14192 14178 14212 14210 14192 14238 14218 14229 14259 14191 14163 14222 14187 14214 14213 14241 14208 14129 14191 14224 14212

Tree=0
num_leaves=127
num_cat=0
split_feature=6 11 11 7 3 9 3 3 11 3 7 7 10 5 4 10 7 7 9 4 4 10 10 6 7 8 6 9 6 3 5 3 4 9 6 3 2 8 11 6 6 2 2 10 6 11 6 8 11 4 8 9 6 3 11 1 5 7 3 9 10 9 8 5 10 6 6 11 3 4 8 6 6 8 5 1 5 11 0 7 7 6 9 6 6 3 10 2 3 6 4 10 1 4 11 9 4 7 0 10 8 4 5 0 5 3 8 9 11 8 1 8 0 8 10 9 0 5 11 8 0 6 2 3 5 0
split_gain=63880.9 4791.42 3027.64 1760.56 656.575 498.257 416.203 394.229 419.999 273.082 221.471 181.626 178.402 96.859 93.2861 90.0911 90.9035 86.4815 174.298 103.827 79.6749 73.3366 72.8881 69.8496 108.028 55.5574 53.1754 73.39 50.2018 50.8994 47.0978 42.4635 40.3675 39.0977 35.7823 32.7493 32.1193 40.6711 29.3931 28.4885 28.1889 25.9592 33.9068 24.9252 24.8069 24.1706 23.8528 26.0639 23.7129 22.1767 21.8425 21.3894 39.6015 63.3232 25.1776 21.1616 21.0616 20.9446 27.1175 31.2232 20.426 20.4255 20.4182 20.2816 34.791 33.6331 27.3446 20.1921 20.0007 24.4536 24.317 19.6101 19.5863 26.1563 19.1967 19.0881 21.9903 26.6035 18.5838 18.0296 17.7331 17.6946 17.58 18.3041 17.5239 17.5056 17.3843 17.3416 17.32 17.265 17.1289 16.8273 16.5609 16.5372 16.0622 15.9951 15.9843 21.9868 15.582 15.4628 15.0127 19.3506 14.9706 17.2103 14.802 14.7918 14.7809 19.5698 14.6696 14.7207 17.9521 14.3856 14.3087 14.0722 14.0633 13.7683 13.7348 13.5338 13.3715 13.3441 13.3321 14.9981 17.5404 13.2574 13.1268 13.0529
threshold=0.0017051035727872002 -0.0018612920949458496 -0.039480651132545841 0.0144421964462035 0.11769017193283492 1.0000000180025095e-35 0.0034150202032510505 0.0077407982934309012 -0.012699880577415947 0.0054453154872300012 -0.28424761440943552 0.013233925769729251 0.023904008078131502 -0.060079882291592744 0.032043446353741456 0.010970237148121151 0.010524997688218452 0.00093045892046080014 0.077948893725566556 -0.013354435227465248 -0.21405234211219368 -0.37328698912332725 0.012784269819060451 0.079539346779270464 -0.15226911050137446 -0.052605783686053446 -0.0037341950360373498 0.029132071082589705 -0.16157349970545437 0.07126240316224676 -0.0032168721398549496 0.027740546469849654 -0.38555732073675802 1.0000000180025095e-35 0.0093324142846851008 0.00042214349281005002 -0.34990994733638608 -0.060169399918410839 0.014725521605596151 -0.0037341950360373498 -0.0023611826409917496 -0.80124671205615949 -0.86564938341917796 -0.080298948518300786 -0.0037341950360373498 -0.039480651132545841 0.0072822815344884507 0.0056220971936392005 -0.0094313505044060983 -0.089999833392422984 0.0098206601838221521 0.0082451675989639022 -0.012737332371508299 0.17413604612246347 0.084073563556139361 -0.035503738986688148 -0.0058304278926451488 0.049616208791289952 0.0037406593637641507 -0.045850665031876792 0.061046975440215208 0.012765780932496302 -0.031552265631799047 -0.043185567702448448 -0.10757137916985975 0.053586361523184654 0.89748291365749555 -0.050695342929078291 -0.040430659698413092 -0.025810143996394946 -0.099012013028915838 -0.0011443178822749497 -0.016817548119071747 -0.036653742084290591 -0.029789565562878897 -0.81545043260564565 -0.10974279303783244 -0.07425207018393358 -0.058337611893538893 -0.012780042620197298 -0.0056784096273943497 -0.012737332371508299 -0.0036000604661147496 0.14742130922132113 0.00042346322955030005 0.57666328308262704 -0.20646283863969964 -0.97933402214714282 0.04228511720413141 -0.0011443178822749497 -0.21405234211219368 -0.33952911579927914 -0.18344425467912809 -0.35893300228320052 0.044071204072189306 0.12705976237045399 -0.22956010659440954 -0.38097867799402457 -0.77543205912078872 -0.18742118614482259 -0.1251025942406935 0.20183176111990811 -0.0032168721398549496 -0.023583972803832946 -0.0058304278926451488 0.036394362652385055 0.0035784316140633006 0.019822700049560455 -0.019684345204548297 -0.15367539589717169 -0.39064885853141179 -0.16892844476605676 -0.77059482515112132 -0.083698850645176986 0.003935418130385001 -0.21408616132901345 -0.7888661387879331 -0.036952947491603494 0.0054906612905179014 -0.0098954303160121975 1.0000000180025095e-35 0.012707903033904202 -0.13006264070809301 0.0016147914055424002 -1.0000000180025095e-35 -0.048734093237374744
decision_type=2 2 2 2 2 2 2 2 2 2 2 2 2 2 2 2 2 2 2 2 2 2 2 2 2 2 2 2 2 2 2 2 2 2 2 2 2 2 2 2 2 2 2 2 2 2 2 2 2 2 2 2 2 2 2 2 2 2 2 2 2 2 2 2 2 2 2 2 2 2 2 2 2 2 2 2 2 2 2 2 2 2 2 2 2 2 2 2 2 2 2 2 2 2 2 2 2 2 2 2 2 2 2 2 2 2 2 2 2 2 2 2 2 2 2 2 2 2 2 2 2 2 2 2 2 2
left_child=1 5 3 4 23 14 22 8 11 44 20 34 51 -11 35 16 38 18 19 36 67 32 71 30 86 41 27 81 -29 -30 74 75 -20 80 -4 -1 37 -9 43 -37 49 42 -12 96 -7 85 55 -48 102 60 82 84 53 112 87 -45 -39 58 59 -5 -24 78 -58 64 65 118 -66 -6 -51 70 -70 -3 -71 -74 -2 116 77 93 -54 -14 88 -15 104 123 -8 100 -25 -55 -21 108 -67 -43 -38 -77 95 -92 97 -10 -76 -44 -31 -102 103 -41 -36 -68 107 117 109 -16 -111 -62 -53 -34 -83 -27 -26 -18 -23 -46 121 122 -19 -84 -49 -81
right_child=2 6 7 57 10 9 12 17 15 13 25 -13 79 26 89 -17 106 120 21 33 -22 63 40 24 31 115 -28 28 29 45 -32 -33 113 -35 50 39 92 56 -40 48 -42 91 99 46 119 -47 47 124 -50 68 -52 52 61 54 -56 -57 62 -59 -60 -61 111 -63 -64 -65 66 90 105 -69 69 72 -72 -73 73 -75 98 76 -78 -79 -80 125 -82 114 83 -85 -86 -87 -88 -89 -90 -91 94 -93 -94 -95 -96 -97 -98 -99 -100 -101 101 -103 -104 -105 -106 -107 -108 -109 -110 110 -112 -113 -114 -115 -116 -117 -118 -119 -120 -121 -122 -123 -124 -125 -126 -127
leaf_value=0.098774849756684185 0.078125986282182577 0.047389314791381164 0.057667159508518098 0.050666142287700514 0.071984562759101214 0.084353528053596208 0.026596007329097494 0.077178071248403271 0.083042971049633568 0.069798516163754182 -0.099999999999999936 -0.075945647126352003 -0.094419965517029844 0.060549812743925652 0.077955779457970623 -0.09530480485951856 0.09364466548528394 -0.066425928266048789 0.080742414726924214 0.047038029652125835 -0.055608794773634333 0.049482748141012806 0.024227089992743187 0.067620536281834925 -0.099999999999999728 -0.014676584491572948 -0.040993135630808503 0.047357373727397158 0.034014969304366316 0.036742466033322305 -0.074706120398324319 -0.066700957410178091 0.012501623758797716 -0.078243884992477086 -0.099999999999999992 0.092869211228691143 0.04829406412925176 -0.068827555563414813 -0.088949416817883431 0.082772987535903786 -0.068205645844884255 -0.019626383260638324 0.053750949566225496 -0.0058551070309681083 0.053928461786921733 -0.064747298626889924 -0.073213797432160124 -0.02787429829010777 -0.090002009329731417 0.084380934748508038 0.060015236785095842 -0.10000000000000001 0.03279208404319927 0.031427528774775261 0.00020360435247899607 -0.10000000000000001 0.052893946289513639 -0.098849225953536901 -0.085829118860820022 -0.10000000000000001 0.010029860606234514 -0.083456677946486091 -0.093593957803590561 -0.096329004575016544 -0.10000000000000001 -0.091830712941367076 0.070486808913897886 -0.10000000000000001 0.084699899972118742 0.066968179924198373 -0.074964911556226643 -0.016253666723327502 -0.10000000000000007 0.018897113643438851 -0.090327057605729802 -0.055025899544653173 -0.066891945605223296 -0.099999999999999922 -0.06079675936930734 -0.046883203307725205 -0.080667561900190893 0.029721684371518248 0.023743698349398018 -0.10000000000000001 -0.10000000000000001 -0.10000000000000001 -0.10000000000000001 -0.0908915890240449 -0.070949567820073139 -0.10000000000000001 0.026333874880309357 -0.089291411371079446 -0.10000000000000001 0.062202751086614966 0.035909044404468717 -0.10000000000000001 0.060228184069000539 -0.09999999999999995 0.049023894587185278 -0.061746316932014281 -0.093599591757778114 0.099750599901853435 0.033544480084370443 -0.10000000000000001 0.025510237665448871 -0.080974617602867283 -0.092822136159631835 -0.099999999999999978 0.07127439925214292 0.028489794005100596 -0.073923113345332067 -0.084552589799378589 0.016575192370103697 -0.086731833006662262 -0.10000000000000001 -0.081901157866105148 0.071931888219852691 -0.10000000000000007 -0.10000000000000001 -0.10000000000000001 -0.10000000000000001 -0.096548039932344579 -0.094686058585408503 -0.056253052956166651 0.093698578619196823 -0.092555072588304713
leaf_weight=7464.4094158333974 344.35700991303383 121.80594738746004 66.54944657143642 8.9049379887583182 57.668792867301818 656.77160504586936 24.927688867290275 8.0434484426805266 2.5714208373101437 123.25286810989201 5.4752772471692905 54.926576984744315 224.85260485340768 103.90772539857426 5.1779398551734621 393.85598191766621 3.5090933390893042 91.533551264321432 8.5884383482043649 12.770902718970325 17.089717098599067 10.396820350026244 9.6604459354421106 116.30614267392957 1.2581387123354968 8.0860254467697796 34.390297851510695 39.249179526581429 31.653396499154042 16.78588687026059 5.3775865641437113 23.674781256471761 5.3666141970315975 147.12622357262444 7.695570997937466 1752.7792415684526 30.031447049579583 28.839181721967179 21.536046361550689 78.624158427817747 18.781100136373425 19.164439640320779 20.911127874307574 62.985590888562001 55.848957060283283 44.777996023327432 48.121737210640276 5.9600199192354921 2.3798465470026704 8.6595635106204991 16.542147788481088 2.7331967742939005 8.5227578285994259 3.1608202756615347 12.877113437862134 6.5937630201588027 8.2941101098258496 365.34645524984808 46.432544751813111 5.6017561412882051 5.2321159539424107 46.350717586326937 3.3353846561221863 1096.0816937150994 105.63428333033517 26.205195808179266 3.7352188251097678 1.7586910356476426 2.8667970438255024 15.953716256393816 14.180400201679729 13.439139995432923 5.4994479235028804 29.113050164974997 2.1165861613699226 3.6455111943942056 10.577423549781086 3.9366589786368449 14.046045803508603 40.184978168064845 6.1839322673331472 45.519590721072746 46.563355750862684 3.7154618965105319 3.0702671586768693 4.1925111711170748 1.5676793883321796 34.796847105699271 4.1118444467720101 2.8322254110826171 3.5564226700807984 15.826378419063984 2.0085946690523988 17.213778474077117 6.2933712185913455 8.4783526403043634 12.470716754789462 4.5320382006757445 38.414020462358167 3.364127562846984 5.6255047207087037 1.6806239509023724 22.419005986990669 1.3094187535461959 3.3812296006362867 2.8357691252749646 134.09808535231059 4.7332520933268825 12.697572309407404 9.391504433180673 7.8604670958593514 17.356167599409677 71.270319564282545 10.687074660003416 2.1898149460175764 131.21860246049982 15.135111139345097 1.214607473986687 1.7474685176566698 1.4443820570595551 3535.0531783551087 3931.6440309807913 137.22155424106677 5.8272238745266796 3.5386729440651816 25.616550154096331
leaf_count=48088 11068 8756 4456 524 2536 15988 2708 228 76 5376 1404 13580 55408 5964 260 103540 48 21680 348 1108 3568 740 976 5812 236 1460 6396 3076 2524 1428 1444 5288 468 33040 2052 24360 1936 6112 5332 2260 4372 3448 1268 9784 3436 8724 11148 1004 836 180 1004 852 984 240 1468 1904 556 95332 10988 1408 656 10960 936 276488 27416 6328 144 360 68 556 3124 2104 1284 3552 456 860 2160 996 3056 8276 1572 4084 4576 1080 772 1128 416 8588 1056 684 424 3952 452 1092 476 2136 632 1196 2520 612 1444 12 2112 312 356 760 35216 1172 636 980 1660 4072 8312 2780 528 31368 520 236 424 516 930984 1023584 36360 1136 20 6996
internal_value=1.69698e-10 0.0843036 -0.0833083 -0.0111711 0.029848 0.0931365 -0.0356847 -0.0924825 -0.0611006 0.062334 -0.033009 0.00186161 -0.0619135 0.0319784 0.0969779 -0.079408 -0.0593319 -0.0955776 -0.0847633 -0.0466199 0.0395343 -0.0921797 0.0155057 0.0600673 0.0354892 -0.0602128 0.0178516 0.0246981 -0.000869828 -0.0189461 0.0722419 -0.0112314 -0.00675132 -0.0687548 0.0303008 0.0972965 0.000147296 -0.0255115 -0.0344014 0.0913556 -0.0116484 -0.0219419 0.0123945 -0.0263976 0.081601 -0.0418909 -0.0344804 -0.0582734 0.066024 -0.00186046 0.00854847 -0.0281372 -0.0340401 -0.0172446 -0.0602104 -0.0147769 -0.0459218 -0.0943228 -0.067186 -0.00751355 -0.0366212 -0.0644629 0.0108806 -0.0938438 -0.0777147 -0.0457838 -0.0938438 0.0668949 0.0128366 0.00367359 -0.0481144 0.0410652 0.0211327 6.00434e-06 0.0742951 0.0141369 -0.00653213 0.0192161 -0.0254544 -0.0876833 -0.00823084 0.0489755 -0.00412397 0.00724059 0.0127134 -0.00570623 0.0653912 -0.0807058 0.0183018 0.0187549 -0.0658975 -0.0511359 0.0389975 0.0417151 -0.0288186 -0.0626668 0.0261274 -0.0337393 0.0417467 0.037745 0.0107028 -0.0491234 0.0696519 0.0797789 -0.0616876 0.00512226 -0.0885615 -0.0281463 0.0283298 0.00401884 -0.0181723 -0.0626445 0.0122697 -0.0535589 0.0237676 -0.0779991 0.0587366 0.0438527 0.0279733 0.0500479 -0.0977423 -0.0958239 -0.0833781 0.0148459 0.0174168 -0.0646633
internal_weight=22739.3 11302.1 11437.2 1290.43 864.144 10527.2 774.958 10146.7 910.922 1167.29 280.563 205.201 512.41 453.225 9359.88 705.721 311.865 9235.8 1540.35 250.745 76.5172 1289.61 262.548 583.58 193.315 204.046 329.973 295.582 143.965 104.716 390.265 75.4414 24.6421 170.193 150.274 9321.92 80.5522 48.5121 168.31 1857.51 127.303 64.7414 29.7505 146.774 714.065 73.0625 127.2 57.6204 104.732 108.522 83.725 221.756 193.758 124.838 50.8348 69.5794 40.4687 426.286 60.9392 14.5067 32.2487 68.9195 11.6295 1264.96 168.883 56.6776 112.205 59.4275 76.273 67.6134 17.0472 135.245 50.5662 34.6125 384.888 51.7666 35.3734 24.7959 22.5688 290.654 23.0667 151.617 67.1828 56.106 27.998 28.2845 117.874 37.9577 16.8827 37.9597 44.5333 34.9908 32.04 20.8593 18.3281 12.0348 19.5742 7.10346 40.5306 24.2753 24.092 7.30613 102.353 79.9336 11.0768 6.57099 143.555 9.45695 35.1275 22.4299 17.252 22.5883 74.0035 16.0537 47.7094 139.305 16.3932 4.7237 12.1443 57.2933 7695.45 4160.4 228.755 52.3906 9.49869 65.8015
internal_count=3050312 281132 2769180 191096 82844 142812 138320 2578084 199548 60624 49976 28240 108620 40684 82188 171308 67768 2378536 365928 46996 6464 318932 29700 32868 17380 43512 35308 28912 18336 15260 15488 11152 3596 36776 14660 77968 10220 7832 31096 29880 18840 10684 3284 25764 19940 12736 23860 12172 5520 14468 10204 37940 34460 19460 10296 11688 7604 108252 12920 1932 5704 15000 1492 315336 38848 10528 28320 2896 8764 8584 3192 10860 5392 4836 14044 5864 5108 2948 4040 70680 3736 10576 9200 6792 3480 4012 6228 8828 2164 4220 9364 7400 2388 1952 3036 2560 1904 1272 2976 1880 2884 1456 4684 2572 2408 904 36672 1456 3536 2900 2640 4728 9164 3248 4612 32828 756 284 1164 3952 2012608 1081624 58040 5712 1024 15272
is_linear=0
shrinkage=0.05


Tree=1
num_leaves=127
num_cat=0
split_feature=6 9 11 7 3 11 3 5 3 9 6 8 3 9 6 6 6 1 11 10 11 4 8 2 8 8 4 10 10 4 3 5 6 4 11 8 8 4 3 9 11 10 7 9 6 4 8 10 1 3 6 8 3 4 3 8 0 2 8 3 8 8 3 4 7 1 8 8 11 7 1 11 8 11 6 0 6 3 11 7 7 4 11 7 8 8 11 7 8 1 6 1 11 10 7 6 3 7 3 9 11 11 4 6 10 4 11 0 1 11 4 7 10 10 5 11 7 11 7 4 8 6 10 2 4 5
split_gain=138000 12100.7 4145.93 3159.13 2197.46 1523.73 803.185 506.342 468.925 446.21 409.703 397.82 370.369 208.72 223.212 201.361 196.284 270.826 247.259 186.556 179.682 211.296 164.214 148.2 142.732 124.81 122.965 120.868 111.109 140.132 110.996 110.623 104.935 260.131 289.908 125.074 124.786 99.3659 98.4707 248.066 167.173 98.5893 98.1781 97.6673 93.6941 225.845 90.9137 88.4355 82.3641 81.8779 80.9423 78.9854 76.3505 75.3415 75.1779 75.1188 74.299 69.8215 68.3357 89.9458 68.2768 76.875 71.1776 71.127 84.0549 67.2537 66.9319 73.0091 94.825 66.673 69.0223 133.439 65.3618 63.1873 62.4373 62.0717 189.817 60.2717 132.2 66.9286 59.8839 59.1864 372.574 148.428 116.505 58.5389 74.0569 58.4408 58.4331 61.8041 57.9041 64.2128 56.9677 55.7083 55.2133 54.1005 54.0396 53.8142 53.4499 53.4369 53.3853 53.1683 66.796 53.9945 52.9618 51.4515 73.8283 61.1463 51.3476 51.2648 50.8345 95.7646 53.5873 50.4887 50.2338 50.1373 49.5088 49.4104 68.3223 48.9932 48.7718 48.4796 48.1017 47.9525 47.8823 62.9886
threshold=-0.0011443178822749497 0.0020203083405628004 -0.014510689820264148 0.0080919066439673528 0.0083464211917288009 0.00081482734736160005 0.066935453052290164 -0.028339333961428397 0.0030298993801578006 -0.0068123213888002989 0.0062966896404726509 -0.072304593469979181 0.010469194674006602 -0.0068123213888002989 0.010189167648754502 -0.0037341950360373498 -0.16157349970545437 -0.17933254846700267 -0.10350079252243893 0.0087364781750545011 -0.019684345204548297 -0.056886137126505039 -0.093542844287005586 -0.78145827893957087 -0.16892844476605676 -0.11692829522648018 -0.040008377609023697 0.03279430213874996 -0.3220307814935422 -0.22956010659440954 -0.072929626336154491 -0.092008122788676039 -0.16157349970545437 -0.24035566722904447 -0.11255253560225294 -0.11004846910233389 -0.14331710907691808 -0.15633864920931267 0.04228511720413141 -0.045850665031876792 -0.034056910360452199 -0.070610681527339944 -0.018041733151154597 0.081896901232122565 -0.16157349970545437 -0.10749505154895564 -0.1251025942406935 -0.54961706846743297 -0.18801944346196689 0.080474384701311727 0.18964411674492362 -0.15367539589717169 0.0077407982934309012 0.089653196579765865 0.0071197490967685505 -0.1251025942406935 -0.041677155463381042 -0.79166511019106456 -0.072304593469979181 0.029215998351413003 -0.11004846910233389 -0.010731891695639898 -0.013063238250485899 -0.35893300228320052 -0.050290427068091843 -0.36369037496676387 -0.026789173309739546 -0.044212328664895391 -0.022173725017560746 -0.11124349989688208 -0.42057647723941954 -0.062744278866653277 -0.021707218748961993 -0.095961094187020188 -0.050790057717385893 -0.3057831849407609 -0.099414693945381341 -0.0070099833349474986 0.014725521605596151 0.0144421964462035 -0.10563511230157818 -0.12644746359579581 -0.083825197991552233 -0.17322913365450768 -0.1251025942406935 -0.16892844476605676 -0.1229132716764131 0.036093121666376057 -0.050407305540827244 -0.059449075046669943 -0.0053528004884638497 -0.18776376587019075 -0.10350079252243893 0.046334862750759258 -0.18338193111625953 -0.041353102561949941 0.26424983661896023 -0.36186433957191361 -0.030289559117112296 -0.0036000604661147496 -0.11255253560225294 -0.053306540503378193 0.028072769887355156 -0.0053528004884638497 -0.0016140911644208996 -0.35893300228320052 -0.056351122880539388 -0.39149790435618587 -0.82007817403570293 -0.15325864092306202 -0.35893300228320052 -0.42401997498009997 -0.54961706846743297 -0.33952911579927914 -0.013628572974056048 -0.15325864092306202 -0.23751047763683034 -0.095961094187020188 -0.38097867799402457 -0.03277455472126594 -0.0050837869162626489 -0.0090471852727743492 -0.11936271619282564 -0.85803813283298769 -0.34083536514497531 -0.14492367582676083
decision_type=2 2 2 2 2 2 2 2 2 2 2 2 2 2 2 2 2 2 2 2 2 2 2 2 2 2 2 2 2 2 2 2 2 2 2 2 2 2 2 2 2 2 2 2 2 2 2 2 2 2 2 2 2 2 2 2 2 2 2 2 2 2 2 2 2 2 2 2 2 2 2 2 2 2 2 2 2 2 2 2 2 2 2 2 2 2 2 2 2 2 2 2 2 2 2 2 2 2 2 2 2 2 2 2 2 2 2 2 2 2 2 2 2 2 2 2 2 2 2 2 2 2 2 2 2 2
left_child=1 4 3 6 9 8 13 16 20 32 19 31 93 14 -2 66 73 69 28 49 44 30 -16 25 37 123 94 -14 29 85 -22 -8 117 34 35 51 -36 113 40 53 -9 74 60 58 122 46 -46 -12 -42 104 55 -34 120 75 87 -33 114 -45 65 -60 -15 62 97 -63 -65 -26 67 -11 -69 -18 71 -71 -68 -6 -41 -40 100 78 79 -49 -73 82 83 -35 -84 -19 -87 -5 -50 -90 -83 -92 -85 108 -13 -48 -78 -62 110 -74 -77 -43 119 -104 -4 115 -107 -108 -7 -100 111 -53 -113 -10 -17 -24 -86 -1 -119 -103 -44 -114 -3 -20 -38 -126
right_child=2 5 10 54 7 12 11 38 24 15 47 26 27 42 22 56 17 18 23 -21 21 -23 105 -25 43 -27 -28 -29 -30 -31 -32 50 33 81 36 -37 124 -39 39 41 48 101 52 57 45 -47 95 77 88 -51 -52 98 -54 -55 -56 -57 -58 -59 59 -61 61 63 -64 64 -66 -67 72 68 -70 70 -72 80 99 -75 -76 76 96 -79 -80 -81 -82 90 84 92 116 86 -88 -89 89 -91 91 -93 -94 -95 -96 -97 -98 -99 109 -101 -102 102 103 -105 -106 106 107 -109 -110 -111 -112 112 121 -115 -116 -117 -118 118 -120 -121 -122 -123 -124 -125 125 -127
leaf_value=0.08961010540427157 0.040564736525670844 0.062866613174579852 -0.012467409228835505 -0.037197377199382521 0.078568988119653363 0.0545293418457138 0.04919824595341242 0.057235528515782397 0.061195358447052622 0.062313320732499122 0.073140717849668593 -0.024915957951807864 -0.050616756494869242 0.060103761064243193 0.057445401839783999 0.043572699359365953 0.083372152211886041 0.087171086396278172 -0.029460195862847545 -0.079171583200332907 0.0033666427826706882 0.022379208707991635 0.013371308482742889 -0.07658912221812457 0.027420401914931669 -0.060461180821286521 -0.081987491974623405 -0.087502538387082884 0.069080575081368334 -0.070693445479699968 -0.085111663364491941 0.045900241378459966 0.087351217483164267 0.0839469934375459 0.050355429161143585 -0.10010050197095793 -0.10018806182650059 -0.057279760922146351 0.057102778972596448 -0.020743999070765236 -0.05182478739079225 0.072811868520567882 -0.0084654645487495569 -0.013910533309722369 0.021094753472483414 0.05384895430450453 -0.010031626721555383 -0.017151658351799503 0.071378101232696223 -0.084991262382087596 0.066140068455642395 0.073035982382491121 -0.069953807620886252 -0.095959299390912287 -0.089421921462455256 -0.032719303501197262 -0.097855239672932512 -0.062925713440567452 -0.0031423348188968046 -0.050838297034061043 0.034633055440485144 -0.064916586056611894 -0.0012829456802000176 0.05693582076802281 -0.04847874295260865 -0.015066747422594255 0.083925699741693449 0.036648520660744158 -0.099867950140917067 0.057244844123289007 0.075513145441145513 0.031125449015205742 0.075207778500075428 0.031029529330491676 -0.080431607132155358 0.055635015498263232 -0.092086820957740859 -0.089818136334591236 -0.091590075648900093 -0.080068669268705872 -0.07587057225055964 0.085730684468799639 0.044098812149823904 0.0261073280026645 0.068227727595473936 0.040682935779980972 -0.037175589948777003 -0.082584620183403692 -0.024706334780923662 0.034969860299755927 0.042027125179081685 0.079038630179322888 -0.10008858994879739 -0.04214413355002767 -0.058050521442596127 -0.076427386970418176 -0.01240167954119472 -0.053003227762903532 0.063448733340700253 0.046157167337537136 0.01132905918449687 0.050149253623733625 0.046430391120582476 -0.03496330921200743 -0.045519694837109617 0.0060926152387772298 -0.082617344641614313 -0.015206974033465312 -0.015940357873887295 -0.075483438043297407 0.074282900755792566 0.035737057631706287 -0.073648678688939082 0.00066098726048854158 -6.2526414806060883e-05 -0.085204973216092772 -0.071745948044647678 -0.022438989170247878 0.075438734634953764 -0.055519540751838972 -0.077507383429431309 0.074641950483703742 -0.0893746682443608 0.05851499992302131 0.040002196257202 -0.059966503017898513
leaf_weight=8422.4593845782802 586.22681846190244 359.94978214317234 219.50740160881833 128.99040419759694 929.12515452050138 27.496232158038765 83.906381993088871 414.72397333237677 113.94095201673917 686.78254814288812 8.368236138019709 201.48595566095901 410.22967098176741 41.440254808403552 108.34954873661627 216.91757574630901 344.49311881139874 44.650070084258914 19.279857497662306 552.13731387627195 62.69809957081452 478.58753984171199 19.053810404613614 76.089137906208634 182.94358321838081 43.598132390063256 409.35168886113388 484.27114441926824 229.46211987314746 35.739254944957793 81.552582027798053 34.530561790335923 405.18292869254947 1640.0531530361623 59.815984690561891 10.83064100705087 25.834345124661922 29.177446087589487 199.48573660047259 103.51464019814739 49.32296280155424 25.16463963361457 179.47222160412639 121.75907188736164 195.71940382942557 430.6403352986963 93.83910546451807 122.10682093165815 43.760877459309995 80.968973321141675 27.753221326274797 105.03911617211998 108.72549006706686 11.356374777387826 2143.2202043888392 252.93991897127125 11.734596006979698 180.15870768134482 226.76732105330666 175.22431176996906 19.895711282268167 19.199595320504159 281.58710652012087 106.45566464331932 22.995238377247006 189.7448328610626 792.75238080136478 95.615550583344884 14.672053513117133 156.44475737586617 186.10700465214904 21.65203900821507 361.0686696106568 75.583513889461756 75.969686600146815 232.21016273694113 28.545744345057756 22529.019264258241 329.42637417942751 64.646253904560581 33.020757707767189 12389.747706146096 52.625768732279539 42.33434315957129 7.103211333975195 134.40936985844746 39.522342892829329 157.54857751412783 82.323404318536632 91.73121956246905 151.87563950475305 513.1205026730895 11.337973201647399 223.80357817126787 334.36392327588692 45.583808047696948 83.548784267622977 146.53916032402776 12.389556286856534 281.87188101559877 96.136681897856761 13.082711252383886 70.161724752746522 28.714322584914044 270.61906267125596 463.10150344540307 44.122033533873037 141.60211909224745 431.67639967853029 14.307333745062349 304.06493638735265 48.112527325283736 28.737678300589319 49.370391633827239 94.774942570380517 39.932129975873977 57.094691392034292 18.933889012783766 305.61924815922976 67.907015833072364 29.830510515486822 6.8193921446800259 5.2643078695982686 78.782354746945202 26.332207635045052 39.234918070957065
leaf_count=13244 5644 1924 6564 7492 2876 340 896 1892 892 1948 124 9268 28652 264 844 956 928 100 192 56688 712 5616 376 1020 3496 568 39652 52520 816 472 1716 548 584 2832 188 80 212 1060 1012 1324 720 104 3796 4440 1720 2628 1188 6532 152 8560 328 208 8268 804 211172 11796 300 8960 6288 7964 272 796 7884 1452 1256 5284 1760 388 192 728 592 128 992 484 1424 1060 448 2288996 36460 6608 440 21668 184 168 20 784 472 15544 1076 1132 536 1332 92 14800 26212 872 840 4960 28 1620 776 48 928 984 16380 8304 1336 4464 15220 120 652 204 236 940 1336 1608 456 116 596 956 1396 16 104 336 80 276
internal_value=8.80791e-10 0.0661549 -0.0786218 -0.0419047 0.0772438 -0.00958198 -0.0128348 0.0434212 0.0112051 0.0824131 -0.0879354 -0.0436792 -0.0494164 0.00474612 0.0170278 0.0625266 0.0580234 0.0462104 0.0239395 -0.0584477 0.0279569 0.00639077 0.000121858 -0.0203061 -0.0119452 0.00992491 -0.061354 -0.0705862 0.0438542 0.0210937 -0.0466548 -0.00182249 0.0844712 0.0820579 0.0584428 0.068826 -0.00579079 0.0277108 0.0226106 0.0128973 0.0373657 -0.018948 -0.0132676 -0.0190354 0.0398333 0.0298949 -0.000884871 -0.0893721 0.00651847 -0.0384119 -0.0154032 0.0708046 -0.0359627 0.0316986 -0.0862061 -0.0232756 0.0256548 -0.0431586 -0.00963383 -0.0239325 -0.00195664 -0.00626688 -0.0166047 0.0248905 0.0382103 0.00578915 0.0678677 0.0562493 0.0184871 0.0672748 0.0533144 0.0337456 0.074318 0.0749926 -0.0460078 0.033964 0.023484 -0.0894311 -0.0725381 -0.0389309 -0.033497 0.0837843 0.0753125 0.0812693 -0.0110504 0.0361013 0.0229912 -0.0621528 0.0197299 0.00674454 0.0849592 0.0705857 -0.000550846 -0.02169 -0.0455915 -0.0317395 -0.0326941 -0.0425271 0.0578984 0.0624717 0.0426627 0.00474025 -0.00478351 0.0227931 -0.0307169 -0.00865305 -0.00458842 -0.0312215 -0.0117205 -0.0110075 0.0616315 0.0412464 0.00133765 0.0428953 0.0303047 -0.0533626 -0.0562585 0.0888724 0.0697287 -0.0384503 -0.0183055 -0.0452084 0.0606722 0.0412183 -0.0425346 -0.0198184
internal_weight=66330.6 36021.2 30309.4 6132.62 31420.8 4600.4 3702.86 4165.62 3022.92 27255.2 24176.8 1344.33 1577.48 2358.53 1402.39 2556.19 2447.96 1443.25 701.533 1123.23 1753.83 622.838 816.161 217.749 1269.09 141.66 945.202 894.501 483.783 254.321 144.251 399.13 24699 15952 1086.7 935.484 151.217 192.489 1717.66 1035.8 681.862 384.515 956.141 1076.6 1131 765.783 335.142 23053.6 267.138 571.095 315.224 924.653 318.028 651.283 2429.76 287.47 323.427 301.918 774.68 401.992 638.113 596.672 448.022 148.65 129.451 372.688 2232.76 797.07 110.288 741.718 397.225 211.118 1435.69 1004.71 179.484 639.927 440.441 23045.2 516.179 186.753 54.6728 14865.3 1810.55 1693.73 116.824 218.582 173.932 286.539 217.816 174.055 13054.7 664.996 53.6723 682.976 535.85 139.423 112.095 166.435 519.471 642.941 328.347 205.03 179.866 98.876 490.126 707.812 648.826 185.724 459.173 26.6969 492.774 188.709 83.6696 163.311 311.693 58.9859 64.1979 8747.01 324.553 80.9897 209.303 35.5571 365.214 98.0622 91.4015 65.5671
internal_count=3050312 247572 2802740 375828 80236 167336 141620 26616 55804 53620 2426912 88700 111532 52920 22576 9492 10936 7576 4760 88192 16480 8044 16932 2116 39324 1096 75132 81172 2644 1828 2428 13568 44128 30172 2884 2128 756 2892 15680 10708 4972 5768 30344 36432 8436 6408 3780 2338720 3080 31504 12672 2048 13460 4940 234208 12344 2592 13400 23032 14252 16884 16620 13116 3504 2708 8780 6900 2528 580 2816 1888 1296 4372 3360 2748 4136 3124 2338596 49600 13140 568 27288 3752 3092 660 1356 1256 23036 2360 2208 23536 1868 260 30360 35480 2060 1288 5232 1464 2612 1836 3020 2916 1912 22944 16088 14104 5800 15560 148 1316 664 456 1832 2292 1984 476 13956 712 1004 5192 252 2028 528 568 356
is_linear=0
shrinkage=0.05


Tree=2
num_leaves=127
num_cat=0
split_feature=6 9 11 7 11 3 3 8 5 3 6 10 4 11 5 4 10 10 3 6 3 11 4 7 3 6 6 6 7 1 10 9 9 7 11 0 11 3 11 3 2 8 3 8 3 4 6 11 6 2 8 6 7 4 9 9 2 8 11 0 1 11 2 9 6 11 7 6 10 3 1 6 10 1 11 3 4 11 8 8 10 5 9 0 8 11 0 0 3 11 7 6 11 1 8 4 10 7 4 8 9 9 9 10 11 9 6 4 11 9 1 10 4 4 9 8 9 1 11 0 8 9 1 1 9 7
split_gain=121461 7748.66 4291.68 3393.08 1957.6 1105.16 592.435 496.276 485.19 391.526 364.224 206.81 184.18 180.275 154.682 139.917 131.249 129.638 128.005 117.546 105.969 101.508 127.536 132.31 87.7718 83.7765 83.1311 77.0402 75.3595 103.207 73.5383 72.1425 69.9672 68.9437 68.7294 75.9733 66.69 65.0552 94.7926 64.4121 61.9652 61.8878 91.3308 62.7202 60.8878 57.9937 57.3387 71.4153 56.4053 103.236 120.247 53.3122 51.7907 50.5263 50.0313 47.9004 184.645 124.457 133.208 62.1204 59.4996 60.5406 53.8246 51.3031 46.7466 46.0178 68.0516 43.0866 43.0552 42.3751 65.8233 59.0208 41.9266 41.7968 41.5766 41.1034 40.8567 293.641 335.305 77.4623 62.4521 54.5026 51.449 41.5035 41.7262 48.1164 39.4423 39.2105 38.9027 99.3545 75.1083 38.101 37.8197 37.7948 76.376 39.6814 37.1375 37.6084 37.083 35.7367 34.782 40.9706 34.6817 34.483 34.4254 36.9534 85.9211 71.853 54.774 34.4053 47.0736 33.859 33.8084 33.5488 33.333 33.175 51.6738 40.4963 33.139 32.7883 32.557 45.8714 32.094 31.6788 31.64 35.3334
threshold=-0.0011443178822749497 0.0020203083405628004 -0.014510689820264148 0.0080919066439673528 0.00081482734736160005 0.029215998351413003 -0.00091979920011559988 -0.069125938591996991 -0.018846662069864746 0.0095625231745747018 0.0062966896404726509 -0.0016140911644208996 0.0093785394236796521 -0.035681725152576844 -0.020754592919229597 -0.014690781057536049 0.03279430213874996 -0.54961706846743297 -0.0041234346931765488 0.051953718291672606 0.0037406593637641507 -0.1229132716764131 -0.35893300228320052 -0.42401997498009997 0.0071197490967685505 0.06872162075925127 0.0037342827375667002 -0.0053528004884638497 -0.15226911050137446 -0.81545043260564565 0.016012504252187604 0.0088898264960561527 0.010729238967516652 -0.24775919531026061 -0.069913833436373085 -0.59442179271649165 -0.069913833436373085 0.093460142645590008 -0.11255253560225294 0.0044461753098808008 -0.53940848209609549 -0.16892844476605676 0.089525241713624457 -0.1251025942406935 0.080474384701311727 -0.27822399538296855 0.26594423309257659 -0.07425207018393358 -0.041353102561949941 -0.31261515621743585 -0.054863994077745747 0.017571595571996206 -0.020026338653183647 -0.19264614826851167 0.15235508903600445 -0.020967527282074048 -0.30434433008799033 -0.065972786957835941 -0.043504862194066594 -0.77543205912078872 -0.18814721042386903 -0.035681725152576844 -0.41268262068876821 -0.015930425500958297 -0.27502255945808129 -0.056351122880539388 -0.060994662567428595 0.014912706265520652 -0.0070933998761869991 -0.0041234346931765488 -0.028559670700480048 -0.16157349970545437 -0.33952911579927914 -0.18814721042386903 -0.050695342929078291 0.025582846942686654 -0.056886137126505039 -0.069913833436373085 -0.093542844287005586 -0.069125938591996991 -0.13788754764215541 -0.072335515251896146 -0.058310599633589387 -0.68985698407321172 -0.083698850645176986 -0.062744278866653277 -0.80232040444726049 -0.7888661387879331 -0.0070099833349474986 0.014725521605596151 -0.071806070524719184 -0.0070417584737915992 -0.066206095809011337 -0.81015146690940243 -0.1251025942406935 -0.24035566722904447 -0.070610681527339944 -0.004620757747748499 0.068536809822699205 -0.088925820413791393 0.020651651208026003 0.015941856005902501 -0.045850665031876792 -0.20646283863969964 -0.083825197991552233 0.02213064152064215 -0.041353102561949941 -0.056886137126505039 -0.012699880577415947 0.015941856005902501 -0.82007817403570293 -0.075340758672587729 -0.060990864534188539 0.0012824485916565003 -0.020967527282074048 -0.048228472781877647 0.023546436080699503 -0.18814721042386903 -0.012699880577415947 -0.79298884049080343 -0.10429857244057984 -0.0023078964063001496 -0.81848907248840519 -0.39887994044947989 -0.0036000604661147496 -0.0035872238506484493
decision_type=2 2 2 2 2 2 2 2 2 2 2 2 2 2 2 2 2 2 2 2 2 2 2 2 2 2 2 2 2 2 2 2 2 2 2 2 2 2 2 2 2 2 2 2 2 2 2 2 2 2 2 2 2 2 2 2 2 2 2 2 2 2 2 2 2 2 2 2 2 2 2 2 2 2 2 2 2 2 2 2 2 2 2 2 2 2 2 2 2 2 2 2 2 2 2 2 2 2 2 2 2 2 2 2 2 2 2 2 2 2 2 2 2 2 2 2 2 2 2 2 2 2 2 2 2 2
left_child=1 6 3 5 8 13 21 14 18 30 11 44 27 19 34 25 -11 -12 87 86 26 -1 23 -23 46 109 73 37 103 52 69 39 -10 53 120 -36 113 48 -39 -13 92 118 115 -44 -4 -42 47 -5 114 50 65 102 -30 72 -37 76 57 59 -59 -57 61 62 63 -60 -47 111 -67 -22 -49 70 -6 -72 -27 -15 -52 -76 77 79 -79 93 -81 83 91 84 -80 -86 -2 -3 89 90 -19 -82 -40 -24 -95 -96 -14 -98 -16 -97 101 -92 -17 -21 -89 -106 -107 -108 -109 -9 -111 112 122 -34 -8 116 -43 -117 -20 -32 -7 -122 -50 -65 -58 -126
right_child=2 4 10 24 9 7 12 15 32 16 17 31 96 20 98 51 -18 88 41 28 67 22 55 -25 -26 33 -28 -29 29 -31 119 -33 36 -35 35 54 -38 38 40 -41 45 42 43 -45 -46 64 -48 68 49 -51 74 -53 -54 -55 -56 56 124 58 60 -61 -62 -63 -64 123 -66 66 -68 -69 -70 -71 71 -73 -74 -75 75 -77 -78 78 81 80 82 -83 -84 -85 85 -87 -88 104 -90 -91 100 -93 -94 94 95 99 97 -99 -100 -101 -102 -103 -104 -105 105 106 107 108 -110 110 -112 -113 -114 -115 -116 117 -118 -119 -120 -121 121 -123 -124 -125 125 -127
leaf_value=0.082215044684573371 -0.095926282360829548 -0.020531485838632096 0.0027804450320040434 0.054093250737883729 0.039663595738848659 0.061994097520478124 0.074324526653620215 0.01025293063512735 0.0092557650368407518 -0.04281419108715398 0.068902920084350713 -0.017168776856110363 -0.011544213898923664 -0.062501503398262756 -0.019511182576963021 0.061086180217185919 -0.080983620168396234 0.010851052642604381 0.054004090567179697 0.037000276639172762 -0.015680365756620719 0.047692332964334783 0.082974584295760212 -0.098656725715516147 -0.083159199021054925 0.020714562061571563 -0.0043985750770596703 0.03911063619525925 0.057223999194250655 -0.034619536023496496 0.04509789052554191 -0.073936016329437956 0.052468376225063666 -0.054258831207233571 0.073895836882989271 -0.090019877589281289 -0.032588321960306019 0.062589231208024787 0.048973248836928628 -0.066833532987704822 0.039587760760208 0.050231611304914416 -0.003137018472190849 -0.089007102817341782 -0.085974234991207946 0.03897127268790905 -0.0764439003916903 -0.06085237439212169 0.068752165271117702 0.067896517869286785 0.024583655298384209 -0.08188918806520315 -0.062195054252103012 -0.085864662822116689 -0.001977545432952236 0.0013973662123888588 0.077513769268318697 0.060627598758595393 -0.10022663240166117 0.066497543261767073 0.071062930881698447 -0.087753397521743298 -0.083966919685753608 -0.019966196979267062 -0.069040971493278883 -0.089550924628090042 0.037930726738348741 -0.073187599150231583 0.014341008756516721 -0.019095991173156884 0.022358537671800523 -0.066322157726819084 -0.067923589206399168 0.050451799994583602 -0.099596683553637877 0.0072809354398226007 0.081140569769054788 0.066183388232334425 0.033734176901449808 0.063597487784175163 -0.095161569898936052 -0.078249250921525987 0.075414971890859994 -0.099985822396324822 0.014031049117176772 -0.081789299978519872 0.050582913519070342 0.076140612717743625 -0.083966872437832879 -0.085410842631823469 -0.088227594637027965 0.066204832352042026 -0.027392586369684925 0.078317205145950058 -0.04090945939502777 0.061760551026855827 0.038510653482741103 -0.018864875205802 -0.081538538015765438 0.006136932995537238 -0.073453487607120477 0.042345099904212286 -0.048336996286345052 -0.090394940599016302 0.057922912341167268 0.047566984673702316 -0.058386495466751634 0.066956484771391461 -0.018542477026446413 0.03111900733377549 -0.073329188860549191 0.077548140997334314 -0.02219266066369123 -0.09174731053596781 0.04757894500620842 -0.094901831192079289 0.015538542085062855 0.0095123891520315033 -0.094942393783044254 -0.03404103861770779 0.035417971554961493 -0.063324569066487799 0.0084941585378518671 0.069303385620102423 0.068479414521048429 0.02125595405505382
leaf_weight=8001.5696796063858 4.6231406861916176 20.134836837183684 174.6053289653355 21.113782807718962 127.84033064194227 116.45910061139148 1743.9778537073726 115.71084063297894 245.47455515460024 407.84486891428242 13.934482913464306 129.23424436713685 65.08324739895761 8.6707678372040373 110.22226509824395 7.9064809870906165 502.96542203763966 51.672467826399952 160.11874617933063 268.79661712879897 113.20175235209172 174.00929624773562 2801.7072853241116 16.947965113911778 2106.4374984875903 75.761693122563884 201.42108433170506 354.84201145010593 63.763662594603375 121.09616590122459 13.70915240398608 576.33214597309416 35.221492957789451 435.15110754455964 21.783644767012447 24.861188028473407 329.00923938828055 747.48518058785703 236.10217861497949 131.93202105595265 41.789995430066483 185.13781617580389 85.522259547375143 28.302213628980098 21.728268747217953 13.716323147527872 133.65663680247962 94.616639121435583 85.603403808549047 1248.7211674251594 27.252077178942272 324.9660818411503 10.586513098794965 18.301300533377798 45.978096561506391 39.512237947434187 3722.1124202723731 95.919677162542939 7.6920355763286343 504.91029284265824 16.003611296415329 33.503382827155292 16.723158597014844 14.902974858880041 37.142927500623045 11.241573721636085 152.22048193876981 45.729107393679442 23.832601878675632 125.94475468216115 39.981908102054149 35.351997607387602 16.192307822406292 147.71383821392374 22.365753980819136 15.04878863180056 4786.1998075413285 318.24118828820065 52.403337012976408 56.889401853084564 18.563659556210041 35.592682321555912 9.3911815844476205 10.993342589586971 29.030457435175773 23.877075629308823 723.87590074042237 113.03292514942586 22734.124846205319 366.39257374731824 9.7862630767049286 4.5557951033115414 17.408269737381488 2225.9890036811121 10.513616644777356 374.97390116844326 215.0994827474351 32.933869213331491 30.83772890502587 31.285134480334818 102.99877018854022 15.559578828047959 86.085133778513409 5.4188442523591211 479.56763206777396 582.77126916142151 36.07085087778978 40.515354853123426 34.841371322982013 15.929850813001392 33.4159022544045 162.32059267144359 17.070790604222566 4.5540769253857425 124.83454743446782 11.026761370711027 255.3892764615739 58.828323171008378 3.8235588758252552 288.93883707417262 122.97871967367246 13.00567111559212 29.785696264356375 29.830778273346368 551.06094157863117 42.678161131218076
leaf_count=13400 200 444 6564 452 2412 972 5824 3660 7124 29000 124 7140 2540 376 5896 160 53080 2040 1488 4440 4984 608 4236 344 211172 2012 7380 4024 728 6028 292 59668 544 34624 176 1560 18004 3656 2300 12412 480 2120 3144 2272 2408 120 13616 7976 332 4504 144 33252 572 1696 1780 212 7080 196 52 1304 44 348 112 104 1280 296 1120 3928 992 5508 980 1820 1144 1568 312 284 7996 708 148 124 104 216 20 100 120 128 8536 432 2288996 36460 996 32 548 3964 240 1200 2896 1284 2816 236 9668 436 6576 412 3424 5632 1564 244 832 480 2548 460 276 332 868 572 6240 1204 188 18440 2412 704 424 76 2176 636
internal_value=2.61837e-10 0.0651475 -0.0731138 -0.0341035 0.00204954 -0.00152349 0.0742544 -0.0311985 0.027649 -0.0429127 -0.0822699 -0.0532297 0.0592912 0.0264323 0.0110416 -0.0493796 -0.063892 -0.0835587 0.039106 0.0370786 0.00174688 0.0776143 0.0753216 0.0347035 -0.0797008 -0.0358653 0.0168374 0.0615813 0.0175739 -0.00614957 -0.0126671 -0.0640574 -0.0114278 -0.0453106 0.0290745 -0.00776486 -0.0251954 0.0632656 0.0525718 -0.0422577 0.0309405 0.023191 0.0160106 -0.0244884 -0.00704205 -0.00405258 -0.0530379 -0.0306224 0.0664782 0.060086 0.0414342 -0.0722969 0.0402203 -0.00999412 -0.0328762 0.0758104 0.0718043 0.0490618 0.0168113 0.0617728 -0.0186092 -0.0325892 -0.00586156 0.0190531 -0.039911 0.0504414 0.0291636 -0.0322269 -0.0457231 0.00369132 0.0178168 -0.0192567 0.00510615 0.0441891 -0.0223922 -0.0566086 0.0776946 0.0749476 0.0370109 0.0781705 0.0320059 -0.0241088 -0.0232753 -0.0075402 0.00211015 -0.0292125 0.0496531 0.0487035 -0.08365 -0.0704661 -0.0400488 -0.0633636 0.0437293 0.0789286 0.0746392 0.0549952 0.0220716 0.0308923 -0.0330712 0.0574771 -0.0605414 -0.00807022 -0.0391324 0.0344828 0.0497869 0.047249 0.0398752 -0.000352966 0.0274258 -0.00465455 -0.0396111 0.0622403 0.0434817 0.0359565 0.072538 0.0250426 0.0301188 -0.0069696 0.0505303 -0.0304563 0.0425911 0.0259741 0.0531976 0.0395634 0.0758039 0.065085
internal_weight=63750 33711.5 30038.4 5710.1 4251.92 3330.44 29459.6 1615.55 2709.34 1542.58 24328.3 1033.83 5402.05 1714.9 486.126 1129.42 910.81 23294.5 2095.08 1198.16 516.737 24057.6 16056 190.957 2379.66 710.463 357.806 5088.93 469.662 195.446 631.767 837.498 614.259 545.406 345.066 92.6229 368.785 4734.09 1093.64 261.166 346.16 788.149 624.207 113.824 196.334 92.6492 273.22 139.563 3640.44 1771.63 522.909 418.958 74.3502 110.255 70.8393 15865.1 5074.85 758.998 214.576 544.423 118.656 102.652 69.1489 52.4258 50.8593 458.243 163.462 158.931 118.449 329.119 203.174 75.3339 91.954 156.385 64.6666 37.4145 10790.2 6004.01 470.138 5533.87 89.4 151.897 32.5106 116.304 105.311 52.9075 728.499 1306.93 23280.5 546.41 180.017 23.1195 253.51 5444.47 2642.76 416.773 313.117 248.033 141.06 406.259 128.345 25.3458 93.9916 274.215 1286.8 1173.77 694.199 111.428 75.3567 165.057 49.3458 294.78 132.46 39.7756 1868.81 510.382 440.527 69.8551 163.942 302.648 252.443 135.984 115.389 44.7338 4315.85 593.739
internal_count=3050312 247572 2802740 375828 167336 141620 80236 102468 55804 111532 2426912 88192 33972 39152 16316 86152 82080 2338720 29800 20916 18236 46264 32864 952 234208 46164 9324 27252 12180 7328 29452 79220 26004 39476 7604 3516 18880 23228 8384 19552 4728 17228 15552 5416 8972 1880 23036 9420 14844 8152 3648 39988 1300 4852 3340 31912 12340 2448 932 1516 736 692 344 232 1400 2908 1416 8912 8968 10720 5212 2800 3156 1944 740 596 19572 11576 1420 10156 280 712 156 496 396 248 8736 12572 2338596 49600 13140 136 2848 9876 5640 1676 6720 4180 8712 1436 11100 1432 6736 4852 12128 11696 8272 2640 1076 6688 3028 1492 1032 876 6692 10136 8360 1776 1676 18732 4088 3116 756 180 9892 2812
is_linear=0
shrinkage=0.05


Tree=3
num_leaves=127
num_cat=0
split_feature=6 9 11 7 11 3 3 3 3 6 7 11 10 10 3 4 6 7 5 10 4 1 4 4 6 9 9 3 3 8 10 4 10 8 8 11 6 3 7 6 10 11 10 8 4 7 4 3 6 4 11 3 7 4 9 11 11 8 7 6 3 8 2 11 4 8 7 11 6 3 11 7 9 0 8 7 9 10 1 3 9 6 0 9 10 4 9 6 9 2 7 6 10 9 2 3 10 4 10 10 7 6 6 9 11 1 8 9 5 6 0 5 8 11 3 7 2 1 11 6 10 11 0 3 4 5
split_gain=106194 6900.44 3713.57 2948.14 1678.92 961.652 510.24 403.395 345.01 295.104 230.683 220.951 164.246 163.958 153.818 152.311 147.548 154.539 134.945 114.502 113.136 99.4896 92.2559 78.5932 77.3063 76.6 68.045 66.6608 63.0869 74.4283 66.9228 118.763 61.5115 57.634 57.5186 60.7466 54.594 54.3822 53.0763 52.7375 58.1869 49.1684 46.4149 44.2914 47.6756 51.7445 43.8382 42.5073 47.0501 42.459 40.9734 61.5505 49.0092 43.4541 43.7944 40.8624 39.163 37.9905 37.6498 37.5098 36.9898 51.1257 36.5001 36.2927 61.6151 117.745 59.3468 50.8075 39.7858 36.1269 91.2718 44.7639 37.0631 35.8949 77.7077 34.7619 34.6086 34.1544 34.1308 33.7301 39.7696 44.2249 33.3586 32.9996 76.1478 32.331 34.7676 31.8612 31.7899 31.643 31.426 41.0247 31.0581 29.9916 29.4624 29.2526 28.8947 31.7719 37.6993 28.8618 62.8753 28.7835 28.6284 28.4908 28.4663 67.2302 134.82 32.7247 28.4628 28.3886 97.9606 86.3767 50.6741 46.1104 44.529 29.6657 27.2533 26.9316 26.875 26.823 26.4866 44.3886 26.2126 26.0366 25.8331 31.0609
threshold=-0.0011443178822749497 0.0020203083405628004 -0.014510689820264148 0.0080919066439673528 0.00081482734736160005 0.12896394343780174 -0.00091979920011559988 0.0030298993801578006 0.0034150202032510505 0.0062966896404726509 -0.28424761440943552 -0.041332853669893248 0.0087364781750545011 0.025531447553388754 0.0037406593637641507 0.0082517790395396015 0.031555241304327609 -0.16330910151342237 -0.036952947491603494 -0.54961706846743297 -0.21405234211219368 -0.81545043260564565 0.0052441464926576012 -0.028008953561667497 -0.0053528004884638497 -0.0068123213888002989 -0.0068123213888002989 0.0071197490967685505 0.051341747139760259 -0.16892844476605676 -0.3220307814935422 -0.22956010659440954 -0.37328698912332725 -0.0098954303160121975 -0.083698850645176986 -0.030844110247980849 -0.041353102561949941 0.052816974055745904 0.036093121666376057 0.064465024958751657 -0.18742118614482259 -0.13463675546212836 0.016012504252187604 -0.099012013028915838 -0.35893300228320052 -0.26547911545025643 -0.047464537923618141 0.17413604612246347 -0.012737332371508299 -0.053271186091519193 -0.066206095809011337 0.031165875416516556 -0.023909734338934396 -0.27822399538296855 0.040948758811549656 -0.07425207018393358 -0.1229132716764131 -0.016476239481361895 -0.30408080774733159 -0.041353102561949941 0.021342080039280901 -0.063122777340746797 -0.58520398816031072 -0.15325864092306202 -0.35893300228320052 -0.16892844476605676 -0.38097867799402457 -0.13463675546212836 -0.12821713237764051 -0.0070099833349474986 0.012645676847413653 -0.071806070524719184 0.023546436080699503 -0.33647555323203743 -0.13356983362512823 -0.46635611873155453 0.013312109111330002 -0.19673181536079323 -0.18814721042386903 -0.0041234346931765488 0.030548385608164103 -0.016817548119071747 -0.039463778934062492 0.079360162140649615 -0.13788754764215541 -0.014690781057536049 0.0095184728406304524 0.11335927582993201 0.0085690009560336518 -0.62649562953051652 -0.060994662567428595 0.037498388737971206 -0.37328698912332725 0.15758561060966411 -0.061805022780290091 0.064210403149280962 -0.070610681527339944 0.083976074722338409 -0.12542451895017101 -0.11936271619282564 -0.066324885642676676 0.015865109188418953 -0.0053528004884638497 0.015941856005902501 -0.0278115662458444 -0.19455881273770928 -0.063122777340746797 0.064001495472964159 -0.10308635648357883 -0.020917646569930195 -0.29594037209350915 -0.048683248244467646 -0.050407305540827244 -0.045628139871104749 -0.0070099833349474986 -0.028071369281564597 -0.80124671205615949 -0.35676091370046792 -0.0079382877728904483 -0.099414693945381341 -0.066640956328940987 -0.07425207018393358 -0.75412447736892962 -0.054477347179965489 0.070202542646173857 0.0081319858489650506
decision_type=2 2 2 2 2 2 2 2 2 2 2 2 2 2 2 2 2 2 2 2 2 2 2 2 2 2 2 2 2 2 2 2 2 2 2 2 2 2 2 2 2 2 2 2 2 2 2 2 2 2 2 2 2 2 2 2 2 2 2 2 2 2 2 2 2 2 2 2 2 2 2 2 2 2 2 2 2 2 2 2 2 2 2 2 2 2 2 2 2 2 2 2 2 2 2 2 2 2 2 2 2 2 2 2 2 2 2 2 2 2 2 2 2 2 2 2 2 2 2 2 2 2 2 2 2 2
left_child=1 6 3 5 7 11 26 24 42 12 20 16 22 47 23 25 60 43 55 -11 32 49 94 33 83 28 63 38 -8 -30 31 -31 -7 -13 -16 -36 58 120 62 40 116 -33 79 -18 45 92 117 48 122 99 -20 52 -52 -53 59 -9 -46 87 -32 124 -2 -62 -5 -1 65 75 67 -66 -67 70 71 -21 103 -57 77 -65 -51 -75 -25 80 -6 -82 -80 104 108 -64 -87 -58 -50 -35 -91 -92 -45 -89 -4 -63 97 98 -17 -19 -101 -37 -28 -73 -3 106 107 -106 -85 -68 111 113 114 115 -113 -111 -12 -41 -27 -56 121 -23 -10 -70 125 -55
right_child=2 4 9 27 8 10 15 18 13 19 39 14 -14 -15 34 96 17 21 50 69 -22 37 -24 78 -26 118 102 -29 29 30 36 41 -34 89 35 101 -38 -39 -40 46 -42 -43 -44 44 56 -47 -48 -49 88 76 51 53 -54 54 119 73 57 -59 -60 -61 61 95 85 64 66 68 109 -69 123 -71 -72 72 -74 74 -76 -77 -78 -79 82 -81 81 -83 -84 84 -86 86 -88 93 -90 90 91 -93 -94 -95 -96 -97 -98 -99 -100 100 -102 -103 -104 -105 105 -107 -108 -109 -110 110 -112 112 -114 -115 -116 -117 -118 -119 -120 -121 -122 -123 -124 -125 -126 -127
leaf_value=0.078619964456622726 0.05190162350050679 0.057463945096717206 -0.0089739573766777821 0.0301841183998891 0.048293723742364195 0.039157605526042916 0.065697628392336477 0.056044378470283651 -0.083741606263966081 0.061037054125749148 0.023513112604172562 -0.034282081757502796 -0.070191243050294075 -0.074690534528050356 0.048726316539913994 0.035697653524095811 0.059389061244878284 0.052338592741860507 0.026532072254435018 0.0047162003112596294 -0.055852309081100115 -0.0077103001330894472 -0.057355218252657707 -0.057923985159841901 -0.0017656756263590052 0.04547163700895545 0.066854228477802688 -0.078289192413916686 0.066477237879035395 0.042741879094637995 -0.057905690807175482 0.011545924715003132 -0.046552173000894398 -0.088530853305715848 -0.0084409775665605976 -0.031713280593586635 0.015723890987564246 -0.075661682173213785 -0.071448719497968369 0.024199311613014134 -0.057338775430494593 -0.070617968286364602 -0.022535964672301623 0.02540646118009536 0.059381215402912912 -0.077309536731493225 -0.080201286494102395 -0.053983793970704047 0.0093521238409781052 -0.085984466380172597 0.032167605942890407 0.044277245976103455 -0.01623308127018494 -0.017515303461954561 -0.024634857977621258 0.039709756327388976 0.021198007293707032 0.050786005828065209 0.05984970916416818 -0.02796692438820932 0.048265451434085192 0.0045594256566367161 -0.071214725691539693 0.070954329357623844 0.062319134822654589 -0.038427540333329457 0.075181678402051921 -0.10012963151396313 0.04265432230773223 -0.079008465148343629 -0.07989095204918549 -0.08266149601173424 -0.068787662158686869 0.035887032764431517 -0.035167370537597824 0.039452425915439446 0.055921447219198776 -0.021551841767761846 0.038206184134640699 -0.022798621079062505 0.010414317943801835 -0.09121575348384553 -0.094673570140702823 0.044037208767124046 -0.026333110659051431 -0.030766172182874463 0.08345957638727014 -0.060148906782765833 -0.066195223765058972 0.068475810841033422 0.080506963828293768 -0.067255695189832335 -0.091599101641856584 0.048229372719649791 -0.086258863306673886 -0.085963541757170026 0.030915338591471522 -0.060954481297547269 -0.090926946445508514 0.058210565211505944 -0.046414348066088573 -0.067862635609025293 0.049878157441722221 0.021234445105786492 0.04541294544535391 0.056365500669195517 -0.056236064196162373 -0.090290365686668081 -0.034255606370851996 0.062082843141594485 0.073226197748874053 -0.084991605061307984 -0.098334974322942442 -0.018244745469298825 0.045055070877851738 -0.034069709966684535 -0.034609541489224682 -0.054873788324164875 0.01066038303132145 -0.061988475502123636 0.021935513159062822 -0.065167816706503165 -0.002393205026661285 -0.097619741672015828 -0.090685651846975884 0.05709158349337571
leaf_weight=3988.043790763244 486.71510915781255 574.52648035576567 281.0545504156471 22.864565443305764 68.88354031930794 127.54320890404051 2616.8792327751144 83.816083981444535 10.511670442763714 14.669398685917256 45.512709816452116 103.74985099316109 529.360686618209 568.59549895883538 23.346503394903266 38.414469886571169 117.54706438630819 75.730894534295658 67.108836647123098 48.871108049992472 60.203301647270564 103.46643362671603 186.07320139522199 10.109484691172836 92.473967037978582 546.99592338506773 1194.1026205963572 2074.4675757547084 629.07222209469182 220.58451871466241 6.8680629702284923 35.273078423924744 25.043501747772098 5.3354912186041465 157.6851376886334 114.6223698739268 85.509666185818787 50.965681721747387 149.5433303816244 11.172659191768615 115.84613551129587 37.635817985981703 254.43201097466226 56.382947685400723 98.109884068733663 20.838832958135754 249.31675034784712 163.82349257811438 17.285829490749165 14.769187490455808 102.65245717111975 21.015735304914415 106.62914089416154 22.849761474877596 83.358559050015174 121.03206100128591 72.73558744014008 62.876742907334119 582.236508542308 132.03483303512621 86.597823885909747 51.462531941011548 44.4491006587632 588.40987893007696 10.301837742328646 34.03871354466537 13259.636526166927 9.0341229196637851 44.487932997864846 22337.300412958022 370.19402293860912 9.0577715721447003 88.791758667677641 139.78565177378186 77.148977146309335 102.88525786995888 6.0593223674222818 31.761044333688915 253.33055318985134 70.303535886152531 124.41856855200604 11.712062482722102 4.8128674691542974 322.13805509405211 47.673333322163671 41.609213043237105 7.931586558930575 28.544345648959279 71.617397722322494 33.81053912686184 7.6073115337640074 12.280152948340399 6.3058549552224568 8.2221881248988193 12.897480111103503 10.796960061416028 275.25866706843954 18.820819408632815 6.940063824877142 28.416828301269561 29.029126600828022 105.97981438676652 313.56358334817924 24.303498861612752 147.40893860557117 290.47664736548904 46.169919193256646 4.5806234895135267 12.042380991391836 391.63497491180897 3553.760051235673 8.4407052528113073 12.841532679274676 19.699646930210292 29.898220765404407 8.1895691342651826 36.217471560463309 297.47429332570755 61.696852802764624 113.49375925702043 34.813714800751768 49.789196159690619 170.92592926407087 3.5737686809152356 4.9702481930144122 35.820790696889162
leaf_count=6668 4348 3700 13236 700 996 2104 10008 808 1008 124 1384 4956 56688 59584 380 756 808 900 1560 1856 4860 4060 17016 556 2348 4824 3868 211172 2304 1880 232 448 1452 376 7296 6872 1664 4480 15544 428 10184 1336 14668 1164 908 1208 26396 13436 664 1180 1964 424 4400 768 4316 1828 1464 664 3204 6752 1032 1440 4000 1164 28 276 23592 64 480 2288996 37288 996 8536 2320 3620 324 120 1192 3956 3104 3528 688 240 2968 1632 2744 48 1360 6312 272 32 784 360 124 1252 908 4560 1420 404 252 1324 9708 1960 924 1496 2376 1312 284 364 1100 6128 64 128 216 76 44 2380 24776 932 8648 828 3296 7544 84 288 436
internal_value=3.42187e-11 0.0617204 -0.0688307 -0.0323443 0.0019652 -0.00190886 0.0704825 0.0258279 -0.0397802 -0.0774431 -0.0437955 0.0154777 -0.0509849 -0.0570235 -0.00517656 0.0562448 0.0269418 0.0134974 0.00333835 -0.0786097 0.00218978 -0.00965686 -0.0298046 0.0155676 0.0425541 0.0585233 0.0736005 -0.0752656 0.0609182 0.0530874 0.0443868 0.0244561 0.0250904 -0.0118402 -0.0274393 -0.03214 0.0530578 -0.0298488 -0.0517202 -0.0567468 -0.0345477 -0.0308674 -0.00714043 0.0327962 0.0239663 -0.00905281 -0.0646076 -0.0338863 -0.0217074 0.0216834 -0.0105881 -0.0145878 0.00750742 -0.0257695 -0.0295197 0.0245234 0.0341627 0.0198096 0.0584769 -0.0127685 0.0452309 0.0234196 -0.0264729 0.0743027 0.0733502 0.0595426 0.0739674 -0.01358 0.00293188 -0.0786992 -0.0659348 -0.0357257 -0.0519057 0.0173777 0.00650939 0.0662659 -0.0447019 0.0252525 0.0321993 0.00708719 0.0173356 0.00167053 0.0357288 0.0453904 0.0327826 -0.0402556 -0.0124784 0.00202269 -0.0515062 0.0276009 0.0391399 -0.0107338 0.0136369 -0.035912 -0.0123649 -0.0111389 0.0238714 -0.00634115 0.0163218 0.0320659 0.00534053 -0.0490798 0.0633236 -0.00697388 0.0499187 0.0410472 0.0185925 0.0413232 0.0412159 0.0740653 0.0703872 0.0489527 -0.0123698 0.0564339 0.016424 0.0601134 -0.00224305 -0.0520114 0.0419432 -0.0461708 -0.0174337 -0.0263769 -0.00710616 0.0322238 0.0187634 0.0280353
internal_weight=62492.8 32948.2 29544.6 5642.04 4213.48 3301.18 28734.7 2680.97 1532.51 23902.6 968.33 2332.85 1009.39 1002.76 832.67 5162.19 1500.18 864.604 1143.48 22893.2 212.79 393.04 480.025 431.036 1537.49 4822.75 23572.5 2340.87 4214.06 1597.18 968.108 293.493 152.587 162.783 401.634 378.287 674.614 239.035 266.398 755.54 197.576 72.9089 529.75 471.563 354.016 83.5276 557.964 434.164 270.341 154.005 689.934 622.825 209.282 413.544 392.528 453.544 270.489 172.379 589.105 195.676 635.572 148.857 116.854 22064.9 18076.8 773.396 17303.4 19.336 82.1004 22878.5 541.218 171.024 122.153 369.728 248.696 691.295 20.8285 171.547 268.253 275.318 205.014 136.131 258.143 1445.02 381.854 93.9899 49.5408 109.502 88.9032 59.0335 53.698 19.8875 62.6888 36.7665 293.952 62.2595 339.434 64.1754 45.3545 133.177 57.446 220.602 1507.67 33.3613 1063.16 488.636 198.159 151.99 334.18 17284.1 4024.46 470.705 51.1805 419.524 38.3389 399.825 81.7302 308.647 608.693 196.852 188.069 153.256 181.438 48.0617 63.6408 58.6706
internal_count=3050312 247572 2802740 375828 167336 141620 80236 55804 111532 2426912 73964 67656 88192 88548 35428 33972 32228 24500 39324 2338720 8416 16440 31504 11172 16480 26832 46264 234208 21076 11068 8764 3664 3556 6420 24256 23876 5100 12664 23036 65548 13948 1784 22984 8060 7252 2732 51600 28964 15528 3776 29556 27996 6364 21632 21208 9768 4520 3612 3436 8244 7728 3380 7492 40436 33768 2328 31440 92 840 2338596 49600 12312 10456 8960 7132 1488 1300 3512 4752 8316 5212 4216 4196 14132 4964 6792 2792 2948 6976 1464 1088 816 1524 1484 14488 2348 7140 2580 1160 2476 1576 16580 5828 1920 9168 5468 3092 1780 3332 31348 7756 1628 268 1360 140 1144 3764 25204 5756 12964 8184 7356 8552 564 1492 1204
is_linear=0
shrinkage=0.05


Tree=4
num_leaves=127
num_cat=0
split_feature=6 9 11 7 11 3 3 3 3 6 11 4 3 10 4 10 11 10 6 8 7 3 3 9 10 6 10 3 8 3 6 6 6 3 8 5 8 11 8 0 9 4 11 6 5 7 3 11 11 7 10 4 9 5 8 4 9 7 4 9 10 7 10 9 6 9 1 8 5 8 1 9 11 11 6 10 8 4 7 5 7 3 7 8 0 10 9 10 7 4 7 6 9 10 4 6 11 11 1 6 6 9 3 0 2 8 7 10 5 0 7 3 0 9 6 3 7 4 6 2 3 3 10 3 10 4
split_gain=93514.6 6109.68 3361.15 2624.89 1498.95 872.214 477.594 342.222 304.891 281.067 189.592 188.894 148.673 142.867 140.324 116.226 113.69 110.581 104.812 106.284 96.9916 80.7121 79.0713 72.9849 72.5016 66.802 66.3518 63.3661 73.5308 61.4522 61.1212 60.2677 58.4638 57.324 54.5492 53.7986 152.274 60.7663 50.5383 49.4183 51.7633 48.5285 58.9469 47.5513 47.4055 46.3242 46.1961 67.7988 45.7964 45.5712 42.6085 40.8213 39.2355 39.1892 37.339 43.2184 36.1089 35.3802 34.9577 67.9768 72.2304 43.3235 34.4119 75.0801 34.9972 34.2814 38.487 33.5635 32.7553 32.5276 32.2449 31.7495 30.5148 30.4066 29.6128 51.9542 29.4886 40.4971 71.9731 29.6426 30.6105 29.3249 29.2568 28.564 28.559 28.4031 28.0165 51.6298 27.1421 41.5501 79.6652 26.8518 34.8165 26.4812 31.9571 40.7502 32.02 26.1864 38.9518 28.988 26.1535 25.8863 25.8753 25.8157 31.7377 25.7256 25.5851 24.891 24.8655 57.632 32.9538 24.3472 24.2863 23.9901 30.1018 23.6714 23.6246 24.2158 23.5687 24.0521 23.146 23.0077 22.8798 25.7791 22.8691 33.2146
threshold=-0.0011443178822749497 0.0020203083405628004 -0.014510689820264148 0.0080919066439673528 0.00081482734736160005 0.12896394343780174 -0.00091979920011559988 0.0030298993801578006 0.010469194674006602 0.0062966896404726509 -0.041332853669893248 -0.12644746359579581 0.0037406593637641507 0.0087364781750545011 0.0093785394236796521 0.03279430213874996 -0.035681725152576844 -0.54961706846743297 0.010466660421739701 -0.079379052946775441 -0.28424761440943552 0.0054453154872300012 0.029900128883184506 -0.020967527282074048 0.016012504252187604 -0.0053528004884638497 -0.37328698912332725 0.1560849903666516 -0.16892844476605676 0.0071197490967685505 0.0037342827375667002 -0.0053528004884638497 0.032194216059201558 0.029900128883184506 -0.083698850645176986 -0.025737400471277493 -0.044212328664895391 -0.032414878587955241 0.0078337937285611007 -0.18394719935678933 -0.0068123213888002989 -0.056886137126505039 -0.050695342929078291 0.087487514771806177 -0.060079882291592744 -0.11124349989688208 0.088210332196494309 -0.11255253560225294 -0.030844110247980849 0.036093121666376057 -0.0032555899483900498 -0.094216892404849692 0.085904927861030919 -0.050781609753981195 0.028184007940460106 -0.24035566722904447 -0.045850665031876792 -0.077484100602031633 -0.013354435227465248 0.06979135851373626 -0.042095574347970892 -0.00081062974978659988 -0.10220702204232172 0.12420823422773826 0.067332942655083813 -0.020967527282074048 -0.18813007651832916 -0.075695332455674544 -0.044881932296194693 -0.022801650109796148 -0.18697860601765851 -0.075786225284831935 -0.029222736150252848 -0.006490086923830349 -0.20384631279379267 -0.13194863121661382 -0.18812097621629584 -0.35893300228320052 -0.38097867799402457 -0.16031423612869342 -0.42401997498009997 0.011950269091873753 0.0144421964462035 0.55345168250883869 -0.04361123760616404 -0.18742118614482259 0.079360162140649615 -0.11936271619282564 -0.010992375111047397 -0.11232549184841244 -0.13173252977549221 -0.0070417584737915992 0.039751091312207061 -0.18742118614482259 -0.24035566722904447 0.20693368057574718 -0.13463675546212836 -0.066206095809011337 -0.782239316135246 -0.080937962658131177 0.015865109188418953 -0.21408616132901345 0.012841791446397952 -0.34270055735730953 -0.3851248816747217 0.0078337937285611007 -0.42401997498009997 -0.033226253088480644 -0.033909458287368743 -0.18287072567577348 -0.012780042620197298 0.22405955224189458 -0.3476777543508433 0.0091890238812293527 -0.041353102561949941 -0.054477347179965489 -0.38097867799402457 -0.30267435693519412 -0.016817548119071747 -0.85959003835976566 0.17413604612246347 0.44473960925198458 -0.0016140911644208996 0.080474384701311727 -0.41206756856360677 -0.30267435693519412
decision_type=2 2 2 2 2 2 2 2 2 2 2 2 2 2 2 2 2 2 2 2 2 2 2 2 2 2 2 2 2 2 2 2 2 2 2 2 2 2 2 2 2 2 2 2 2 2 2 2 2 2 2 2 2 2 2 2 2 2 2 2 2 2 2 2 2 2 2 2 2 2 2 2 2 2 2 2 2 2 2 2 2 2 2 2 2 2 2 2 2 2 2 2 2 2 2 2 2 2 2 2 2 2 2 2 2 2 2 2 2 2 2 2 2 2 2 2 2 2 2 2 2 2 2 2 2 2
left_child=1 6 3 5 7 10 23 31 24 13 18 20 30 21 25 74 27 -11 -2 -20 26 -4 88 76 91 46 106 -9 51 49 107 86 56 70 -14 36 41 108 57 -39 68 42 -25 67 -35 -44 65 -48 -36 71 -37 -29 111 -34 55 -32 121 -24 59 60 61 -19 63 -61 85 -8 72 -22 -41 -52 -18 -5 -67 81 75 -10 -1 78 79 -78 -81 -27 83 103 -71 -65 -3 115 89 90 93 92 -6 94 95 96 101 98 -49 116 -50 -21 -72 -62 -105 -92 -7 -12 110 -110 -38 -30 -59 -46 -115 -88 117 -100 119 -94 -28 -13 123 -23 -117 -126
right_child=2 4 9 29 8 11 14 16 15 17 12 32 34 -15 -16 -17 33 58 19 22 43 122 38 35 -26 73 120 28 52 -31 54 -33 53 44 48 50 37 39 -40 40 -42 -43 45 -45 113 -47 47 97 100 -51 69 -53 -54 -55 -56 -57 -58 112 -60 62 82 -63 -64 64 -66 66 -68 -69 -70 84 102 -73 -74 -75 -76 -77 77 -79 -80 80 -82 -83 -84 -85 -86 -87 87 -89 -90 -91 105 -93 118 -95 -96 -97 -98 -99 99 -101 -102 -103 -104 104 -106 -107 -108 -109 109 -111 -112 -113 -114 114 -116 124 -118 -119 -120 -121 -122 -123 -124 -125 125 -127
leaf_value=0.075051024852053741 0.050320223298335354 0.046548762879515121 -0.008603546819104543 0.041228050862501975 0.042979565987346376 0.058557147595433373 0.062805763964220759 0.038243361787155011 0.043768561377961146 0.055945878884162484 -0.055103588607419741 -0.053393318863868167 0.044108707264188883 -0.065701308646499798 0.019726298062858579 -0.073439976405359639 0.020128707180492058 0.073648618927772844 0.042989222015812151 -0.090364040419197614 -0.037532367736405191 -0.014572913798890506 0.0089392436696462338 0.054170447601301887 -0.028801548411285745 0.041959979097858972 0.011728099372750295 0.046662965417302235 -0.06558631777049366 -0.074207230214007172 -0.083750315867076819 -0.0013258179349800595 0.044901362283904067 0.015815483006739489 -0.010531127563552404 0.071523680317907345 0.054140950779768972 0.042319114114899081 -0.081808968389385561 0.014915144654979102 0.014353547190708605 0.067332679815646029 0.041746915849340115 -0.047510603086771547 0.0021466749151386158 -0.064641133237924212 0.055955603124176523 0.065376185046771174 -0.029519307552526183 -0.066926757663901867 0.072079791235657817 -0.085156295101949095 -0.065262229493779536 -0.07211082645326683 0.052929106418642326 -0.00016119282701957096 -0.043931125310168462 -0.016826561626013634 -0.075703656300787028 0.063502847748502941 -0.077668177973026706 -0.076695653659244176 -0.074290926219567663 0.014126818026720951 -0.067301382768407678 0.039006447573889297 0.057346599050809126 0.041382364862358981 -0.096631416815203097 0.045960667584712268 -0.00040545291849363341 -0.035401776051111104 -0.048242995992007161 -0.052459221896956593 -0.041442362795804356 -0.08128804796752867 0.067942450352587752 0.070592420691989052 -0.030001498148899287 0.053285333508906851 -0.0012305673781536242 -0.0014018366907666724 -0.070504542168348519 0.05956771525579483 -0.034696297212980974 -0.068307955058251379 0.042689719119905677 -0.029444227783967894 -0.013396346849092917 0.038288641934574631 -0.050269894296269803 -0.01535805773226996 -0.086718374593704378 -0.087097938732918295 0.053430660226949415 0.030436261067815707 -0.066499426139028595 -0.027754900657951127 0.024017002682051564 -0.0094493142998301922 -0.064470035851123375 0.071117604838020418 -0.062352445366256261 0.06208295281410578 -0.03847427330750966 0.0089986740072067525 0.012496468147064316 0.042954000661957051 0.062844238100498051 -0.08064603930279296 -0.040991092373514053 0.0059144698348382535 -0.078656157836105217 -0.020148205432480564 -0.053552641004599978 0.052585944322117828 0.039501368243404306 -0.068352975786107481 -0.085046753578216311 0.010270726207283799 -0.08207662142448352 0.057417974025338429 -0.062532117655822214 -0.077624060508465181 -0.089519423800510797 0.013248627591383797
leaf_weight=3653.2991201755358 334.12868945184164 1063.9907021669205 254.71745570240091 15.626653104613068 73.85760294564534 44.146085758693516 2271.1962532646867 268.9809476706796 26.51689539605286 16.196346938613715 6.7341529466211787 6.5198832652531591 25.671098142265691 520.64192973381432 303.29365552507807 479.64089410169981 178.17244701739401 18.238484051078562 321.29708148575446 3.3075473695062092 24.876639179186895 66.837251527234912 131.79026231181342 237.81837426964194 309.02964743258781 280.97375706140883 9.4363098843023199 82.52675618592184 13.950405247975139 2035.016725292895 16.701199750415981 83.249511650625209 7.281637600157409 67.595056529622525 154.69232608530729 2221.2982467366382 171.04000916349469 38.459391152486205 25.360017295461148 8.6398694738745672 36.394514777697623 1514.1131587216514 20.720413678325713 201.82614168834698 48.369813474768307 20.214055608026683 731.3706972647924 69.841044472530484 112.00336790885194 148.17791021277662 145.31071672402322 6.3231227532960466 36.960249514784664 413.32866047904827 30.107382850721478 208.6688418079284 88.222524554556003 61.860783737152815 18191.155589306138 11.874454997945575 37.994598349556327 6.4992123846895984 3402.4499600852141 25.03337901039049 501.09357883158373 258.61660731158918 842.73537925491109 29.39480906445533 27.621058670803905 225.51783218886703 61.806189739087131 100.12394065083936 10.425289294682441 10.026056940438137 365.61123797326582 12.092580201569943 440.84708224373389 14223.981894558761 22.537860070449824 149.29186768643558 31.11595657793805 45.273355362005532 144.7325697815977 7.1203265921212724 11.536267339717595 17.935871619731188 273.77968320809305 32.682633290067315 58.667063078057254 233.66189458820736 56.935968646546826 108.82143689064105 6.7197051439434281 5.0594159765169016 81.182540952111594 98.997811262088362 23.371152009814978 19.211010656741564 20.631756207170842 53.599157876335084 102.5166893837013 9.9405732080340368 23.179077530337963 8.7568748379126173 75.496999127095478 26.986680573783815 95.084104933775961 166.06648351659896 15.648474827408792 12.658375259488819 9.6148814335465413 81.243762423750013 21.368158835393842 141.34509928524494 128.98438000088208 19.827535796910524 166.61147206072928 10.814606758300213 7.5743404685053966 131.13759825425223 21.695496310247108 16.638446206226945 136.56535780394915 21.402736919233575 10.50916542066261 31.217408943921328
leaf_count=6072 2960 9168 11760 324 1376 412 8432 4252 724 124 340 408 380 56688 6720 52520 3960 272 3548 168 1544 3424 4432 980 19388 2744 340 872 864 211172 1336 2348 220 1724 7296 4140 464 220 2220 24 356 3720 100 16428 1852 232 3748 340 6872 15544 348 464 2772 42020 368 7296 7120 3136 1910500 196 4132 664 348120 1192 50500 2156 3704 756 152 1440 2224 7168 256 372 26804 1124 1028 25400 420 496 304 908 14928 148 224 1680 2456 1396 2040 3128 3296 4836 432 316 808 1896 1196 720 252 1432 9708 56 1336 208 6056 1052 2500 1832 28 60 56 2812 1976 7200 8992 104 1772 416 584 3744 1900 316 13912 2408 396 612
internal_value=1.186e-10 0.0582509 -0.0652091 -0.0303089 0.00178836 -0.00156492 0.0665725 0.0244639 -0.0377885 -0.0735003 0.0150292 -0.0416817 -0.00423847 -0.0475656 0.0527082 -0.0567951 0.00376177 -0.0746549 0.0256459 0.0185374 -0.0168899 -0.0278747 0.00916783 0.0696122 -0.0114221 0.054796 0.0123458 0.0219449 0.00210828 -0.0712633 0.0161655 0.0400314 -0.0615555 -0.00995666 -0.026368 0.0640594 0.0581317 0.0263639 -0.0150521 -0.00351204 -0.0277723 0.0638031 0.0446312 -0.0363382 -0.0222173 -0.0107891 0.056418 0.0473736 -0.0312682 -0.0485638 0.0688699 0.0372819 -0.0215396 -0.0700851 0.000630937 -0.00635562 -0.0293451 -0.0071786 -0.0747491 -0.0706705 -0.0476758 0.0341494 -0.0724065 -0.0608733 -0.0635879 0.0592842 0.0520903 0.00520988 -0.0700533 0.0534533 0.00804099 -0.0250565 0.0356256 0.0333069 -0.0370445 0.00460053 0.0710262 0.0700373 0.0577714 0.0609557 0.0438827 0.0359427 -0.0550606 -0.0377824 0.0420355 -0.0202824 0.0424357 0.0305441 0.0189018 0.0224143 0.010284 0.0049467 0.0150229 0.0259804 0.0286193 0.0137669 -0.0312978 0.0289512 0.0323397 0.0231713 -0.0462219 0.0308018 -0.017301 -0.0434526 -0.0280229 -0.0312111 0.027101 0.0391326 0.0422504 -0.00132234 0.0490778 -0.00456375 -0.0327007 -0.0302839 -0.0360867 0.0363907 0.0319992 -0.00774963 0.000825016 0.0055431 -0.0536436 0.0262207 -0.0497101 -0.0298661 0.00837415 -0.0126343
internal_weight=61547.2 32508 29039.2 5574.47 4175.7 3275.53 28332.3 2654.69 1521 23464.7 2317.08 958.451 823.162 1000.16 5094.62 883.862 1139.44 22464.6 1493.92 1159.79 426.46 479.523 838.49 23237.7 637.14 4791.33 170.362 489.985 221.004 2298.95 428.278 1515.26 531.991 649.452 394.883 4716.61 2112.94 320.077 240.379 111.115 72.6554 1792.87 278.753 256.098 386.294 40.9345 4455.05 1072.08 369.212 263.929 2603.66 88.8499 132.154 420.61 255.477 225.37 111.381 215.019 22448.4 4257.23 298.839 24.7377 3958.39 555.937 544.063 3382.97 1111.78 54.2714 36.2609 382.365 263.158 115.751 269.042 336.273 404.221 38.6095 18521.1 14867.8 643.793 621.255 180.408 326.247 274.101 129.369 237.054 42.9693 1432.01 368.016 598.111 539.444 305.782 328.111 219.289 221.859 216.8 135.617 36.6193 340.709 321.498 251.657 214.52 13.2481 84.9853 122.248 84.2539 83.9226 139.23 172.801 208.962 28.3069 180.655 95.1942 83.2289 318.699 270.329 335.334 198.058 31.4464 145.432 137.857 31.1318 23.1583 224.805 88.24 61.5541 41.7266
internal_count=3050312 247572 2802740 375828 167336 141620 80236 55804 111532 2426912 67656 73964 35428 88192 33972 81172 39324 2338720 32228 29268 23880 31504 25720 46264 30360 27252 5152 12036 7784 234208 11172 16480 50084 27288 24256 12544 6392 1360 11764 752 532 5032 1312 18728 19768 332 23228 8680 23876 23036 6152 1336 6448 42240 9000 8632 7844 9544 2338596 428096 26408 936 401688 53568 53372 14548 6116 2300 176 2012 7520 7492 2412 4024 28652 1848 33720 27648 2248 1828 800 3652 25472 10544 1664 2872 14132 4964 13956 11916 8788 10972 6136 4440 4124 3316 1420 4932 4212 3872 16580 224 3560 10396 6264 4348 2912 2172 608 88 520 3676 5112 18044 16192 3568 2440 668 4760 4176 2240 724 19744 5832 1112 1008
is_linear=0
shrinkage=0.05


Tree=5
num_leaves=127
num_cat=0
split_feature=6 9 11 7 11 3 6 3 10 3 3 8 4 11 7 10 4 5 4 6 5 6 7 1 11 7 8 5 6 3 6 10 10 7 4 0 10 9 4 6 7 11 0 5 3 11 4 5 10 4 6 8 9 8 9 4 10 7 8 9 7 6 10 7 4 7 5 0 9 10 2 1 10 3 7 2 5 5 8 0 9 2 5 7 6 10 8 0 10 8 6 3 6 7 10 6 7 0 7 11 3 7 10 9 5 10 8 10 10 6 6 4 8 9 7 8 6 11 11 9 6 11 4 3 9 6
split_gain=83527.2 5875.17 2903.45 1639.55 1429.24 606.62 488.892 479.889 402.141 334.461 258.752 165.019 146.488 135.341 195.141 114.791 95.592 94.8899 85.656 80.3465 80.0601 79.4009 103.795 104.871 70.9534 71.3103 85.7324 66.6374 62.427 63.5993 58.2682 55.9107 55.0422 49.004 45.6812 45.5082 57.0487 43.8671 75.0839 42.729 42.6253 47.2048 48.0145 42.6186 43.488 42.173 45.3448 38.2006 36.9958 44.7149 34.6312 34.4357 34.0531 64.7617 35.5426 33.629 58.5129 56.2572 91.4567 50.0012 32.8104 32.7299 33.5575 31.7044 31.1093 62.6144 31.2304 30.5961 30.2504 30.6498 30.1965 38.2097 30.1053 29.8681 42.3552 29.8308 38.6394 29.1555 28.6909 28.451 28.4485 28.4122 26.524 26.4745 29.5481 25.6318 24.9337 24.5937 24.1649 24.1463 24.0929 42.5499 27.8734 24.4494 60.5984 24.5448 24.0084 23.895 29.0543 24.8504 23.5857 23.5554 25.326 23.3909 24.2901 23.3555 23.2911 23.2385 23.115 36.4773 23.58 23.1089 42.7821 23.0856 44.0315 23.0082 22.9991 22.9218 22.695 22.4666 22.2777 22.2293 34.9287 22.2214 26.4771 42.142
threshold=1.0000000180025095e-35 0.0008254578699915001 -0.035681725152576844 0.0018818515096468503 0.00059046532155450002 0.11769017193283492 0.0072822815344884507 -0.00091979920011559988 -0.0016140911644208996 -0.00091979920011559988 0.0034150202032510505 -0.099012013028915838 0.018670845410880405 -0.012699880577415947 0.012190029493443602 0.025531447553388754 0.009733579637966153 -0.036952947491603494 -0.10749505154895564 -0.0037341950360373498 -0.0032168721398549496 0.010189167648754502 -0.16330910151342237 -0.1640516090704757 -0.1229132716764131 -0.26547911545025643 -0.16892844476605676 -0.028339333961428397 0.38763946199004112 0.019206649981418956 -0.0037341950360373498 -0.54961706846743297 0.042254263206817355 -0.094367125275449479 -0.27822399538296855 -0.052612329645157392 -0.49976292326798805 0.04153568089632171 -0.19264614826851167 -0.0037341950360373498 -0.082683225294662446 -0.056351122880539388 -0.37452337174527878 -0.026971257915359498 0.011047323913660851 -0.0185048139437352 -0.056886137126505039 0.024763286963958853 0.011348186551744152 0.004138247329055351 0.009618110758529053 -0.11692829522648018 0.022846909975422453 -0.14331710907691808 0.097842563140976418 -0.014690781057536049 0.020815110267582152 0.0144421964462035 0.55345168250883869 0.25271519997306752 -0.012780042620197298 -0.16157349970545437 -0.13194863121661382 -0.012780042620197298 -0.35893300228320052 -0.30408080774733159 -0.092008122788676039 -0.04361123760616404 0.06979135851373626 -0.11347883939346033 -0.034503629244598495 0.0091978113786963019 -0.30484820532281293 -0.0096049363054049475 -0.16330910151342237 -0.80932431204420141 -0.11720875688876993 -0.0032168721398549496 -0.13356983362512823 -0.80232040444726049 -0.0036000604661147496 -0.070928113973772189 0.022472316518234503 -0.32261902924505498 -0.16157349970545437 0.042254263206817355 0.046828497726924261 -0.041677155463381042 -0.13788754764215541 -0.069125938591996991 -0.27502255945808129 0.041582534266703351 -0.064412001986201242 -0.38097867799402457 -0.54961706846743297 -0.20384631279379267 -0.42401997498009997 -0.76548306656334297 0.016898360569801003 -0.13463675546212836 0.012841791446397952 -0.42401997498009997 -0.39196540005006525 -0.0036000604661147496 -0.033909458287368743 0.0090962521389616018 -0.088925820413791393 0.019205231056583852 -0.18742118614482259 0.055285472227270906 0.051953718291672606 -0.025810143996394946 -0.060169399918410839 -0.015930425500958297 -0.028071369281564597 -0.1251025942406935 -0.12821713237764051 -0.012699880577415947 -0.15325864092306202 -0.16081446118297701 -0.041353102561949941 -0.024980455160325047 -0.045009110841019946 -0.0041234346931765488 0.030548385608164103 -0.016817548119071747
decision_type=2 2 2 2 2 2 2 2 2 2 2 2 2 2 2 2 2 2 2 2 2 2 2 2 2 2 2 2 2 2 2 2 2 2 2 2 2 2 2 2 2 2 2 2 2 2 2 2 2 2 2 2 2 2 2 2 2 2 2 2 2 2 2 2 2 2 2 2 2 2 2 2 2 2 2 2 2 2 2 2 2 2 2 2 2 2 2 2 2 2 2 2 2 2 2 2 2 2 2 2 2 2 2 2 2 2 2 2 2 2 2 2 2 2 2 2 2 2 2 2 2 2 2 2 2 2
left_child=1 7 3 5 9 21 8 24 20 45 32 77 19 14 16 47 35 52 33 43 103 -2 51 27 116 26 72 40 29 97 70 96 123 -13 83 60 -37 39 78 -19 -24 -42 -43 90 80 79 106 61 49 87 -20 -23 -11 88 -55 56 57 58 68 -60 86 62 -12 -17 65 101 -66 -21 69 -33 -27 -72 -26 74 89 -25 -77 -7 -39 -3 -45 82 -63 -28 -85 -65 121 -10 -54 -38 -9 -92 93 94 -93 -96 -15 -5 -99 -100 -41 -53 -103 -4 -105 -48 -47 -71 109 110 -70 112 -81 -46 -115 119 -1 -32 -97 -86 -40 -8 -123 124 -6 -126
right_child=2 4 6 28 10 11 13 12 48 17 15 18 -14 31 -16 63 -18 37 50 67 -22 22 23 75 25 30 34 -29 -30 -31 117 55 -34 -35 -36 36 73 38 120 100 41 42 -44 44 113 46 105 -49 -50 -51 -52 64 53 54 -56 -57 -58 -59 59 -61 -62 81 -64 85 66 -67 -68 -69 108 107 71 -73 -74 -75 -76 76 -78 -79 -80 111 -82 -83 -84 84 115 -87 -88 -89 -90 -91 91 92 -94 -95 95 118 -98 98 99 -101 -102 102 -104 104 -106 -107 -108 -109 -110 -111 -112 -113 -114 114 -116 -117 -118 -119 -120 -121 -122 122 -124 -125 125 -127
leaf_value=0.07111355057026153 0.044163393693023453 -0.090923158835398366 0.026603673841734211 0.030948364524199252 0.036662691980193972 0.036759626790812926 0.011069114295390113 0.066492499814118533 -0.019756786366349047 0.044474652350097774 0.04139717972874541 -0.01533602831273055 0.0034528771860596963 0.078651370853139446 -0.070594473895249907 -0.07079879070831778 -0.068313873821314777 0.0078569266849284319 0.0032615819435401192 0.026194390995195094 -0.037198896037451697 0.063450532660485351 0.05963982205432701 -0.0068167406748697425 0.061931589929456611 0.065772176377452127 0.036618845462864584 -0.025184882477805415 -0.072936632201951887 -0.062757141170210612 0.050657249646416491 0.0861009015738326 -0.029479572807524362 -0.066597957337559036 -0.098932324303655436 0.05912144014035392 -0.080675900696693781 0.038050252719734966 -0.026499104073794924 -0.0090879111920465633 0.034837407814241356 -0.041088008169415158 0.025235184339229607 0.058920039032608722 0.042929574688033156 -0.00030080153140824099 0.034319255240361994 -0.05784373318116072 -0.067740104040734189 -0.063466332571453357 -0.066916447652533351 0.059651071578159735 0.037242657832776582 0.0079022858677356474 -0.03961922724867728 -0.072466455917186298 -0.072073075536393125 -0.068776644591651143 0.05995905040601214 -0.033759641972348202 -0.030743292077049664 -0.02721806612530326 -0.043930685997055643 0.011624399408259257 0.042054933322605632 -0.044126338314814606 0.005043631566798182 -0.053137339373946768 -0.030162165938077901 -0.042697923360009743 -0.096408550697701378 0.075943897958141243 -0.034516570190768502 -0.062181933812109139 -0.081159073267108431 -0.01125534844696496 -0.072483966117853987 -0.030863687187072265 -0.079116639182153004 0.044047791187734338 0.03326402153067181 -0.068348420978178823 0.055423063824643598 -0.067851394149253383 -0.084320348449511751 -0.052056795930647708 0.066241084611558448 -0.079779493826503678 -0.046476504385244741 0.045955538830221243 0.059151729348736005 0.05498563732517206 0.026880272343070791 0.053730989053444936 0.011629507668336033 0.050228904665345887 -0.091733590591158348 0.0010703969047245123 0.06424816411013326 -0.068553541755772052 -0.060440194074178347 0.020671003879050041 -0.086832611384509206 0.020116933652283817 -0.019775208394331261 -0.047161267676837024 -0.084517716812570476 0.055632544976352331 -0.064783586726773687 -0.05219947665607072 0.077146818257709138 0.067280475822845395 -0.017918876481414374 -0.014667156873163693 0.037902430402188533 -0.092162743863923646 0.061288765530093686 0.012369190094445263 -0.093525349363623278 0.047315293077209802 -0.063132608486374017 -0.00031901058706397425 -0.076702225248032191 -0.016561509102212185 0.01024139126623206 -0.061923531198747467
leaf_weight=7268.1495801031488 345.71830936870538 3.8873470858670762 168.05906847935694 21.539078946225345 73.167048526629515 87.502227286982816 87.786087792745093 465.24409240833484 141.4786615917692 125.23027949959942 34.458962836186402 254.84747650993813 167.60868321184535 8.8120712041854841 1107.4001906021731 478.21504290821031 185.70539513404947 501.27905697747337 18.788874767022207 208.46387342642993 101.59533551795175 76.241675113327801 75.28809425648069 94.059179681353271 404.11572492256528 13919.025916666229 121.5510490337474 76.576673332368955 908.83762193494476 226.58847565753968 365.69036321545718 5.474787011742591 197.7760719345024 57.059233369567664 7.902876033447682 12.291988506447522 4.5529707306996015 53.679430946707726 139.46013091644272 58.291162216104567 153.53813680888561 54.98236286919564 54.17799188249046 658.64294129272457 709.51888973700989 54.888574617914855 374.19688020582544 108.03300372592639 472.03808625915553 175.99275608861353 273.09982989658602 38.399641782641993 197.33431971987011 121.7085840748623 58.143762375228107 17755.418627915933 2478.2668780407403 779.056608134415 27.490374239627272 29.509401561925188 173.92207944509573 247.12945821491303 17.311051513068378 18.999035941436887 296.4709236100025 41.633989379974082 70.562219613791967 12.90626242989674 10.839858862105759 84.545142073184252 6.4793866062536818 6.3842070698738098 8.2561517395079118 152.43084945572627 15.048682413063942 45.911331858791527 58.725297303986736 19.489420237019658 5.7882485012523821 954.99914372757485 129.25264504551888 41.950324156088755 10.106334072304888 14.126890190877019 3.6650091288611284 93.887872748658992 13.204382657306267 19.407039880985394 9.0130586801096779 21.737994929077104 1546.567320336675 84.631350253912387 163.92586505878717 625.31732755361008 28.80428284779191 3.4479961330071118 2.7012401102110735 43.388992937630974 3.8661658070050171 39.642376194708049 36.274371498730034 48.992621551267803 6.1682269470766178 74.091577764993417 78.681185550565715 9.0064019528217596 9.6536972576286626 6.4682864942587903 422.85554766468704 107.5519463106757 9.7005724343471211 101.66286870464683 28.690685155335814 54.425180242600618 148.55569146992639 4.2210175078362253 648.84389624888718 43.7681114745792 13.476451639086006 28.04285405180417 59.082298423862085 42.142633071634918 23.209428918882622 99.852462235437997 158.80007777223364 23.183811367955059
leaf_count=11616 3436 160 3100 724 1248 1552 3476 1284 8404 1316 864 14052 4952 8 119488 52972 19524 14420 856 3476 7500 332 584 4140 1112 27800 804 4156 97248 22988 1620 12 12592 5496 96 144 372 976 7940 2532 2212 2484 1020 2356 5776 1440 4552 9464 53968 19076 27824 288 2636 3092 3060 1889348 265128 83816 536 2612 11608 15684 1304 996 3508 1884 1808 732 784 7348 120 8 60 13780 1200 2164 4576 1196 508 7540 1108 3676 220 68 40 9364 160 2036 444 444 5648 388 1956 3232 232 28 112 1628 56 4020 2760 832 360 2020 3820 300 676 164 43664 10660 92 364 656 1356 1364 148 1788 760 436 128 4976 1960 2276 4740 4572 1712
internal_value=-1.63249e-11 0.054843 -0.0627609 -0.0200758 0.00186572 0.00540745 -0.0687716 0.0634064 -0.0380581 0.0227947 -0.0360298 -0.0327903 0.0494097 -0.0703762 -0.0573537 -0.0506053 -0.0373233 0.00478539 -0.0429317 0.0509969 0.00148265 0.0230669 0.0169469 0.00261549 0.0664818 0.0644531 0.0474454 0.01693 -0.0661357 -0.0476867 0.065155 -0.0714787 -0.00834121 -0.0247137 0.0186033 -0.0267891 -0.0453328 -0.00541624 -0.0226387 0.00204137 0.0264718 0.016966 -0.00817077 0.0524034 0.046106 0.0387921 0.025874 -0.031845 -0.0587069 -0.0460494 -0.0623991 0.0321401 0.0218174 0.0144706 -0.00746076 -0.0715371 -0.0673717 -0.0595179 -0.0492784 0.0114399 -0.0155591 -0.023842 0.0128649 -0.0651727 0.027387 0.00688303 0.0349395 0.0215692 -0.0546239 -0.028798 0.0657014 -0.01087 0.0600006 -0.051959 -0.0142641 -0.0272505 -0.0456187 0.0244415 0.0266459 0.0441023 0.0547112 -0.0301936 -0.0239712 0.0240161 -0.00658723 -0.0413392 0.000316985 -0.0269971 0.0335859 0.024026 0.0560562 0.0540874 0.0455703 0.0496246 0.029927 -0.0164496 0.0386758 -0.0161955 -0.027881 -0.0567528 -0.0287861 0.029582 0.00864968 0.0137316 -0.000428358 0.0324042 -0.0128973 -0.0357096 -0.0591469 -0.040539 0.0205163 0.0445859 0.0422404 0.0386758 0.023807 0.0175013 0.0703084 0.0465645 -0.0642385 0.0321 -0.0374005 -0.00536734 -0.0274461 0.00343519 0.0112608 0.00104795
internal_weight=60667.7 32376.2 28291.6 3492.1 4505.14 2248.23 24799.5 27871 1231.34 2902.27 1602.87 710.787 5020.79 23568.1 1839.43 1050.09 732.032 1365.28 603.795 4853.18 422.427 1537.45 1191.73 613.259 22850.2 14933.2 591.882 414.563 1243.86 335.025 14341.3 21728.7 552.779 311.907 179.51 546.327 206.062 853.855 258.01 595.845 337.987 262.698 109.16 4631.81 1700.4 1536.99 447.746 458.989 808.917 336.878 291.889 578.469 511.43 386.2 179.852 21717.2 3961.76 1483.49 704.436 56.9998 340.265 350.956 51.77 591.102 502.228 135.194 367.033 221.37 647.436 96.4882 13931.9 12.8636 412.372 193.77 41.3396 198.696 104.637 106.992 59.4677 1089.24 787.896 299.186 257.236 171.607 50.0558 112.887 166.343 160.886 206.347 26.291 2931.41 2466.17 919.603 755.677 130.36 45.7287 11.5133 108.437 86.8975 43.5085 94.5655 93.5605 55.1608 320.832 152.773 383.203 64.5423 91.0134 550.948 128.092 20.5404 1085.35 983.69 912.5 202.981 35.9289 7916.99 409.458 16.9244 31.7079 198.542 153.138 65.3521 355.003 255.151 181.984
internal_count=3050312 260248 2790064 211424 179756 84760 2578640 80492 99924 60348 119408 50976 34324 2478716 174432 94544 54944 44660 48228 29372 16440 33784 30348 21336 46168 32764 2456 10456 126664 29416 30308 2304284 24864 19548 1284 35420 15940 34112 14400 19712 6300 5716 3504 25164 11960 15688 6968 31212 83484 29516 28680 9012 10548 9232 6152 2304164 414816 149688 65872 3148 19480 21748 2168 63332 8680 3364 5316 4208 62724 7524 27928 128 1172 15796 2016 10880 6740 2748 1484 8720 3464 19580 15904 1188 384 10360 7872 10440 3080 816 13204 11920 6272 4316 1084 696 120 6428 5704 4076 5292 1480 1192 8940 5840 4852 2116 7512 55200 11536 876 8560 8196 8496 2720 316 13404 2380 464 168 12916 7712 4236 12272 7532 6284
is_linear=0
shrinkage=0.05


Tree=6
num_leaves=127
num_cat=0
split_feature=6 9 11 7 11 3 3 11 7 3 3 3 4 8 8 9 10 6 10 8 4 11 4 6 7 10 11 6 6 8 3 7 10 4 8 6 5 7 3 11 1 7 7 9 4 3 5 11 10 2 5 3 8 2 4 10 8 1 11 5 8 6 9 6 8 4 7 10 5 9 5 9 3 5 8 2 3 9 11 6 11 11 9 5 11 2 4 11 9 0 3 6 4 6 7 7 3 4 3 0 10 7 1 7 11 11 8 11 0 7 3 6 10 5 8 11 4 6 11 8 6 5 9 4 5 7
split_gain=75135.2 5668.27 2611.37 1385.96 1339.74 515.955 468.554 368.736 470.402 310.793 238.941 220.777 146.144 134.666 90.6097 90.4283 88.3451 83.4815 78.8633 76.6976 87.9378 161.505 73.5877 73.0337 76.9095 68.9995 62.7799 61.1065 59.7347 59.141 58.6688 53.31 92.6668 86.385 84.106 51.7486 50.5302 46.2819 43.5693 43.4147 70.6587 190.726 48.5787 41.8268 41.418 59.8116 40.2251 39.9872 54.6031 43.0416 49.0515 39.7917 80.7059 77.1038 50.4124 39.768 38.2779 54.868 115.193 70.6949 37.7663 37.4372 37.1458 35.7485 49.2687 35.4002 37.0366 34.5537 34.3545 59.3839 41.8184 33.973 33.855 33.5208 33.3415 32.9979 32.5433 32.4385 31.3642 31.5592 30.8893 30.508 30.9149 30.4731 31.7763 29.9944 29.3858 29.3363 29.0783 28.5589 27.4141 36.4387 27.2555 26.6683 26.5678 26.3631 26.3584 26.351 26.2702 26.4519 26.0815 26.0125 25.982 42.4513 25.8692 25.5738 24.7374 24.3688 24.1753 24.0942 23.9683 23.76 23.4865 28.1854 45.1766 46.5825 23.4484 97.2849 47.8679 27.9358 23.2828 30.7462 30.6726 23.222 49.1955 27.3298
threshold=0.00085060913255705008 0.0008254578699915001 -0.039480651132545841 0.0144421964462035 0.00059046532155450002 0.11769017193283492 -0.00091979920011559988 -0.0094313505044060983 0.0095047469498776519 0.0034150202032510505 0.010469194674006602 0.0077407982934309012 0.032043446353741456 -0.099012013028915838 -0.14331710907691808 0.097842563140976418 0.025531447553388754 -0.0053528004884638497 -0.39196540005006525 -0.14331710907691808 -0.11877985274241108 -0.10350079252243893 -0.10749505154895564 0.091394907907553211 -0.30408080774733159 0.042254263206817355 -0.0185048139437352 -0.0037341950360373498 -0.0053528004884638497 -0.11692829522648018 0.085743170838529156 0.0065947676745070514 0.011348186551744152 0.004138247329055351 0.55345168250883869 0.010765714641625101 -0.0032168721398549496 -0.094367125275449479 0.031165875416516556 -0.083825197991552233 -0.42057647723941954 -0.11124349989688208 -0.088325248584681479 0.22472623776415815 -0.35893300228320052 -0.013063238250485899 -0.092008122788676039 -0.083825197991552233 -0.036009524897050893 -0.34106366708192792 -0.14492367582676083 0.024252675605057103 -0.14331710907691808 -0.25450856101252783 -0.25295238469823728 -0.30484820532281293 -0.072304593469979181 -0.19455881273770928 -0.053306540503378193 -0.043185567702448448 -0.083698850645176986 0.009618110758529053 0.089840472119542311 0.0045241110883522005 0.028184007940460106 -0.24035566722904447 -0.21599562526946567 -0.0082190241003474492 -0.057515047680911639 -0.026507519682819548 -0.055276014121391444 0.054566328679529062 0.0098545131368726526 -0.11720875688876993 -0.063122777340746797 -0.79166511019106456 -0.0041234346931765488 -0.097335858174731379 -0.07425207018393358 -0.020917646569930195 -0.095961094187020188 -0.10350079252243893 0.094852708634229413 -0.068592417190583885 -0.066206095809011337 -0.42951263886762253 -0.12644746359579581 -0.024980455160325047 -0.045850665031876792 -0.037024064000987691 -0.022726482843713446 -0.025912556525844645 -0.32760817851273977 0.0021640613725966503 -0.18338193111625953 -0.21599562526946567 -0.040430659698413092 -0.20677863447599126 0.030516938843894555 -0.0206771744507958 -0.058751491942353788 -0.040707184913614046 -0.37977546333282947 -0.21599562526946567 -0.11255253560225294 -0.13463675546212836 0.55345168250883869 -0.0018612920949458496 -0.3476777543508433 -0.057173249197081895 -0.054477347179965489 0.14742130922132113 -0.028834653269411547 -0.028339333961428397 -0.048228472781877647 -0.0278115662458444 -0.056886137126505039 -0.064412001986201242 -0.04803459612627644 -0.079379052946775441 0.38763946199004112 -0.076046880561629185 -0.045850665031876792 -0.11877985274241108 -0.11720875688876993 -0.22678843108023053
decision_type=2 2 2 2 2 2 2 2 2 2 2 2 2 2 2 2 2 2 2 2 2 2 2 2 2 2 2 2 2 2 2 2 2 2 2 2 2 2 2 2 2 2 2 2 2 2 2 2 2 2 2 2 2 2 2 2 2 2 2 2 2 2 2 2 2 2 2 2 2 2 2 2 2 2 2 2 2 2 2 2 2 2 2 2 2 2 2 2 2 2 2 2 2 2 2 2 2 2 2 2 2 2 2 2 2 2 2 2 2 2 2 2 2 2 2 2 2 2 2 2 2 2 2 2 2 2
left_child=1 6 3 5 9 23 19 8 11 26 25 63 17 81 43 27 -12 51 94 -1 21 65 37 36 -25 76 116 38 39 46 60 32 33 34 35 97 47 -15 67 -22 41 83 77 -11 -26 106 -23 -2 49 -49 -51 -8 80 55 -55 104 -42 58 74 68 -20 -24 -36 -4 111 73 -67 -16 101 70 -70 89 107 -21 -58 -17 -6 -43 -44 -80 -53 -7 -83 -41 -85 -61 -48 -62 102 -28 91 -71 -45 -89 -13 -31 -73 -9 99 -19 -72 -60 -57 -104 -54 -100 -46 -69 -102 -64 -79 -65 -59 114 -114 -116 117 123 -119 -120 121 122 -5 124 -3 -126
right_child=2 4 7 120 10 13 12 31 -10 14 16 18 -14 22 15 75 -18 98 30 20 28 29 61 24 44 -27 71 -29 -30 95 -32 -33 -34 -35 62 -37 -38 -39 -40 40 56 42 78 92 45 -47 86 48 -50 50 -52 52 53 54 -56 88 57 112 59 85 87 -63 109 64 -66 66 -68 72 69 90 100 96 -74 -75 -76 -77 -78 110 79 -81 -82 82 -84 84 -86 -87 -88 93 -90 -91 -92 -93 -94 -95 -96 -97 -98 -99 105 -101 108 -103 103 -105 -106 -107 -108 -109 -110 -111 -112 -113 113 -115 115 -117 -118 118 119 -121 -122 -123 -124 -125 125 -127
leaf_value=0.067180852536921229 0.043509605605708712 0.047152459164740687 0.020976019554667127 0.027231478618904278 0.0096459956979821817 0.043431224363169166 0.054889792033019885 0.046041366167556934 -0.06756622615824974 0.030985533681680794 -0.034166309516927555 0.042739526503981162 -0.010182060969971971 -0.013984045079943865 0.030704545961482095 -0.018814364254256796 -0.065054726412976646 0.032102461971679645 0.04512432258163232 0.044748605425447556 0.070453417026809004 0.035932557126726973 0.014640255859380492 0.039859895759597509 -0.052364933845498354 -0.034315548477421576 0.026746748880302668 -0.037739801675794438 0.049277695689131686 0.016705908124236543 -0.060129897187781604 -0.069554968853219809 -0.068384449310166795 -0.068328191785004405 0.078610494143441581 -0.054125561284943405 -0.051273031557439341 -0.063204073792789597 -0.0068408168238026663 0.067225140339114461 0.070358642933128462 -0.041071362223823855 0.021462620099749734 0.024088496573849039 0.012445230659409785 -0.023165592629931665 -0.07628664941828793 0.020551615617443425 0.056080136739190982 0.042132925068066422 -0.068880982433411411 0.056745442832694018 0.012112890486249471 0.023545930807341978 -0.046099987961777472 0.056946357044683926 0.068799941850231153 0.069457446405561132 0.060994416644125429 0.060543494543446222 -0.018878940115530981 -0.063174330115780927 0.014873130352295467 -0.011928483717097064 0.047498744122534159 0.06718308126775728 0.043976482194382154 0.029737574266388719 0.038388125561839112 0.049186761303597781 0.018559703169894828 0.0066168968765505601 -0.03939610523857217 -0.043958816851746352 0.049718154794373831 -0.070861274771459884 -0.017606914390824749 0.051992561514084296 -0.091734902213328473 0.0067950080950195573 0.022836739009596922 -0.07724597990807186 0.017657773137443208 0.049070334770481443 -0.037105277137418152 -0.065035161882667544 0.053799498431980987 0.012123914223662959 0.031115519193351229 -0.066847456542596606 0.048621391469992684 -0.099237743803924916 -0.042394845410587211 -0.055532296574495259 -0.073107746668657311 -0.047015229462257835 -0.064971113545677764 -0.028842919240183097 0.066210125004453918 -0.084149211707544622 -0.10018739390409448 0.0091529344482279267 0.050323832948562922 0.0064881209751841548 -0.087324427877161478 -0.040390717359041983 0.066275033399542174 -0.08557681384121002 -0.0099081203987289052 -0.071852334568302659 0.026493705764432659 -0.075831542998812562 0.062509756796954835 0.065989413984626252 0.048306624590712013 -0.0074280164059315843 0.052967349145206392 0.029514577121660397 -0.012604902492719425 -0.086825284935545588 -0.070105008287059484 -0.059795278310105726 -0.072034166602151714 0.063655987340348691 0.024124964814526677 -0.034528247092128143
leaf_weight=8613.3482859927899 363.51575195362238 462.72856754610257 154.97754435197567 21.965963159222156 261.24471021700447 63.159597987541929 2122.583750640857 12.590403427369891 1492.2533973713289 291.01495045225602 401.10563133395044 34.076153316535056 110.91710794728715 251.08995574168512 202.99050465904293 56.606905968510546 547.42308776336722 416.1724456762895 15.43474398049875 233.97969767883478 1867.993624676019 197.01802568882704 16.412425744580105 115.82458632752969 44.356227894546464 255.53526697833149 478.17998453363543 96.346941445139237 792.04479076294228 25.516175742028281 369.34604635127471 17540.760848361271 2801.5491916458705 514.61321884114295 16.993164098355919 562.32311265979661 19.359323780052364 58.978792958019767 361.68866655931924 907.49020763859153 1806.4068160764873 14.410002440214155 31.996242974884808 26.939867900218815 123.25065611395985 147.20613868057262 14.501016987487676 487.82433936138113 102.76402927102754 15.113734010141341 29.125561399385333 1099.3894240230438 28.470907323993742 65.569690930191427 43.036576645332389 377.99067324743373 729.28005238808692 1688.608426278457 166.46035066992044 5.8932815715670612 150.80465299432399 265.48766885558143 28.066543828928843 260.89760038499662 34.972501144278795 761.98814805597067 222.02400529198349 52.453285627998412 24.543193874880672 8.9794077668339032 12.39370648562908 44.859595768386498 41.990546529879794 11.157474247273056 333.65668408037163 65.913695882540196 188.63722827081801 140.43037252128124 18.32936600164976 14.600802288390694 71.532364186830819 12.593410996254532 26.933067865204066 58.994059111922979 13.066695706918834 24.617690283805132 6.1962658017873755 16.08202031464316 378.56499128516589 8.2918198830448073 143.56082733867515 7.6650180378928772 36.038038520026021 154.43830179567158 5.7899750501383087 44.610690773464739 18.02453094930388 175.53870261278644 7.2772247921675435 4.9514776123687616 20.124907402321696 28.3130416078493 172.07562560448423 81.335693625267595 8.4914576066657883 24.798518888186663 25.812462287023664 5.0199498985894015 11.741949871182443 11.206296888412906 268.10258387346403 15.404839282156898 950.47333488613367 1995.768774674274 349.98227283079177 41.987368000671268 310.66150391055271 66.127746407059021 56.638077615876682 16.33453096577432 803.79868829855695 178.83849382260814 12.0516382206697 128.96127820666879 78.005431667901576 26.644388976041228
leaf_count=15164 3476 2848 3380 812 7720 876 8256 312 165412 5016 28760 688 4204 13460 3224 3080 60852 5700 224 1208 2844 844 628 1612 3020 18320 7108 6424 4044 240 36844 1908124 306888 56564 120 57208 1532 5836 14536 1608 2900 44 132 488 3516 7748 104 9736 780 152 1356 4496 384 752 1364 1580 1228 2560 400 24 8576 27548 1532 12028 472 1400 664 972 52 40 36 1108 1988 152 736 5512 10100 336 180 168 892 856 848 116 88 168 12 640 4328 412 500 56 1900 14480 620 640 1128 11580 48 360 72 140 840 1084 400 972 152 332 32 1248 936 1420 1800 3700 928 348 1824 768 1256 612 87256 18872 1312 484 876 616
internal_value=5.91702e-11 0.0518549 -0.060614 -0.0180405 0.000379289 0.00454017 0.0604022 -0.0661793 -0.0487716 0.0206743 -0.0356039 -0.0256354 0.0465727 -0.0309863 0.00161759 -0.00695054 -0.0519929 0.0478568 -0.042505 0.0634687 0.061184 0.0498168 -0.0401553 0.0212811 0.00466323 -0.0135667 0.034578 -0.000528148 0.062566 0.0161039 -0.0463679 -0.0683525 -0.0632364 -0.0523214 -0.0421105 -0.0465312 0.0287343 -0.0233463 0.00487013 0.0634666 0.0621373 0.0520186 0.0264764 0.0229902 -0.00730487 -0.000558657 0.0289667 0.0302858 0.0227135 0.016269 -0.0309546 0.0499393 0.0454226 0.0360482 -0.00405213 0.0402081 0.0639154 0.0621368 0.0538033 0.0327295 -0.0312742 -0.0586439 0.01685 0.00135479 -0.00841422 0.0577117 0.0619469 0.0188746 0.0380219 0.024893 -0.0139587 0.020681 -0.00526847 0.0407111 0.0628102 -0.0468146 -0.00178125 0.0326581 -0.0137926 -0.048048 0.0546739 0.0218714 -0.0125792 0.06474 0.0334442 -0.0407793 -0.037342 -0.034944 0.0420723 0.0251515 0.0415788 -0.019165 -0.0139555 -0.0491515 0.0259144 -0.0238298 -0.0139024 -0.0238313 0.0274133 0.0307356 -0.0429859 0.0534585 0.0486416 0.0362542 -0.0107311 -0.0162055 0.0217666 0.0196655 -0.0669223 -0.00987352 0.0352588 -0.0154913 0.0646521 0.0622214 0.0566195 0.0423364 0.0412392 0.0368781 -0.00129716 -0.0292187 -0.0662112 -0.0515074 -0.00793601 0.0445039 0.0401508 0.00919155
internal_weight=59761.4 32207.8 27553.6 3185.46 4586.41 2168.81 27621.4 24368.1 2704.48 2932.46 1653.95 1212.22 5013.16 694.655 1237 883.01 948.529 4902.24 745.972 22608.3 13994.9 1516.99 591.969 1474.15 456.45 705.417 1695.46 760.49 12477.9 287.842 706.106 21663.6 4122.88 1321.33 806.718 750.452 1017.7 310.069 664.143 11685.9 9817.88 1467.42 487.869 353.993 340.625 296.269 217.715 998.343 634.828 532.064 44.2393 4449.04 2326.46 1155.54 108.606 1046.93 8350.46 6544.05 1517.23 454.293 336.76 281.9 56.266 466.252 311.275 1229.15 984.012 302.454 423.782 229.009 68.8038 549.356 99.4638 245.137 1062.94 122.521 449.882 422.943 64.9264 32.9302 1170.92 102.686 39.5265 979.551 72.0608 30.511 20.6973 321.325 1009.97 486.472 160.205 16.6444 62.9779 170.52 39.8661 70.1269 62.8841 188.129 453.2 421.124 44.2606 194.773 631.402 253.411 36.9624 32.0757 149.063 57.4732 31.8669 39.2728 408.533 276.302 5026.82 3338.21 1342.44 391.97 1146.1 835.44 139.1 72.9726 1016.65 212.856 34.0176 696.34 567.378 104.65
internal_count=3050312 270568 2779744 191384 188264 83132 82304 2588360 244784 62512 125752 79372 35660 50052 43472 36068 89612 31456 62072 46644 31480 5264 47472 33080 16048 36140 19040 27476 26216 1840 60764 2343576 435452 128564 72000 69100 17032 19296 21052 22172 19328 3608 1796 7404 14436 11416 960 15500 12024 11244 1508 24376 16120 10732 2116 8616 15720 12820 3484 1520 23920 28176 2900 17300 13920 3424 2064 6516 1328 788 192 9756 3292 1360 1964 8592 17820 1316 480 348 5388 2580 1704 1812 204 192 116 23696 7832 7520 596 96 2388 15120 1308 880 2236 11892 7080 6060 140 540 3504 1924 784 1020 3668 1304 104 2780 1272 13448 9336 6776 3076 1276 9284 7460 2636 1868 108252 20996 2124 4824 4340 1492
is_linear=0
