tree
version=v4
num_class=1
num_tree_per_iteration=1
label_index=0
max_feature_idx=11
objective=lambdarank
feature_names=mfcc_norm_mean_dist mfcc_norm_min_dist mfcc_norm_centroid_dist mel_band_mid_norm_mean_dist mel_band_mid_norm_min_dist mel_band_mid_norm_centroid_dist mel_band_low_norm_mean_dist mel_band_low_norm_min_dist mel_band_low_norm_centroid_dist mel_band_high_norm_mean_dist mel_band_high_norm_min_dist mel_band_high_norm_centroid_dist
feature_infos=[-0.999903462988043:1] [-0.99996465887549157:1] [-0.99999990157385565:1] [-0.41239619522111892:1] [-0.47722808472567629:1] [-0.19884795789535559:1] [-0.49426878710928318:1] [-0.50721817693871096:1] [-0.22753659441171439:1] [-0.58193245165184604:1] [-0.6205261611915921:1] [-0.19390983941355919:1]
tree_sizes=28240 28127 28159 28199 28272 28182 28241 28127 28265 28220 28170 28216 28218 28213 28208 28203 28237 28221 28254 28233 28266 28269 28187 28298 28257 28325 28208 28240 28212 28229 28251 28259 28307 28241 28303 28246 28289 28304 28251 28301 28273 28215 28303 28354 28387 28309 28316 28343 28350 28356 28361 28372 28329 28307 28388 28384 28426 28342 28430 28451 28428 28380 28381 28359 28399 28384 28408 28406 28364 28317 28439 28405 28382 28434 28362 28405 28406 28411 28359 28452 28442 28453 28380 28405 28339 28477 28373 28451 28485 28513 28511 28258 28334 28481 28347 28332 28541 28526 28467 28556

Tree=0
num_leaves=255
num_cat=0
split_feature=6 11 11 7 3 9 3 3 11 3 7 7 10 5 4 10 7 7 9 4 4 10 10 6 7 8 6 9 6 3 5 3 4 9 6 3 2 8 11 6 6 2 2 10 6 11 6 8 11 4 8 9 6 3 11 1 5 7 3 9 10 9 8 5 10 6 6 11 3 4 8 6 6 8 5 1 5 11 0 7 7 6 9 6 6 3 10 2 3 6 4 10 1 4 11 9 4 7 0 10 8 4 5 0 5 3 8 9 11 8 1 8 0 8 10 9 0 5 11 8 0 6 2 3 5 0 6 9 11 6 7 11 8 4 4 0 2 3 6 7 8 5 9 5 5 1 4 0 7 1 5 7 7 4 6 2 10 8 0 8 2 9 6 11 1 8 2 5 8 5 1 6 11 3 10 9 2 6 5 8 10 11 3 5 11 7 1 5 3 1 8 8 4 2 7 7 6 8 11 4 9 3 10 10 7 4 6 0 6 2 9 11 9 3 7 10 2 6 9 3 1 10 3 5 9 9 9 4 8 3 11 4 10 4 10 0 6 8 0 7 4 6 6 9 4 4 7 10 6 4 6 6 9 2
split_gain=63880.9 4791.42 3027.64 1760.56 656.575 498.257 416.203 394.229 419.999 273.082 221.471 181.626 178.402 96.859 93.2861 90.0911 90.9035 86.4815 174.298 103.827 79.6749 73.3366 72.8881 69.8496 108.028 55.5574 53.1754 73.39 50.2018 50.8994 47.0978 42.4635 40.3675 39.0977 35.7823 32.7493 32.1193 40.6711 29.3931 28.4885 28.1889 25.9592 33.9068 24.9252 24.8069 24.1706 23.8528 26.0639 23.7129 22.1767 21.8425 21.3894 39.6015 63.3232 25.1776 21.1616 21.0616 20.9446 27.1175 31.2232 20.426 20.4255 20.4182 20.2816 34.791 33.6331 27.3446 20.1921 20.0007 24.4536 24.317 19.6101 19.5863 26.1563 19.1967 19.0881 21.9903 26.6035 18.5838 18.0296 17.7331 17.6946 17.58 18.3041 17.5239 17.5056 17.3843 17.3416 17.32 17.265 17.1289 16.8273 16.5609 16.5372 16.0622 15.9951 15.9843 21.9868 15.582 15.4628 15.0127 19.3506 14.9706 17.2103 14.802 14.7918 14.7809 19.5698 14.6696 14.7207 17.9521 14.3856 14.3087 14.0722 14.0633 13.7683 13.7348 13.5338 13.3715 13.3441 13.3321 14.9981 17.5404 13.2574 13.1268 13.0529 12.8901 27.0026 12.8798 12.835 22.2086 12.7072 12.6984 25.2358 13.8624 12.6157 12.5433 12.4405 13.3758 12.5595 19.2057 12.2142 12.2011 20.6781 12.1506 12.0612 11.9607 11.7861 11.7138 27.864 15.6543 11.5858 11.5004 23.6597 11.4839 13.1964 11.3994 11.3316 11.1725 11.0835 32.8722 11.017 20.4306 13.1831 13.3182 10.9384 10.8862 10.8716 10.796 12.0455 10.6301 10.3546 14.3493 17.8876 10.3077 10.2112 10.0963 10.0117 9.9197 9.88535 9.79712 18.6716 11.2746 14.2643 10.658 14.2762 9.75175 9.56102 9.53269 11.9069 9.52811 9.51004 9.46433 10.7678 9.45982 9.42424 10.7711 10.5632 9.39078 9.32566 29.9569 18.3032 12.6109 9.30785 9.2897 9.21124 9.04488 9.03866 8.90984 8.88561 8.86714 8.86633 20.3385 32.0732 8.83769 8.70473 8.66301 8.62396 12.8261 8.89064 15.2894 11.185 8.58676 8.58275 8.56478 13.1273 8.53461 9.40243 8.48254 8.44341 8.42177 8.38841 14.6603 8.27129 10.6565 8.26258 8.22036 8.20876 10.4184 9.48181 8.18279 8.18179 9.81626 8.09138 8.04782 7.96839 13.2193 7.84656 7.84104 9.98347 10.4428 24.1315 8.88959 7.80123
threshold=0.0017051035727872002 -0.0018612920949458496 -0.039480651132545841 0.0144421964462035 0.11769017193283492 1.0000000180025095e-35 0.0034150202032510505 0.0077407982934309012 -0.012699880577415947 0.0054453154872300012 -0.28424761440943552 0.013233925769729251 0.023904008078131502 -0.060079882291592744 0.032043446353741456 0.010970237148121151 0.010524997688218452 0.00093045892046080014 0.077948893725566556 -0.013354435227465248 -0.21405234211219368 -0.37328698912332725 0.012784269819060451 0.079539346779270464 -0.15226911050137446 -0.052605783686053446 -0.0037341950360373498 0.029132071082589705 -0.16157349970545437 0.07126240316224676 -0.0032168721398549496 0.027740546469849654 -0.38555732073675802 1.0000000180025095e-35 0.0093324142846851008 0.00042214349281005002 -0.34990994733638608 -0.060169399918410839 0.014725521605596151 -0.0037341950360373498 -0.0023611826409917496 -0.80124671205615949 -0.86564938341917796 -0.080298948518300786 -0.0037341950360373498 -0.039480651132545841 0.0072822815344884507 0.0056220971936392005 -0.0094313505044060983 -0.089999833392422984 0.0098206601838221521 0.0082451675989639022 -0.012737332371508299 0.17413604612246347 0.084073563556139361 -0.035503738986688148 -0.0058304278926451488 0.049616208791289952 0.0037406593637641507 -0.045850665031876792 0.061046975440215208 0.012765780932496302 -0.031552265631799047 -0.043185567702448448 -0.10757137916985975 0.053586361523184654 0.89748291365749555 -0.050695342929078291 -0.040430659698413092 -0.025810143996394946 -0.099012013028915838 -0.0011443178822749497 -0.016817548119071747 -0.036653742084290591 -0.029789565562878897 -0.81545043260564565 -0.10974279303783244 -0.07425207018393358 -0.058337611893538893 -0.012780042620197298 -0.0056784096273943497 -0.012737332371508299 -0.0036000604661147496 0.14742130922132113 0.00042346322955030005 0.57666328308262704 -0.20646283863969964 -0.97933402214714282 0.04228511720413141 -0.0011443178822749497 -0.21405234211219368 -0.33952911579927914 -0.18344425467912809 -0.35893300228320052 0.044071204072189306 0.12705976237045399 -0.22956010659440954 -0.38097867799402457 -0.77543205912078872 -0.18742118614482259 -0.1251025942406935 0.20183176111990811 -0.0032168721398549496 -0.023583972803832946 -0.0058304278926451488 0.036394362652385055 0.0035784316140633006 0.019822700049560455 -0.019684345204548297 -0.15367539589717169 -0.39064885853141179 -0.16892844476605676 -0.77059482515112132 -0.083698850645176986 0.003935418130385001 -0.21408616132901345 -0.7888661387879331 -0.036952947491603494 0.0054906612905179014 -0.0098954303160121975 1.0000000180025095e-35 0.012707903033904202 -0.13006264070809301 0.0016147914055424002 -1.0000000180025095e-35 -0.048734093237374744 -0.27502255945808129 0.40140216909996568 -0.069913833436373085 -0.27502255945808129 -0.03427590385478619 -0.0278115662458444 -0.14331710907691808 -0.21405234211219368 -0.31447601059798125 -0.056170136733648797 -0.42130280142075061 0.0095625231745747018 -0.025912556525844645 -0.071806070524719184 -0.099012013028915838 0.55345037671951858 0.0069484519821188017 0.011474049063197302 -0.072335515251896146 -0.39913915048827281 -0.24035566722904447 -0.77059482515112132 -0.0093157948725072475 -0.18697860601765851 0.0022635978075644506 -0.066324885642676676 -0.30408080774733159 -0.35893300228320052 0.014116534958456252 -0.40096618001852485 0.0079763475466012521 -0.18812097621629584 -0.039463778934062492 0.024636028027863851 -0.28903895389933626 0.29255563934355039 -0.20384631279379267 0.0064889324961932013 -0.82014819806784789 -0.16892844476605676 -0.97933402214714282 -0.0058304278926451488 -0.022801650109796148 -0.023087400814097995 -0.18344425467912809 0.032194216059201558 -0.078910147583590926 0.048341739357624959 -0.33952911579927914 -0.035180312657707498 -0.54779803076044942 -0.20384631279379267 -0.060079882291592744 -0.072304593469979181 1.0000000180025095e-35 0.0064889324961932013 0.033238716689898605 0.0061748418844964513 0.0084053382887801006 -0.031065433424718649 -0.39894943082518525 -0.076046880561629185 0.010760501891325552 -0.8201589118606224 0.012914510097409352 -0.038458592587831943 0.080419468574613462 -0.85603978788927193 -0.26547911545025643 -0.19437252447328937 0.17358479490628687 -0.10429857244057984 0.013832832410515703 -0.022317411556834445 0.014188509695189751 -0.0070099833349474986 -0.017167543238308696 0.028722699560555256 -0.42401997498009997 0.00043421374306940004 0.083570598686636369 -0.80232040444726049 0.68135811004991054 -0.860558144957008 0.00042892985398575005 -0.019684345204548297 0.050418315523701157 -0.072929626336154491 -0.010992375111047397 -0.45706731900926428 -0.04824299522764184 -0.0070417584737915992 0.025018928451485452 -0.0019319980519327997 -0.044911205064562192 0.0063595638033953012 0.029215998351413003 -0.055276014121391444 0.023546436080699503 0.024227843527431653 0.044642140556954306 -0.19264614826851167 -0.015386994346571798 0.0074306682160769017 0.0057002563737057008 -0.013354435227465248 -0.013941135128088299 -0.25295238469823728 -0.23619310258729348 -0.39431288950862958 0.04389578190667616 -0.042267481613058037 -0.045428044470413244 -0.020026338653183647 0.0017193500323425502 0.006628477071749051 0.0099159604706127013 -0.005164085215007299 0.037692203881514612 -0.0028191056729775497 -0.020026338653183647 -0.085856048029752094 0.016704973267467751 -0.023960675622589196 0.21793412198964413 0.21245951657827497 -0.045850665031876792 -0.42724519660554738
decision_type=2 2 2 2 2 2 2 2 2 2 2 2 2 2 2 2 2 2 2 2 2 2 2 2 2 2 2 2 2 2 2 2 2 2 2 2 2 2 2 2 2 2 2 2 2 2 2 2 2 2 2 2 2 2 2 2 2 2 2 2 2 2 2 2 2 2 2 2 2 2 2 2 2 2 2 2 2 2 2 2 2 2 2 2 2 2 2 2 2 2 2 2 2 2 2 2 2 2 2 2 2 2 2 2 2 2 2 2 2 2 2 2 2 2 2 2 2 2 2 2 2 2 2 2 2 2 2 2 2 2 2 2 2 2 2 2 2 2 2 2 2 2 2 2 2 2 2 2 2 2 2 2 2 2 2 2 2 2 2 2 2 2 2 2 2 2 2 2 2 2 2 2 2 2 2 2 2 2 2 2 2 2 2 2 2 2 2 2 2 2 2 2 2 2 2 2 2 2 2 2 2 2 2 2 2 2 2 2 2 2 2 2 2 2 2 2 2 2 2 2 2 2 2 2 2 2 2 2 2 2 2 2 2 2 2 2 2 2 2 2 2 2 2 2 2 2 2 2 2 2 2 2 2 2
left_child=1 5 3 4 23 14 22 8 11 44 20 34 51 132 35 16 38 18 19 36 67 32 71 30 86 41 27 81 128 179 74 75 -20 80 158 -1 37 -9 43 -37 49 42 -12 96 211 85 55 198 102 60 82 84 53 112 87 230 -39 58 59 136 203 78 -58 64 65 118 -66 174 -51 70 -70 161 170 -74 171 116 77 93 141 126 88 192 104 123 -8 100 152 165 205 108 -67 195 159 208 95 -92 97 -10 -76 206 146 -102 103 -41 -36 -68 107 117 109 -16 145 -62 -53 131 148 215 -26 -18 -23 235 121 122 142 147 186 135 127 -14 -29 -56 -131 -34 -11 134 -134 -81 -5 -114 139 140 144 -54 143 241 166 243 -31 -84 149 150 -83 -52 -25 194 -100 168 -73 -130 -4 160 236 217 -163 -164 -165 -55 -139 -140 169 -156 -71 207 -173 -174 -6 -33 -135 -168 -96 -30 181 182 183 191 -183 -186 -49 -155 -28 -190 -153 -35 229 -194 -154 196 197 -43 210 -13 201 202 -201 -24 -115 -21 -44 -2 -77 -112 240 -7 -213 -214 -118 -27 -42 -3 219 -219 221 -221 -181 -180 -60 -226 -78 -228 -110 -15 -45 232 -149 -159 -235 -46 -38 -237 239 -239 -48 -19 -243 -111 -152 -169 -247 -101 252 250 251 -250 -117 -47
right_child=2 6 7 57 10 9 12 17 15 13 25 199 79 26 89 -17 106 120 21 33 -22 63 40 24 31 115 188 28 29 45 -32 175 113 180 50 39 92 56 -40 48 216 91 99 46 119 253 47 124 -50 68 151 52 61 54 129 -57 62 -59 224 -61 111 -63 -64 -65 66 90 105 -69 69 72 -72 156 73 -75 98 76 226 -79 -80 125 -82 114 83 -85 -86 -87 -88 -89 -90 -91 94 -93 -94 -95 178 -97 -98 -99 154 247 101 -103 -104 -105 -106 -107 -108 -109 228 110 209 -113 137 204 -116 248 214 -119 -120 -121 -122 -123 -124 -125 -126 -127 -128 -129 157 130 -132 -133 133 176 -136 -137 -138 138 167 -141 -142 -143 -144 -145 -146 -147 -148 231 -150 -151 244 190 153 187 155 -157 -158 233 -160 -161 -162 162 163 164 -166 -167 177 245 -170 -171 -172 172 173 -175 -176 -177 -178 -179 223 222 -182 184 -184 -185 185 -187 -188 -189 189 -191 -192 -193 193 -195 -196 -197 -198 -199 -200 200 -202 -203 -204 -205 -206 -207 -208 -209 -210 -211 -212 212 213 -215 -216 -217 -218 218 -220 220 -222 -223 -224 -225 225 -227 227 -229 -230 -231 -232 -233 -234 234 -236 237 -238 238 -240 -241 -242 242 -244 -245 -246 246 -248 -249 249 -251 -252 -253 -254 -255
leaf_value=0.098774849756684185 -0.10000000000000001 0.067074779908886148 0.060329127235082713 0.074038700642813524 0.075950043526382044 0.088177613142098016 0.026596007329097494 0.077178071248403271 0.083042971049633568 0.081736864409429774 -0.099999999999999936 -0.096791849500281579 0.097930763572492238 -0.10000000000000001 0.077955779457970623 -0.09530480485951856 0.09364466548528394 -0.063878549851530547 0.080742414726924214 -0.061949410889171178 -0.055608794773634333 0.049482748141012806 -0.10000000000000001 0.083293045503736632 -0.099999999999999728 -0.085677346591420275 0.0011546712272342214 0.085400594735681734 0.052973131835450105 -0.083244066691230939 -0.074706120398324319 -0.034319400541881852 0.065119339564377626 0.073039942333534044 -0.099999999999999992 0.092869211228691143 0.066591093913784719 -0.068827555563414813 -0.088949416817883431 0.082772987535903786 -0.08466087827103376 0.054952420685710129 0.061901011596431368 -0.0023044783617516946 -0.10000000000000001 -0.052392202440154224 -0.10000000000000001 0.045988775438620802 -0.090002009329731417 0.084380934748508038 0.087552094886077472 -0.10000000000000001 -0.055678782105489835 0.097255005267298023 0.088713181871870272 -0.10000000000000001 0.052893946289513639 -0.098849225953536901 -0.10000000000000001 -0.10000000000000001 0.010029860606234514 -0.083456677946486091 -0.093593957803590561 -0.096329004575016544 -0.10000000000000001 -0.091830712941367076 0.070486808913897886 -0.10000000000000001 0.084699899972118742 0.076944778287771368 -0.074964911556226643 0.016155548887873284 -0.10000000000000007 0.018897113643438851 -0.090327057605729802 -0.099999999999999867 -0.10000000000000003 -0.099999999999999922 -0.06079675936930734 -0.065556419034092692 -0.080667561900190893 0.05441692876001733 -0.10000000000000001 -0.10000000000000001 -0.10000000000000001 -0.10000000000000001 -0.10000000000000001 -0.0908915890240449 -0.070949567820073139 -0.10000000000000001 0.026333874880309357 -0.089291411371079446 -0.10000000000000001 0.062202751086614966 -0.099999999999999922 -0.10000000000000001 0.060228184069000539 -0.09999999999999995 0.078427412094112359 -0.099999999999999964 -0.093599591757778114 0.099750599901853435 0.033544480084370443 -0.10000000000000001 0.025510237665448871 -0.080974617602867283 -0.092822136159631835 -0.099999999999999978 0.081025482024146944 -0.095257344620450601 0.034450363102896696 -0.084552589799378589 0.064064380868185875 0.077052382560615418 -0.10000000000000001 0.078392917548761432 0.083699381382071725 -0.10000000000000007 -0.10000000000000001 -0.10000000000000001 -0.10000000000000001 -0.096548039932344579 -0.094686058585408503 -0.056253052956166651 0.093698578619196823 -0.092555072588304713 -0.096650999165328835 -0.099999999999999978 -0.10000000000000001 -0.073436112059195299 0.096990540610635417 -0.099999999999999797 0.025832368129850791 0.071815594366547622 -0.10000000000000003 -0.0048522578419876675 -0.10000000000000007 0.085304463635679853 -0.08623176698404339 0.064383163111460612 -0.10000000000000001 0.073289142315695097 -0.079921594896100429 -0.10000000000000001 0.043403791521792273 0.071193504400074145 0.051588863293917597 0.027161958470873104 0.065024851227150599 -0.099999999999999922 -0.10000000000000001 0.059217653723343013 0.036344198638058337 0.070398693616032418 0.055703116087600549 -0.066151270158108844 -0.081684223060767946 0.08182869790903502 -0.10000000000000001 0.09406009096040778 -0.099999999999999922 0.064014217723886102 0.066313409512975791 0.10000000000000014 -0.074192223270528629 -0.10000000000000001 0.018180872257202219 0.055709287404285629 0.066721566132046814 -0.099999999999999978 -0.10000000000000001 0.081392223009465248 0.053277418367298358 -0.085653094540472152 -0.040699969681097452 -0.10000000000000001 -0.10000000000000001 -0.091986517886450528 0.089989162527158523 0.033430544485392732 -0.092731414832101844 0.06280282842080627 -0.086926866997124722 0.045500260228522327 0.072547316780469079 -0.099999999999999978 -0.083253573664187258 -0.026307608749574121 0.075789136384528777 -0.066466385181932028 -0.079461080255583988 -0.075382770341669403 0.078998199380050857 -0.086627469640632337 -0.070252677841124864 -0.075935246634145623 0.057467075799421674 -0.068671912375597749 0.050541214625777535 0.06195182374284848 0.072477140574656845 -0.10000000000000001 -0.099999999999999617 0.043617011720721667 -0.10000000000000005 0.063582769077493315 -0.078928669147272687 0.085149018198716064 0.080833229042737542 -0.099999999999999964 -0.087037420817803121 0.081449911093544658 0.075312837152978165 -0.045638353077832108 -0.052121703121044596 0.023228471788220618 0.0018726727677759254 0.061139454976116593 -0.10000000000000001 0.033973132692843945 0.069159824893113217 -0.095331319448802299 -0.06016034381845109 -0.10000000000000001 0.10000000000000001 -0.068486884343563273 -0.099999999999999922 0.061157368726851083 -0.10000000000000001 0.064859642249721836 -0.10000000000000001 0.075302350167380502 -0.10000000000000001 -0.062593100927665818 0.036280443849755824 0.086931951630070364 -0.10000000000000001 -0.1000000000000007 -0.079687878229333764 0.053692589676982844 0.0072288425103859758 0.031773590282872244 -0.051842588783066412 0.075747234962821375 0.015466227987880769 -0.099999999999999978 0.066860939013521831 0.090684775938955173 -0.067451006540442837 -0.099800980744882556 -0.084522474673535936 0.06632356185547815 -0.10000000000000001 -0.10000000000000001
leaf_weight=7464.4094158333974 0.66115183188230631 58.863675781874917 65.444516468909569 7.7090477527235635 55.708360264685325 458.22439473734266 24.927688867290275 8.0434484426805266 2.5714208373101437 79.346717831533169 5.4752772471692905 27.140262859556969 2.6621899777092031 0.78278972550469816 5.1779398551734621 393.85598191766621 3.5090933390893042 6.0383714091440224 8.5884383482043649 1.6831640920136184 17.089717098599067 10.396820350026244 1.3042695172480296 58.338691028067842 1.2581387123354968 2.8143698307394516 9.6507547840883472 14.199340659775769 21.675329761441393 1.8482869494473586 5.3775865641437113 12.002745953417618 3.6564633364323527 1.1712366407737143 7.695570997937466 1752.7792415684526 16.035129640018575 28.839181721967179 21.536046361550689 78.624158427817747 15.209683451714229 2.426575368444901 19.700964019662944 60.696453771462984 0.85840208042645727 33.157285209683323 2.688994664917117 2.5538191361702047 2.3798465470026704 8.6595635106204991 11.543168678035729 2.7331967742939005 2.6762206337443804 2.1059987662592907 3.1075225079548536 6.5937630201588027 8.2941101098258496 365.34645524984808 32.346537258650642 5.6017561412882051 5.2321159539424107 46.350717586326937 3.3353846561221863 1096.0816937150994 105.63428333033517 26.205195808179266 3.7352188251097678 1.7586910356476426 2.8667970438255024 15.054205001884837 14.180400201679729 8.9874535588605777 5.4994479235028804 29.113050164974997 2.1165861613699226 2.7388548926974212 6.85330375790363 3.9366589786368449 14.046045803508603 27.823671273188666 6.1839322673331472 19.225323045815461 1.8478983099339519 3.7154618965105319 3.0702671586768693 4.1925111711170748 1.5676793883321796 34.796847105699271 4.1118444467720101 2.8322254110826171 3.5564226700807984 15.826378419063984 2.0085946690523988 17.213778474077117 1.1065263595519352 8.4783526403043634 12.470716754789462 4.5320382006757445 17.81066333380295 2.6892426961567257 5.6255047207087037 1.6806239509023724 22.419005986990669 1.3094187535461959 3.3812296006362867 2.8357691252749646 134.09808535231059 4.7332520933268825 12.013607393484561 2.4358630114875273 1.5245515503338545 17.356167599409677 11.554898564645553 0.80088101164438086 2.1898149460175764 1.5955307151889431 13.823810191533994 1.214607473986687 1.7474685176566698 1.4443820570595551 3535.0531783551087 3931.6440309807913 137.22155424106677 5.8272238745266796 3.5386729440651816 25.616550154096331 217.30540824905984 4.885006626638642 1.6708652006636828 7.1621090937987892 2.6074818361084899 1.7101508605992446 5.2795406298246235 34.010843658048543 3.7386916603718401 12.361306894876178 1.1958902360347545 1.8670734895858867 5.9243193763541049 12.167761130200239 3.8510789170977651 5.8465371948550455 59.18562311027199 10.353371286226318 18.349460958866985 5.9895366397977359 14.937599920813232 34.302955687460774 15.497273367160231 4.7220138211268958 2.7949962366546961 2.7356508563389061 3.6114872927428223 46.740092423598973 2.5319650494384431 3.4160649369296179 4.4516864365723441 6.675195635121784 1.1049301025268494 9.183627288148271 4.0363337521557723 12.510678632766941 3.0260243036318561 1.2522864341735811 8.8663728148385417 1.0548215094022442 3.4379719322605462 3.8243762150523253 12.216968145046847 2.4383589971403126 0.89951125450897862 69.948307633556396 50.785027659527259 2.427587735845008 1.9604326026164915 11.672035303054143 0.87707433011382718 5.1536968781729273 4.5019729390041903 5.6497287763268087 65.077550778230943 3.895582468423525 53.972201825032244 3.7384050627588286 1.7571209959569385 3.7725486812414601 3.4062007830652874 2.7036897652724354 1.5706835362361733 23.168859531186175 2.2633282541064546 13.741577120206784 1.7310040515149014 2.2658564289158667 4.9121821642474952 5.3545835578406686 5.3816703369957386 6.0016103770394711 1.4855849851737719 3.4435105595330242 3.9220872959122053 18.574089051995543 1.8466272177465786 8.3561764181940799 9.8861936483590345 11.087738626956705 1.2101638546446327 220.53493505222286 0.90665630169678468 6.3359155455254967 38.688772370231163 174.63289002012607 15.406590235739715 8.5077300526609161 1.3113009478111024 5.2716556160303281 3.571416684659197 23.019739547555215 1.6486674412444688 2.8704153243452284 5.7408906932105355 4.0071964138187468 4.3283379613858415 0.68487192003521968 1.270698845386504 12.815308647775963 1.5511014743824492 2.1730183174950071 0.68396491592284192 99.128075192638789 2.289137117099016 7.9855793164024425 2.4269224370655129 3.4291336737806022 13.274644357239595 15.670475226826964 0.77635636925697227 1.0317615118692547 1.6284187085111685 36.659899532649433 5.2583851903182222 10.742870490983476 5.2133149676956227 0.96610478189541016 3.279984250315465 3.2793925461883191 1.8602895558578874 0.6748848666902586 19.231424681031061 55.088423143257387 49.97364211583772 4.087682463345117 1.2418993418395974 11.620710813644108
leaf_count=48088 140 2992 4024 308 2108 8964 2708 228 76 2260 1404 7480 16 156 260 103540 48 1428 348 456 3568 740 364 1660 236 816 1252 344 1228 388 1444 2152 132 60 2052 24360 768 6112 5332 2260 3880 156 1000 9148 184 5792 604 196 836 180 264 852 664 12 60 1904 556 95332 8240 1408 656 10960 936 276488 27416 6328 144 360 68 400 3124 964 1284 3552 456 812 1672 996 3056 6240 1572 1136 448 1080 772 1128 416 8588 1056 684 424 3952 452 1092 236 2136 632 1196 620 596 1444 12 2112 312 356 760 35216 1172 436 616 164 4072 640 32 528 48 268 236 424 516 930984 1023584 36360 1136 20 6996 54108 1284 500 1388 20 336 524 1372 928 2036 216 52 1392 764 1108 320 14928 3068 1636 328 1040 3244 836 1100 676 160 408 2248 168 632 1140 224 432 112 900 608 128 4 1728 228 436 248 592 508 156 1996 3108 668 428 3136 292 1176 68 452 15780 256 12820 256 80 824 808 348 68 5076 580 2964 48 560 1148 1356 448 1488 96 224 132 5276 468 612 2748 652 268 5156 48 1496 9784 4840 624 1560 252 644 492 1296 400 344 284 972 844 172 8 2740 324 164 200 5200 636 272 612 804 1204 292 156 188 404 2368 664 1168 1088 36 336 752 108 16 4056 14480 12264 192 328 2932
internal_value=1.69698e-10 0.0843036 -0.0833083 -0.0111711 0.029848 0.0931365 -0.0356847 -0.0924825 -0.0611006 0.062334 -0.033009 0.00186161 -0.0619135 0.0319784 0.0969779 -0.079408 -0.0593319 -0.0955776 -0.0847633 -0.0466199 0.0395343 -0.0921797 0.0155057 0.0600673 0.0354892 -0.0602128 0.0178516 0.0246981 -0.000869828 -0.0189461 0.0722419 -0.0112314 -0.00675132 -0.0687548 0.0303008 0.0972965 0.000147296 -0.0255115 -0.0344014 0.0913556 -0.0116484 -0.0219419 0.0123945 -0.0263976 0.081601 -0.0418909 -0.0344804 -0.0582734 0.066024 -0.00186046 0.00854847 -0.0281372 -0.0340401 -0.0172446 -0.0602104 -0.0147769 -0.0459218 -0.0943228 -0.067186 -0.00751355 -0.0366212 -0.0644629 0.0108806 -0.0938438 -0.0777147 -0.0457838 -0.0938438 0.0668949 0.0128366 0.00367359 -0.0481144 0.0410652 0.0211327 6.00434e-06 0.0742951 0.0141369 -0.00653213 0.0192161 -0.0254544 -0.0876833 -0.00823084 0.0489755 -0.00412397 0.00724059 0.0127134 -0.00570623 0.0653912 -0.0807058 0.0183018 0.0187549 -0.0658975 -0.0511359 0.0389975 0.0417151 -0.0288186 -0.0626668 0.0261274 -0.0337393 0.0417467 0.037745 0.0107028 -0.0491234 0.0696519 0.0797789 -0.0616876 0.00512226 -0.0885615 -0.0281463 0.0283298 0.00401884 -0.0181723 -0.0626445 0.0122697 -0.0535589 0.0237676 -0.0779991 0.0587366 0.0438527 0.0279733 0.0500479 -0.0977423 -0.0958239 -0.0833781 0.0148459 0.0174168 -0.0646633 -0.09442 -0.0301821 0.0473574 0.000203604 -0.0279496 0.0125016 0.0697985 0.0482237 -0.026334 -0.0468832 0.0506661 0.0165752 0.00738606 0.0210237 0.00486945 0.0327921 -0.0664259 -0.0417335 0.0188884 0.0284898 0.0367425 0.0237437 0.0297217 0.0114985 0.0323084 0.0600152 0.0676205 0.0518477 0.0490239 0.0236059 -0.0162537 0.0257928 0.0576672 0.0482941 0.0281338 0.0473893 0.0182784 -0.0252514 -0.0526342 0.0314275 -0.0241229 -0.0336752 0.0414456 -0.0206823 0.0669682 0.078126 0.0665066 0.0469393 0.0719846 -0.066701 0.0674962 -0.0479028 0.035909 0.034015 -0.0782439 -0.066753 -0.0753458 -0.0418328 -0.000543949 -0.045171 -0.0278743 0.0651106 -0.0409931 -0.0574348 -0.00357027 -0.0637258 0.0605498 -0.0148965 -0.0250875 -0.0196264 0.00220661 -0.033079 -0.0732138 -0.0759456 -0.0555841 -0.076631 0.00541934 0.0242271 -0.0867318 0.047038 0.0537509 0.0845956 -0.0550259 -0.0739231 -0.077156 0.0843535 0.075528 0.0322834 0.0719319 -0.0146766 -0.0682056 0.0551568 0.0363423 0.0426497 0.00891902 -0.0413653 -0.0071678 0.064903 -0.0858291 -0.0532877 -0.0668919 -0.00596492 0.0712744 0.063568 -0.00585511 0.0288575 0.0187597 0.0347831 0.0159826 0.0539285 0.0588979 0.0563313 0.0441358 0.0494854 -0.029052 -0.014306 0.00445394 -0.0466948 -0.0376578 0.0010592 -0.0396053 -0.0617463 -0.0819012 -0.0837182 -0.0716301 -0.0440012 0.000313091 -0.0647473
internal_weight=22739.3 11302.1 11437.2 1290.43 864.144 10527.2 774.958 10146.7 910.922 1167.29 280.563 205.201 512.41 453.225 9359.88 705.721 311.865 9235.8 1540.35 250.745 76.5172 1289.61 262.548 583.58 193.315 204.046 329.973 295.582 143.965 104.716 390.265 75.4414 24.6421 170.193 150.274 9321.92 80.5522 48.5121 168.31 1857.51 127.303 64.7414 29.7505 146.774 714.065 73.0625 127.2 57.6204 104.732 108.522 83.725 221.756 193.758 124.838 50.8348 69.5794 40.4687 426.286 60.9392 14.5067 32.2487 68.9195 11.6295 1264.96 168.883 56.6776 112.205 59.4275 76.273 67.6134 17.0472 135.245 50.5662 34.6125 384.888 51.7666 35.3734 24.7959 22.5688 290.654 23.0667 151.617 67.1828 56.106 27.998 28.2845 117.874 37.9577 16.8827 37.9597 44.5333 34.9908 32.04 20.8593 18.3281 12.0348 19.5742 7.10346 40.5306 24.2753 24.092 7.30613 102.353 79.9336 11.0768 6.57099 143.555 9.45695 35.1275 22.4299 17.252 22.5883 74.0035 16.0537 47.7094 139.305 16.3932 4.7237 12.1443 57.2933 7695.45 4160.4 228.755 52.3906 9.49869 65.8015 224.853 7.5472 39.2492 12.8771 9.76959 5.36661 123.253 43.9062 9.01823 40.185 8.90494 71.2703 59.7154 44.827 32.6593 8.52276 91.5336 32.3479 28.8082 9.3915 16.7859 46.5634 45.5196 30.0223 25.3003 16.5421 116.306 57.9675 38.414 20.6034 13.4391 25.0498 66.5494 30.0314 20.8478 121.806 25.6554 13.1447 10.1187 3.16082 10.4587 14.8884 17.1873 4.97032 15.9537 344.357 123.161 53.2126 57.6688 23.6748 34.8879 8.59167 6.29337 31.6534 147.126 82.0487 72.6234 18.6512 9.42525 5.52967 5.96002 49.4438 34.3903 24.7395 4.99898 14.9128 103.908 3.99686 8.52367 19.1644 13.8099 8.42819 48.1217 54.9266 27.7863 23.8642 5.29014 9.66045 10.6871 12.7709 20.9111 221.196 3.64551 7.86047 46.6362 656.772 198.547 23.9143 15.1351 8.08603 18.7811 96.1506 37.2869 35.6382 12.6185 6.87761 9.97807 5.18684 46.4325 14.086 10.5774 3.72412 12.6976 99.9109 62.9856 44.7155 36.7299 23.379 16.7038 55.849 16.8115 54.9906 39.3201 37.6917 7.94738 21.9946 15.9562 3.40197 6.07498 8.96406 5.13968 3.36413 131.219 128.381 73.2927 23.3191 2.83743 44.778
internal_count=3050312 281132 2769180 191096 82844 142812 138320 2578084 199548 60624 49976 28240 108620 40684 82188 171308 67768 2378536 365928 46996 6464 318932 29700 32868 17380 43512 35308 28912 18336 15260 15488 11152 3596 36776 14660 77968 10220 7832 31096 29880 18840 10684 3284 25764 19940 12736 23860 12172 5520 14468 10204 37940 34460 19460 10296 11688 7604 108252 12920 1932 5704 15000 1492 315336 38848 10528 28320 2896 8764 8584 3192 10860 5392 4836 14044 5864 5108 2948 4040 70680 3736 10576 9200 6792 3480 4012 6228 8828 2164 4220 9364 7400 2388 1952 3036 2560 1904 1272 2976 1880 2884 1456 4684 2572 2408 904 36672 1456 3536 2900 2640 4728 9164 3248 4612 32828 756 284 1164 3952 2012608 1081624 58040 5712 1024 15272 55408 1300 3076 1468 1408 468 5376 3116 1452 8276 524 8312 7672 5172 4408 984 21680 6752 3300 980 1428 4576 4084 3248 2148 1004 5812 4152 2520 1900 2104 2732 4456 1936 1824 8756 2468 1860 1732 240 1664 2500 1268 676 556 11068 5772 3776 2536 5288 1664 1612 476 2524 33040 17260 16100 3280 1160 904 1004 2596 6396 5144 740 3024 5964 608 1556 3448 2092 1644 11148 13580 6100 5968 692 976 2780 1108 1268 5296 860 1660 11052 15988 7024 2184 520 1460 4372 6288 3296 2896 1600 1316 1296 240 10988 2748 2160 488 636 5356 9784 4128 3856 2232 2008 3436 924 3252 2960 2556 1268 3684 2256 652 1012 1108 860 612 31368 30992 16512 4248 376 8724
is_linear=0
shrinkage=0.05


Tree=1
num_leaves=255
num_cat=0
split_feature=6 9 11 7 3 10 3 3 5 9 6 8 3 6 1 11 6 9 10 6 8 2 9 9 6 8 8 4 10 10 4 4 7 10 6 4 11 8 8 9 7 3 9 8 1 5 4 4 7 10 8 3 4 11 8 1 6 7 5 8 8 11 3 7 1 11 7 11 6 8 0 7 8 8 3 7 11 4 11 7 8 3 8 11 8 7 6 1 7 4 5 9 4 7 9 11 0 3 8 9 10 0 8 3 4 7 10 9 7 11 7 11 7 4 7 6 4 2 5 6 2 3 6 5 10 6 3 4 5 3 9 10 11 6 7 3 9 11 3 11 4 3 3 7 10 10 1 10 5 2 2 11 4 11 0 9 1 6 3 5 0 6 10 4 7 3 10 2 4 5 10 2 8 8 7 3 2 10 4 3 8 7 4 11 1 3 5 7 11 8 2 8 8 4 4 3 8 1 11 8 7 11 1 8 11 11 1 8 1 5 3 2 8 2 2 7 7 4 5 3 8 7 2 8 4 7 11 2 2 3 5 10 2 6 4 10 11 6 4 1 10 2 3 11 10 1 10 11 4 5 11 7 10 7
split_gain=136806 11924 4192.78 3273.65 2293.95 1710.05 823.163 578.589 525.41 448.757 410.529 373.868 246.452 200.178 280.161 249.032 192.026 177.579 176.568 175.096 166.348 151.427 145.263 133.527 220.161 130.276 127.311 123.63 115.47 114.74 126.298 114.535 112.779 108.961 107.262 270.617 299.835 125.152 124.763 104.485 181.474 161.825 149.054 109.947 94.603 92.2704 89.1741 87.8059 83.7068 157.295 155.19 118.206 84.4867 81.7663 80.9104 79.9064 180.975 77.9044 76.1427 73.8902 74.1352 93.9872 73.1178 68.2588 71.8484 136.492 67.8607 66.4051 66.2255 65.3114 64.7546 62.279 61.9814 68.6109 65.4637 65.6073 61.6782 60.9339 383.59 150.442 118.123 60.8003 60.3438 79.3113 58.673 58.6581 58.2782 66.6708 58.11 57.6793 60.6977 57.502 57.3503 59.8094 57.2057 56.9294 56.2819 55.3183 77.636 73.0961 54.659 54.5656 55.9637 53.7881 53.2694 99.0296 53.5121 52.7245 52.498 51.778 71.3647 51.2514 50.456 49.9305 49.6014 49.3388 49.0592 48.7034 48.6996 48.6331 48.5334 48.5088 69.0394 54.9317 51.7447 48.4593 48.2526 48.0458 63.054 47.7441 47.5228 47.2424 84.6033 75.1149 53.2522 46.0474 45.9155 45.7891 45.6693 45.2313 76.3186 44.5088 43.8689 43.1939 42.7458 42.1327 41.7591 82.7134 58.0983 51.4989 41.8574 41.3519 95.6526 98.5356 61.4764 44.4178 40.9952 40.8384 40.4769 40.3526 40.2999 39.9428 39.833 39.6822 39.5373 38.9984 54.2108 78.0051 38.7878 38.6224 38.5583 38.3975 40.8918 38.3099 38.2685 38.2427 37.5746 44.5029 37.4218 37.2515 37.2225 36.8682 36.7462 40.4737 36.6568 36.393 36.1833 36.0808 35.7035 36.8048 35.2581 35.1782 35.1563 42.9047 35.0706 60.2417 35.0463 35.6037 38.0377 35.0322 34.8729 34.7938 105.025 323.206 212.942 92.7819 84.9245 55.3617 62.7632 35.7293 54.7636 34.3982 53.3145 33.8877 40.9879 44.8113 38.0287 35.996 35.844 34.0948 33.2653 33.1743 33.0968 33.0673 33.0356 32.884 32.509 37.4758 35.0602 32.38 32.2993 31.9601 31.6501 100.452 31.4277 41.6565 50.7395 31.3704 33.9013 31.1957 46.431 39.6991 39.1702 31.4923 31.1339 31.0541 31.004 30.6591 105.279 34.6532 30.6324 31.8606 30.4584 30.143
threshold=-0.0011443178822749497 0.0020203083405628004 -0.014510689820264148 0.0080919066439673528 0.0083464211917288009 0.014476756889205801 0.066935453052290164 -0.0041234346931765488 -0.028339333961428397 -0.0068123213888002989 0.0059809823769483008 -0.072304593469979181 0.0034150202032510505 -0.16157349970545437 -0.17933254846700267 -0.10350079252243893 -0.0037341950360373498 -0.0068123213888002989 -0.0016140911644208996 0.010189167648754502 -0.16892844476605676 -0.78145827893957087 0.092267340682099921 0.031230230138166254 -0.041353102561949941 -0.093542844287005586 -0.11692829522648018 -0.040008377609023697 -0.30484820532281293 -0.23619310258729348 -0.24035566722904447 -0.22956010659440954 -0.018041733151154597 -0.33952911579927914 -0.16157349970545437 -0.24035566722904447 -0.11255253560225294 -0.11004846910233389 -0.14331710907691808 -0.015930425500958297 -0.028071369281564597 0.035732243275245011 -0.045850665031876792 -0.048228472781877647 -0.058273733286504349 -0.092008122788676039 -0.056886137126505039 -0.13380101131779068 0.013233925769729251 0.0090962521389616018 0.55345168250883869 0.037038435587124857 -0.020648505166811795 -0.034056910360452199 -0.15367539589717169 -0.38396094289726651 -0.099414693945381341 -0.088325248584681479 -0.04165145116242569 -0.026789173309739546 -0.044212328664895391 -0.022173725017560746 0.0077407982934309012 -0.11124349989688208 -0.42057647723941954 -0.062744278866653277 -0.050290427068091843 -0.095961094187020188 0.18964411674492362 -0.021707218748961993 -0.041677155463381042 0.03770868268370501 -0.11692829522648018 -0.010731891695639898 -0.013063238250485899 -0.17322913365450768 -0.11255253560225294 -0.12644746359579581 -0.083825197991552233 -0.17322913365450768 -0.1251025942406935 0.0071197490967685505 -0.16892844476605676 -0.1229132716764131 -0.13356983362512823 -0.10563511230157818 -0.0053528004884638497 -0.18776376587019075 -0.03427590385478619 -0.24035566722904447 -0.16031423612869342 0.092267340682099921 -0.35893300228320052 -0.060994662567428595 0.0088898264960561527 -0.10350079252243893 -0.50178718078230666 0.67075575486739314 0.03772637709065501 0.11557960523617296 -0.13194863121661382 -0.32240212035577814 -0.11004846910233389 -0.030289559117112296 -0.35893300228320052 -0.42401997498009997 -0.54961706846743297 -0.0036000604661147496 -0.0067709818921170986 -0.095961094187020188 -0.38097867799402457 -0.15325864092306202 -0.32261902924505498 -0.29065198555554334 -0.23751047763683034 0.0049132746409625006 0.0052441464926576012 -0.85803813283298769 -0.013628572974056048 -0.0090471852727743492 -0.29395368181358789 0.029900128883184506 -0.041353102561949941 -0.013628572974056048 -0.10757137916985975 -0.0053528004884638497 0.080474384701311727 -0.34083536514497531 -0.14492367582676083 -0.040430659698413092 0.060317956463042305 -0.070610681527339944 -0.053306540503378193 -0.041353102561949941 -0.053707190164138295 -0.0030326841427435495 0.10109954952588086 0.006056803520146801 0.0044461753098808008 -0.10350079252243893 -0.17786555234782958 0.18681425451315517 0.26424983661896023 -0.020026338653183647 -0.036009524897050893 -0.16096165423457498 -0.81545043260564565 -0.11936271619282564 -0.097253292943738592 -0.42358484784485229 -0.70229882383449371 -0.056351122880539388 -0.11232549184841244 -0.1229132716764131 -0.38691157493378875 -0.16081446118297701 -0.18813007651832916 -0.27502255945808129 0.25423188433237265 -0.0098953648483379487 -0.79740196362543325 0.0041210774479534008 -0.20646283863969964 -0.19953583690333437 -0.38097867799402457 0.383822954904324 -0.15231931858280953 -0.78145827893957087 -0.19953583690333437 -0.092008122788676039 -0.21601721745796007 -0.6852283303575748 -0.079379052946775441 -0.16892844476605676 -0.24775919531026061 -0.0054775271969397998 -0.58520398816031072 -0.0070933998761869991 -0.010757513111148047 -0.030289559117112296 -0.099012013028915838 -0.18338193111625953 -0.27822399538296855 -0.15325864092306202 -0.05936091625151519 0.34190374223393816 -0.10308635648357883 -0.34309315534374674 -0.0051208684314406989 -0.0098954303160121975 -0.061805022780290091 -0.16892844476605676 -0.11692829522648018 -0.14129870408211273 0.20183176111990811 0.077983399667795453 -0.0050837869162626489 -0.18795468435858512 -0.034056910360452199 -0.044212328664895391 -0.22678843108023053 -0.083825197991552233 -0.42057647723941954 -0.083698850645176986 -0.062744278866653277 -0.04803459612627644 -0.81848907248840519 -0.093542844287005586 -0.80567252556838798 -0.072335515251896146 -0.00091979920011559988 -0.84585066473097459 -0.18812097621629584 -0.85803813283298769 -0.80932431204420141 -0.10563511230157818 -0.19437252447328937 -0.10749505154895564 0.0079292472556447505 0.25900008150100923 -0.15367539589717169 -0.071806070524719184 -0.96754429716485191 -0.017505260300028549 -0.065120794935089946 -0.0025597904819917995 -0.034056910360452199 -0.30434433008799033 -0.42130280142075061 0.12017069244137897 -0.087299409110745838 -0.39196540005006525 -0.56235378074527587 -0.033697851535998545 -0.030294973641216045 -0.29217141335086366 -0.1229132716764131 -0.12821713237764051 -0.41274472259687628 -0.39879068728181094 -0.036009524897050893 -0.42554596124472999 0.028463423903284803 -0.039480651132545841 -0.49976292326798805 -0.046512649757279492 -0.19673181536079323 -0.053306540503378193 -0.03277455472126594 -0.033909458287368743 -0.078910147583590926 -0.30408080774733159 -0.28094693016191841 -0.19437252447328937
decision_type=2 2 2 2 2 2 2 2 2 2 2 2 2 2 2 2 2 2 2 2 2 2 2 2 2 2 2 2 2 2 2 2 2 2 2 2 2 2 2 2 2 2 2 2 2 2 2 2 2 2 2 2 2 2 2 2 2 2 2 2 2 2 2 2 2 2 2 2 2 2 2 2 2 2 2 2 2 2 2 2 2 2 2 2 2 2 2 2 2 2 2 2 2 2 2 2 2 2 2 2 2 2 2 2 2 2 2 2 2 2 2 2 2 2 2 2 2 2 2 2 2 2 2 2 2 2 2 2 2 2 2 2 2 2 2 2 2 2 2 2 2 2 2 2 2 2 2 2 2 2 2 2 2 2 2 2 2 2 2 2 2 2 2 2 2 2 2 2 2 2 2 2 2 2 2 2 2 2 2 2 2 2 2 2 2 2 2 2 2 2 2 2 2 2 2 2 2 2 2 2 2 2 2 2 2 2 2 2 2 2 2 2 2 2 2 2 2 2 2 2 2 2 2 2 2 2 2 2 2 2 2 2 2 2 2 2 2 2 2 2 2 2 2 2 2 2 2 2 2 2 2 2 2 2
left_child=1 4 3 6 9 7 17 23 13 34 18 45 -7 67 63 28 59 19 126 138 33 26 58 125 29 -21 117 97 31 129 -31 82 72 47 109 36 37 54 -38 41 239 -10 55 -42 53 -8 173 -9 49 50 51 57 91 -45 -36 120 76 137 101 60 232 178 196 -15 65 -65 -48 -6 84 -61 118 81 -19 74 75 89 224 78 79 139 186 176 -16 158 -47 -67 201 247 165 90 231 -52 -75 -94 116 169 141 99 -99 213 136 180 145 104 105 -56 -107 -71 -46 -1 -111 -105 157 -93 -82 161 188 -17 -18 -108 -43 144 123 -123 194 160 -4 -40 -129 -25 -76 133 -133 185 -134 -109 -35 -12 -2 -37 -141 -86 -58 -126 -60 174 -32 148 150 200 181 152 153 155 -153 182 -136 -69 -84 245 -3 -29 -114 -78 230 166 167 222 -28 -81 -139 -155 -173 -26 -103 -154 -5 -178 -62 -95 -22 -148 183 -27 -137 -44 -80 -125 -20 -190 -146 -23 -30 -194 195 -124 197 198 225 -55 -149 -79 203 205 206 207 221 -203 209 -209 -211 252 -213 -13 215 217 219 -215 -218 250 -33 -205 -24 -186 -57 -34 227 228 -140 -220 -138 -74 233 -11 235 236 -144 -169 -239 240 242 -242 243 -41 -226 -120 -91 -88 -249 -250 251 -216 -165 -132
right_child=2 5 10 71 8 12 11 20 39 16 48 27 -14 14 15 21 70 32 94 25 22 191 88 24 46 151 168 115 192 30 146 220 62 100 35 77 38 -39 127 40 43 42 131 44 108 68 66 -49 -50 -51 52 -53 -54 199 103 56 142 -59 121 69 61 -63 -64 64 -66 85 -68 112 -70 107 -72 -73 73 92 130 -77 163 86 80 95 114 -83 83 -85 96 -87 87 -89 -90 246 -92 113 93 179 -96 -97 -98 98 -100 -101 -102 102 -104 111 -106 106 119 135 -110 110 -112 -113 162 -115 -116 -117 -118 -119 159 -121 -122 122 124 187 143 -127 -128 128 -130 -131 253 132 134 -135 156 184 164 170 226 140 -142 -143 234 -145 190 -147 147 149 -150 -151 -152 154 175 171 -156 -157 -158 -159 -160 -161 -162 -163 -164 211 -166 -167 -168 237 -170 -171 -172 172 -174 -175 -176 -177 177 -179 -180 -181 -182 -183 -184 -185 223 -187 -188 -189 189 -191 -192 -193 193 -195 -196 -197 -198 -199 -200 -201 -202 202 -204 204 -206 -207 -208 208 -210 210 -212 212 -214 214 216 -217 218 -219 229 -221 -222 -223 -224 -225 244 -227 -228 -229 -230 -231 -232 -233 -234 -235 -236 -237 -238 238 -240 -241 241 -243 -244 -245 -246 -247 -248 248 249 -251 -252 -253 -254 -255
leaf_value=0.08948436889265686 0.046007782382188611 -0.09955988361598829 -0.012250304440254713 0.01351224158586411 0.078126274680077309 -0.027945236161062672 0.045482205738473371 0.060492888313142902 0.062575191196801258 0.053638775483871241 0.016549076547605537 -0.082720580818648734 -0.083196717020170383 0.083147909539576362 0.086513220434392621 -0.030002878368666615 0.043324180993555859 0.068933068376844278 -0.061449837000525601 0.051859345298897942 0.0737479030335184 0.068033771951875863 -0.096306974512345808 0.052346502711237114 0.093502780591772777 0.023240991382537386 0.010580710825082017 -0.062429588588990649 0.078537018118098822 -0.044226192759529152 0.052363255658270984 0.049712680770635898 -0.0974638782358421 -0.098500573880545839 0.087114890178164539 0.087348800163797022 0.049259489700243318 -0.10009890759626999 -0.1001654689823351 0.070635635177621114 0.066677292916329858 0.060575300719238195 0.010133895501021273 0.053282831487884735 0.079315063738250147 0.049881458819894454 0.05295603772143101 -0.097729274122025644 -0.090609971857447472 -0.089395777247826366 0.081962241508049039 -0.085137891467753718 -0.080726612785258542 0.010443499966857691 0.07270892276318669 0.060585511610077802 -0.091430994501080873 -0.064953136138374196 0.043897416632540105 0.083889827031992256 0.043905562702967776 -0.099834410743029955 -0.069031858474862304 0.056703860225123907 0.075379257254548152 0.029483192051598529 -0.040261738151459073 0.029600952220323436 0.062136434796986266 0.075015484648078307 -0.097292603310661807 -0.090008678167679892 0.064556754161788951 -0.051351321329222155 0.014585915819838695 -0.073032487243600439 0.057759651161074427 0.091434989167227143 0.063284931154614435 0.043626761492076602 0.067670768506791046 -0.081010786406956595 0.045108368642293638 -0.039636112784709625 0.076120176263117248 -0.076010537090787436 0.064386935354122238 0.079000316166446607 0.055101660828996958 0.073579337227388575 -0.067477776353675675 0.042521366792431632 0.05473344917565881 0.034667356542363977 -0.077553820711387389 -0.10008733394877785 -0.035712368519725396 -0.061810721668685044 0.061658528943907082 -0.083234066555434208 -0.095792084013538933 -0.015334006439740625 -0.082766511460822118 0.063036791640268194 0.074008410708505126 0.034362580347230921 -0.074172047059316196 0.064354083092022549 0.013334893550226405 -0.024190112858862807 0.075027398675108437 -0.075711225881326352 0.073992830790860512 -0.061587667694108998 -0.072264556661813029 -0.084149402252587185 -0.074915535071247957 0.058377239048373747 -0.055219026904797713 0.074111962958994457 -0.09955307615941221 -0.056828186928861969 0.069873575481196312 -0.096869450245494704 -0.068446664260562354 0.0025599402030198589 -0.092048940179350003 0.039031454798466904 -0.060491402156645391 -0.0030384530349894605 -0.005743700528363465 0.073238281123805093 0.048067753649825615 -0.094362352079941758 -0.086881787835087834 -0.087115452230817014 0.027850285923376489 0.010293723674292966 0.015655571402140075 0.069236141979890461 -0.091313239727647669 -0.094782852249651342 0.0066683949010447885 -0.022898856983234406 -0.007041046126286506 -0.079797136357837209 0.05814575116157792 -0.0063080426153982617 -0.054567645456706892 0.043634194582553368 -0.099084569241066109 -0.0734162034129172 0.049724295464711472 -0.022356637179369379 -0.0082702224136219169 0.059201144285472865 0.024713441352111606 -0.099908046182023702 -0.09976466187066596 0.029732557772968418 0.048977575121068262 0.064395757778087342 -0.060986895782870192 -0.099632328329647538 0.048813853228999421 -0.072337127419625238 -0.054974485822872968 -0.01600754875611576 -0.091569283415301281 -0.10018241855060578 -0.083689205671203332 -0.0057142913024585988 -0.093980474028052596 -0.077418674867198292 0.052387678103706342 0.0064916200029888921 -0.071624069729202544 0.0036138656707384062 -0.079064652605253166 -0.083285783424225573 0.019091848198146869 -0.099469772058952383 0.043550381700492434 -0.058767259817000095 0.035517828668480127 -0.068183836133686768 -0.043115061058903503 0.020101780955987431 0.020270986793017205 -0.040251540387452087 -0.096262901842388574 -0.084880170498681379 0.047868640933449037 -0.0997451268817586 0.07781570955082466 -0.09460278804413029 -0.073276064738275068 0.0047828640094655832 -0.069223016460775236 -0.046733963569570346 -0.09260556086158489 0.086732525655550369 0.086676592077317302 0.062335794099873047 -0.071691076641573509 -0.05585255154134823 -0.047968860138557862 0.073459154178307479 -0.073845365330314994 -0.055831278674829378 0.07439884577544624 0.053597786279896656 -0.076994432549527259 0.045921245572198753 -0.041801330322195261 -0.054815706549084735 -0.072424056883505242 -0.086378901279077519 0.089467154763432533 -0.061140465289915513 -0.077300351960411046 -0.036015614826398361 0.034380257896993054 -0.10004041640259793 -0.068702464189340215 0.069751794134930795 -0.029483220376939841 0.054070700852461379 -0.086976679725491612 -0.036290867121785267 -0.067771640152310894 -0.097173831593673543 0.066006865742082421 -0.10003835109187116 -0.080739679448813065 0.055997204920052793 -0.099766692764726758 0.01530257409063545 -0.093857430458723412 -0.066475582768753802 0.051516258561044172 -0.099461534156908615 -0.068582356776617406 -0.092166003423861692 0.034253955863899538 0.058127570998187689 -0.097018979940628691 -0.1001140377606204 0.062316739574080141 -0.045399367834888217 -0.095943372526267293 0.036057903601098722 0.042128197956093454 -0.072958652752890679
leaf_weight=8412.2585372310132 448.26444382838963 4.5972831677645436 215.93676701185177 25.186382862812025 926.46668420807691 282.78169315766354 81.491642157780007 150.3652412010124 285.00309481919976 94.781924276612699 51.43310240865685 37.427467202986008 705.02841477666516 343.93618427496403 44.220362285152078 19.397197475656867 217.01425358885899 32.413435314781964 65.761616091956967 114.00834304731688 44.382549170404673 3.9621022753417483 5.2393585096579036 345.03230564016849 3.4101338088512412 25.671184814302251 13.263874439522622 16.011896803189305 183.30310439638561 90.197166603058577 87.731821554800263 6.0857915300875893 4.0316602759994558 10.098052546614779 404.2984270285815 1384.5444518178701 59.512864200398326 10.896895244717596 26.64515695720911 10.516763072460888 101.57158062141389 199.78353139628598 57.833661725744605 33.9419926982373 50.578917942941189 26.451680300757289 35.997458593454212 9.311584997456519 18016.681869539156 3457.7597520600539 24.207960860338062 968.50708362925798 29.946853772271425 35.357800337020308 104.38050103373826 191.50190370948985 26.625241215806454 468.14544263121206 41.244534944562474 790.76879364764318 90.001268295571208 14.804605508688836 105.67074767265876 155.96854187082499 186.07960166307748 21.654036713764071 42.661700994940475 13.337650502100589 26.055315703852102 360.7240641079843 10.279177627275201 1973.6727042596322 17.220677129924301 20.589632026734762 207.52187743177637 71.869676479604095 26.376083998940885 2097.43234115839 42.992601754143834 37.187400780618191 7.1051999414339653 351.72594653911074 129.66726031666622 41.090769202914089 20.004014768172059 33.659383986145258 74.139960696920753 513.76732558559161 15.154575344175099 22.988232037052516 44.217807365581393 21.541861308272928 108.67725624702871 12.494395033805633 551.94476325568394 11.437557343393562 237.74591388844419 23.271060842904262 28.111621875083074 116.76517862949549 17.276734899030998 41.157583412423264 21.664367438992485 12.352085720747711 303.30897994525731 48.09138635918498 29.290448866784569 153.86724782735109 74.633498940616846 19.265528114512563 305.79122456349432 14.43214852362871 45.153845686465502 24.746945857070386 58.234011594206095 398.92194456106517 116.39646494493354 79.376987499184906 35.248501249123365 6.8162401169538525 4.8467925870791069 35.45544327958487 9.6539845620282012 6.9792235887143752 146.03902668567025 64.245344548646244 20.76565789047163 26.530251137912273 39.775767467916012 43.857385912211612 40.639362774047186 33.097288276650943 16.963628743309528 39.864055134821683 30.662177146412432 7.0690935850143424 16.445697654038664 16.666116553824395 47.537771840754431 247.29382237046957 7.6304704919457427 4.7058728453703216 34.178691532462835 80.876668231678195 493.45950394717511 12.396520908456294 106.14775912681944 18.836614924948659 16.280061275698245 15.81551406579092 4.7418809682130805 50.204667066223919 101.47658453392796 109.5449033681507 129.94809320941567 41.661335971206427 11.248797623440622 11.197345464490352 5.0075817033648482 52.501347176905256 679.1885874819709 10.139565867371855 6.2184250690042964 4.3480732338502994 40.408000722993165 97.985932193580084 187.91678060729464 46.183395122876391 31.041847571264952 5.3391255363821974 31.616931803058833 17.904120190534741 49.123004621244036 84.848265891952906 42.300237693823874 103.14609480346553 84.730878946138546 25.590057348366827 6.6434650755545581 14.417754645459352 104.48712044511922 3.8445508051663628 28.766377175867092 36.347438061377034 112.89103500824422 19.950131834950298 9.8143557664006931 119.01337040797807 44.043018854456022 58.463503463186498 11.326925619738175 74.152192181441933 35.865691725164652 5.7056589270941904 13.044974178716073 13.150631804019211 24.956174841150641 124.0911705220642 39.710813919373322 110.54162507341243 30.927619203226644 1292.404450842645 8501.8231261346664 148.60692012589425 51.304260078817606 12.186405550688503 22.112926214002073 195.76881577447057 8.3930716272443515 14.426948077976702 18.327694959938526 10.451949901878832 30.982135477475822 41.180644514672167 18.811397458892316 23.774273693779833 110.82205906120362 5.8747540833428493 6.0834810515734707 31.90823869156884 33.707889129407704 9.0989219546318036 64.303270957425411 4.6854096399620166 9.2870164527557773 10.859958374407141 33.196499056182802 60.332688112743199 10.086854886962099 32.269307760056108 19.073339881375436 3.7133491295389822 583.74063568926067 11.977370694279669 16.334070567274466 20.66041549667716 16.653193821199238 8.7072128523141128 38.838058602937963 68.442522224970162 26.736375967040662 5.2010679463855913 48.687933008710388 4.1397676169290198 35.076509559992701 7.2931655980646601 3.0122001818381241 14.891122003085909 54.743132878094912 8.6458052229136211 7.2587526473216704 43.576556881889701 29.474556137400214 28.292069936404005
leaf_count=13244 2956 80 6280 732 2876 15136 896 1056 1164 296 1676 3228 65336 928 100 192 956 152 2692 844 236 12 292 2068 4 472 92 1176 536 2288 800 32 180 332 584 2160 188 80 212 36 416 1052 496 196 168 372 284 368 1822260 369340 116 99768 2992 312 208 784 416 40248 452 1760 304 192 8268 728 592 128 960 84 328 992 300 193260 152 796 5288 3260 108 2972 108 120 20 33188 712 484 124 440 176 1332 324 132 1424 664 1272 304 56360 92 11496 2016 632 11076 1200 928 772 28 652 204 236 564 1372 116 596 120 140 2152 456 38296 11068 336 340 16 80 1332 64 376 7956 1300 2276 80 276 512 956 128 80 792 576 140 224 828 580 608 64 352 244 4244 14464 340 644 372 308 172 100 1632 932 2680 4168 428 144 180 72 960 4528 180 80 76 548 8876 11400 1168 476 48 3308 276 2060 2344 396 1912 6032 996 84 1132 1508 76 380 1148 820 424 76 2916 1216 3668 752 1008 176 84 116 1040 1396 1972 1560 2084 996 2068 14924 412 388 84 148 388 60 112 52 52 548 788 388 1872 9552 388 28 1868 448 60 1312 96 164 84 1192 608 308 2220 1040 176 1552 100 628 84 252 188 2808 1228 132 100 804 68 288 36 148 140 136 84 460 964 184 1692
internal_value=9.75383e-10 0.0658747 -0.0782295 -0.0413822 0.0769205 -0.00903124 -0.0116146 0.00679318 0.0423913 0.0822102 -0.087606 -0.0427383 -0.0673798 0.0572683 0.0453724 0.022827 0.0622599 0.00628828 -0.0573771 0.017519 -0.0116292 -0.0211343 -0.0173509 0.0283502 0.0157042 0.00232619 0.00943318 -0.059725 0.0428908 0.0270777 0.00732522 0.0201839 -0.0105715 0.0253794 0.0842755 0.0818344 0.0577445 0.0683583 -0.00726682 0.0212235 0.00372338 0.0298937 0.0191407 0.0216198 0.00661731 -0.00193955 -0.0363133 0.0512661 -0.0890098 -0.0833511 -0.0705817 -0.0745182 -0.0103689 -0.0166161 0.0703472 0.03086 0.0191231 -0.056406 -0.00839746 0.0674697 0.0553214 0.0174813 -0.0352843 0.0668397 0.0527241 0.0327713 0.0023983 0.0744426 -0.0142092 0.0742825 0.0261851 -0.0860566 0.00159945 -0.00206461 -0.0121807 -0.0373106 0.0375481 0.0835967 0.0750043 0.0810814 -0.012102 -0.0700477 0.0343043 0.0211692 -0.0210945 -0.034712 0.0847906 0.0703849 -0.0411965 -0.00914547 -0.0342715 0.0195189 0.0264013 0.0382083 -0.0681642 -0.00106136 -0.0282478 -0.0435466 0.00573968 -0.0488696 -0.0146346 0.0152806 -0.0101889 0.057277 0.0610342 0.0401667 -0.000176055 0.0623978 0.0399872 0.0887278 0.069147 -0.0117248 0.0294823 -0.0131375 -0.0570475 -0.0797879 -0.0499584 0.0410212 0.0302525 -0.0461789 0.0567826 -0.0148985 -0.0275825 -0.00184927 -0.0433934 0.0440781 -0.019251 -0.0434583 -0.0206705 0.0461004 0.00263815 -0.0175673 0.00927896 -0.0385546 -0.0266768 0.0460556 0.00166454 -0.0162789 0.0379936 0.0837852 0.0644305 0.0435726 -0.0352094 -0.0522126 -0.00504423 0.00621457 0.023679 0.0108783 0.0338239 -0.0349619 0.0463661 -0.00581339 0.00141585 -0.0161421 -0.026425 0.0164578 -0.0569299 -0.0295047 0.0397216 0.000405557 0.0479789 -0.0132563 0.057654 0.00498583 0.0149862 -0.0444455 -0.0366634 -0.0155882 -0.0609885 0.0255718 -0.0512486 -0.0405952 -0.070403 -0.0708146 0.0189904 0.0279316 -0.0415916 -0.0541719 0.0354525 -0.0285242 0.0353865 0.0526366 -0.00315723 -0.0248218 0.0234672 -0.00995318 0.0435101 0.0136223 -0.0326948 -0.0142474 -0.0090431 -0.0771241 0.0691222 0.0276087 0.012429 -0.0249742 -0.0177733 -0.0100218 -0.0436673 -0.0328774 -0.0599405 0.0855663 0.0843683 0.0732974 0.0181593 0.0815644 0.0437946 0.0826594 0.0604403 0.0653723 0.0170383 -0.0135104 -0.0440519 -0.0376921 -0.0324511 0.00113523 -0.041939 0.0294039 -0.0580057 -0.0183386 -0.0578758 0.0566614 0.0245343 0.0301158 0.051579 0.0244809 0.0142266 0.0265277 -0.00230961 -0.0163433 -0.0234977 0.0358684 0.0614289 0.0363977 -0.0181654 -0.00386883 -0.0282011 -0.0453573 -0.0738664 -0.0407241 -0.0222263 0.0269293 -0.04701 0.024652 0.0127012 -0.0357874 0.0538152 0.0413445 0.0195208 0.047625 0.00127082 0.0125816 0.0239042 -0.0333313
internal_weight=66367.5 36028.8 30338.7 6154.18 31398.7 4630.11 3693.27 3642.3 4171.07 27227.6 24184.6 1348.66 987.81 2449.52 1447.15 705.848 2554.29 2344.61 1073.31 1407.22 1963.94 221.194 1700.96 1678.36 930.33 807.802 143.08 952.208 484.654 763.413 374.523 259.78 937.388 262.979 24673.3 15936 1086.33 933.867 152.464 1721.55 570.35 1151.2 866.2 406.625 305.054 396.454 166.918 159.677 23111.3 5094.57 1636.81 1536.37 100.444 179.841 922.97 656.58 451.95 567.862 1236.63 2231.95 801.949 111.449 309.321 741.298 397.362 211.282 78.6592 1002.37 314.963 1430.01 322.336 2460.91 628.068 595.654 439.475 163.022 337.498 14849.7 1811.58 1693.43 118.146 487.233 219.986 175.766 288.907 55.3134 13038.1 666.187 464.329 91.1523 65.1518 70.4968 156.179 135.589 836.609 53.9641 262.456 527.135 51.3827 475.752 103.302 266.388 117.519 518.672 491.888 188.579 84.1981 639.237 125.212 8737.32 325.057 26.7842 75.9073 46.2888 65.3392 425.073 284.665 98.7742 312.057 36.1067 204.63 970.244 424.213 161.448 262.765 748.031 236.702 92.9512 66.306 388.89 276.453 209.62 91.9719 117.648 58.8746 278.513 86.0251 99.7162 599.418 1639.47 254.924 24.7099 114.452 226.916 546.031 95.8543 284.326 196.594 131.014 65.5797 114.734 693.794 513.641 309.018 180.153 132.446 41.911 24.535 134.675 95.043 683.786 26.1515 51.3723 101.633 75.927 449.174 351.188 163.271 44.3057 42.5265 48.283 176.572 67.0271 88.2584 83.4578 204.623 135.507 110.321 96.6447 26.9121 148.87 109.992 90.785 62.0186 124.646 77.7838 52.807 125.993 168.268 102.507 504.786 78.1143 224.874 41.5714 35.8496 22.8046 203.65 178.694 54.6024 145.899 49.7642 12371.9 10274.5 1772.63 231.123 1541.51 179.819 1529.32 236.917 228.523 32.7546 75.2567 41.4341 358.987 321.559 70.8297 250.73 47.0554 149.175 101.555 39.7937 157.706 69.5426 117.576 235.865 14.8916 151.154 117.957 57.6246 38.3528 35.519 20.934 690.5 106.759 87.8264 71.4923 50.8319 93.7287 47.5453 163.724 95.2819 31.9374 63.3445 14.6565 44.3635 42.5417 26.0004 152.42 78.2801 63.3889 69.6467 62.388 33.8226 68.9314
internal_count=3050312 247572 2802740 375828 80236 167336 141620 86864 26616 53620 2426912 88700 80472 10936 7576 4760 9492 52920 83560 22576 69028 2116 64260 17836 11928 16932 1096 75132 2644 8336 5756 1848 30344 4768 44128 30172 2884 2128 756 15680 6916 8764 7600 4548 4132 13568 3592 1424 2343352 521092 151752 145828 5924 2592 2048 4960 3828 46060 37892 6900 2528 580 13460 2816 1888 1296 1244 3360 12672 4372 2592 234208 16884 16732 13228 5292 2204 27288 3752 3092 660 40948 1368 1268 12344 568 23536 1868 26368 2032 1752 2932 3504 2708 75004 260 11972 35480 2648 32832 3344 4180 2436 1464 1316 664 456 2612 1540 13956 712 148 484 2816 476 39652 18644 528 2292 252 1132 33712 18044 4624 13420 5908 8556 568 356 2580 7936 2640 928 1712 800 1620 2144 5812 5644 2832 672 476 1624 12200 15668 1664 3468 2668 1128 1540 820 16088 10288 7444 5800 2428 720 264 784 1336 4608 1356 220 968 1812 26044 17168 5768 568 168 4136 5016 2336 2348 1324 2844 7760 7028 388 1436 1744 720 2000 1620 1056 920 184 3292 7576 4884 15216 1020 796 260 1220 1104 5192 3796 1824 2396 1368 21668 18696 3772 1008 2764 620 2680 612 552 164 860 600 21756 18528 3048 15480 1176 11800 3680 480 472 1604 916 1236 264 2688 1496 888 2248 1264 328 1948 396 1208 580 496 4164 2996 2368 1140 232 908 104 452 376 280 536 360 220 1812 1352 260 2648
is_linear=0
shrinkage=0.05


Tree=2
num_leaves=255
num_cat=0
split_feature=6 11 11 7 9 3 10 3 3 6 4 3 8 3 10 3 11 7 4 4 11 3 10 3 10 3 7 10 6 6 9 2 8 11 3 11 6 1 8 7 10 8 1 3 10 9 6 7 4 5 1 11 11 2 4 8 9 2 4 6 7 1 8 7 7 4 8 6 9 6 4 4 8 1 11 4 8 10 1 5 10 10 6 10 11 5 3 6 6 10 6 10 1 7 2 7 2 2 10 9 7 10 11 7 5 4 8 10 4 1 6 0 4 10 4 9 6 4 11 3 5 0 6 5 7 7 4 8 5 8 11 0 5 0 3 7 3 5 1 10 9 8 7 5 0 6 6 3 11 0 2 9 0 11 4 7 11 7 11 10 4 7 11 2 9 9 8 7 9 7 11 9 6 9 2 6 5 3 9 7 4 9 8 8 9 6 4 5 8 4 5 1 6 10 6 1 9 7 8 3 4 2 1 5 11 11 7 6 9 8 11 10 0 5 5 9 6 2 2 11 10 9 1 6 9 11 10 4 5 7 11 1 10 11 3 4 4 2 4 11 9 9 10 5 7 6 4 10 1 8 11 2 3 4
split_gain=123404 7521.01 4310.51 3595.83 1649.62 1144.99 621.028 505.018 385.96 365.2 277.887 236.855 240.086 203.755 199.338 198.66 156.508 134.875 118.497 116.971 112.69 110.533 85.4916 75.9917 79.4033 70.1893 70.0282 68.0235 67.3847 65.3805 59.5941 101.309 151.559 116.221 59.2791 82.3471 75.0827 127.255 71.7326 50.8089 114.622 90.4585 90.2153 83.0333 52.9693 49.759 50.0091 48.4433 48.2288 51.608 47.7651 49.7136 47.654 46.4689 55.1402 44.0587 60.6253 43.0905 42.6636 41.7882 41.7361 109.067 72.2097 42.7049 41.2547 40.5459 39.9953 39.9698 39.8618 67.5031 42.7947 56.5337 52.3158 69.1689 65.6094 45.8352 78.4896 39.5808 38.7202 38.468 37.2515 37.1314 37.0338 36.6494 34.4907 34.2407 33.905 41.2077 33.0939 33.0921 32.5007 54.5971 32.4444 32.3229 31.7417 31.497 31.3917 31.3406 39.2582 30.9523 39.6363 38.5334 30.7371 30.2462 29.8676 29.863 29.6306 45.9056 67.7684 29.485 33.6817 29.2844 29.181 28.9324 31.3439 47.6343 28.6677 29.6913 28.5285 39.3874 43.581 39.2597 34.5789 36.452 28.2984 27.7007 27.4117 27.1531 26.9792 128.347 55.4645 51.3409 39.9929 36.6722 26.9578 33.4421 26.7244 26.5035 26.3804 40.4347 26.3092 26.0812 25.6403 30.3442 48.0501 28.8885 25.6218 25.4431 25.0763 25.0259 24.9467 35.6501 24.8056 24.799 107.912 149.007 78.9169 49.7983 50.0263 47.2885 25.3529 28.8209 25.2228 24.69 26.6739 45.1293 24.4788 49.9559 27.1506 34.2238 24.3109 24.0493 24.0469 40.4475 34.0942 33.1596 23.7807 26.1382 23.5898 23.5739 25.4415 23.9669 28.0116 23.4227 40.8086 23.0546 24.4008 40.3502 54.3023 22.9714 42.3324 29.5455 40.7323 27.1349 30.1573 32.2527 24.3772 23.7863 22.8507 22.7997 22.6427 22.5898 22.4273 33.4991 27.3705 27.5433 22.2955 21.9721 40.6378 22.3926 28.2884 21.9552 21.6691 21.6036 21.516 21.4201 24.0556 21.3898 22.5066 20.9898 36.3273 28.7455 25.8011 25.5646 21.6775 20.8138 20.7768 20.7598 22.5705 24.1911 20.6523 27.4733 20.649 20.6429 20.5657 20.554 20.3832 27.8911 20.2649 29.9971 26.4387 29.9305 20.2404 20.1386 20.075 20.0411 20.0273 19.9309 35.0106 27.5971 19.8998 19.8812 19.8756 19.7855
threshold=-0.0011443178822749497 -0.0051208684314406989 -0.014510689820264148 0.0080919066439673528 -0.0023078964063001496 0.12896394343780174 0.016012504252187604 -0.00091979920011559988 0.012841791446397952 0.0062966896404726509 -0.12644746359579581 0.0037406593637641507 -0.069125938591996991 0.0023233802920176504 0.0087364781750545011 0.0034150202032510505 -0.030844110247980849 -0.28424761440943552 0.016994575445107005 0.0052441464926576012 -0.069913833436373085 0.029900128883184506 -0.37328698912332725 0.16126758507693714 -0.010857293090280747 0.0071197490967685505 0.036093121666376057 -0.54961706846743297 0.087487514771806177 0.036832213888972357 -0.020967527282074048 -0.30434433008799033 -0.063122777340746797 -0.043504862194066594 0.094825188302942467 -0.11255253560225294 -0.016817548119071747 -0.18815785693698658 -0.052605783686053446 0.012536306183197852 0.0090962521389616018 0.55345168250883869 -0.25597090994616928 0.011633790189714601 -0.09138266636916044 -0.0087603075903347986 0.032194216059201558 -0.21599562526946567 -0.25295238469823728 0.049438240260142603 -0.18814721042386903 -0.035681725152576844 -0.056351122880539388 -0.53940848209609549 -0.27822399538296855 -0.057445649198166644 -0.015930425500958297 -0.34990994733638608 -0.16344942522021946 -0.0037341950360373498 -0.18338193111625953 -0.043241944532623096 0.55345168250883869 -0.17322913365450768 -0.0093157948725072475 0.0012824485916565003 -0.024025948327828246 -0.0053528004884638497 0.0097913787116486028 -0.16157349970545437 -0.10749505154895564 -0.19953583690333437 -0.072304593469979181 -0.19455881273770928 -0.0278115662458444 -0.24035566722904447 -0.13356983362512823 -0.49976292326798805 -0.39914916668166073 -0.043185567702448448 -0.17870511280289889 -0.066640956328940987 -0.27502255945808129 0.03279430213874996 -0.0012290296471839498 0.55345037671951858 0.087036387810745117 0.32112089848331798 0.015865109188418953 -0.17870511280289889 -0.20384631279379267 -0.13194863121661382 -0.81922570278752349 -0.094367125275449479 -0.80124671205615949 -0.23751047763683034 -0.061805022780290091 -0.58520398816031072 -0.0070933998761869991 -0.020967527282074048 -0.031065433424718649 -0.030923820506320546 -0.0094313505044060983 -0.022005003214867497 0.0091273492590348022 -0.020648505166811795 -0.16892844476605676 -0.3220307814935422 -0.22956010659440954 -0.026031596032088197 -0.080937962658131177 -0.0206771744507958 1.0000000180025095e-35 -0.070610681527339944 0.083976074722338409 -0.075786225284831935 -0.025912556525844645 -0.047464537923618141 -0.035681725152576844 0.04670431540134181 -0.060079882291592744 -0.15986572612921493 -0.033697851535998545 -0.011396621005978248 -0.037543994709454943 -0.16330910151342237 -0.012052950834124098 -0.16892844476605676 -0.025737400471277493 -0.044212328664895391 -0.032414878587955241 -0.18287072567577348 -0.039987514808217092 -0.17802080463986217 0.12311084401861426 -0.32261902924505498 0.26919224083991095 -0.032565626279608191 -0.80567252556838798 -0.19673181536079323 0.0095184728406304524 -0.050407305540827244 -0.012780042620197298 -0.033909458287368743 -0.18394719935678933 -0.0037341950360373498 0.0017051035727872002 0.17413604612246347 -0.13463675546212836 -0.79298884049080343 -0.84151781773137257 0.0016089344464114501 -0.0206771744507958 -0.15325864092306202 -0.35893300228320052 -0.46635611873155453 -0.11255253560225294 -0.38097867799402457 -0.13463675546212836 -0.45706731900926428 -0.43997263629139932 -0.42401997498009997 -0.1229132716764131 -0.92241978331708208 0.060317956463042305 0.2774621365651776 -0.013475202971758299 0.0018818515096468503 0.011621377983258952 -0.004620757747748499 -0.015500325678226649 -0.0068123213888002989 -0.0053528004884638497 0.030548385608164103 -0.13355954051754451 -0.016817548119071747 0.0045655230540928007 0.037716798559644459 0.42025571948624574 -0.094367125275449479 -0.13380101131779068 -0.28979608596477197 0.55345168250883869 -0.057445649198166644 -0.0087603075903347986 -0.012737332371508299 -0.028008953561667497 -0.048683248244467646 -0.052605783686053446 -0.03277455472126594 -0.046708312815733795 -0.033299860080101489 -0.016817548119071747 0.17944532487135278 -0.12821713237764051 -0.39914916668166073 0.17840006072362638 -0.028071369281564597 0.020872678744717803 -0.097811551263700086 -0.22152202202279583 -0.860558144957008 -0.81922570278752349 -0.10974279303783244 -0.078910147583590926 -0.059403154550195542 -0.38097867799402457 0.010765714641625101 0.038444671510728008 0.0056220971936392005 -0.00061643596570749989 0.038223193788960101 -0.037024064000987691 0.0075482640393880014 0.0051463921224322003 0.010425110225704101 -0.099414693945381341 -0.58520398816031072 -0.58055194707199431 -0.069913833436373085 -0.066640956328940987 0.012204005205538352 -0.82007817403570293 0.23481056830309144 0.015142669876547152 0.037107303243100208 -0.062367009757924689 0.032043446353741456 0.050181724526052206 -0.36186433957191361 -0.053306540503378193 -0.8201001857399064 -0.11936271619282564 -0.13463675546212836 0.32720020841178094 0.10847480103699822 -0.014690781057536049 -0.4863848020715848 -0.010757513111148047 -0.053306540503378193 -0.015930425500958297 -0.011625047342769998 -0.18742118614482259 -0.0058304278926451488 -0.42401997498009997 -0.0053528004884638497 0.004138247329055351 -0.0016140911644208996 -0.05936091625151519 -0.0098954303160121975 0.016801975702707955 -0.79166511019106456 0.17924753160133941 -0.047464537923618141
decision_type=2 2 2 2 2 2 2 2 2 2 2 2 2 2 2 2 2 2 2 2 2 2 2 2 2 2 2 2 2 2 2 2 2 2 2 2 2 2 2 2 2 2 2 2 2 2 2 2 2 2 2 2 2 2 2 2 2 2 2 2 2 2 2 2 2 2 2 2 2 2 2 2 2 2 2 2 2 2 2 2 2 2 2 2 2 2 2 2 2 2 2 2 2 2 2 2 2 2 2 2 2 2 2 2 2 2 2 2 2 2 2 2 2 2 2 2 2 2 2 2 2 2 2 2 2 2 2 2 2 2 2 2 2 2 2 2 2 2 2 2 2 2 2 2 2 2 2 2 2 2 2 2 2 2 2 2 2 2 2 2 2 2 2 2 2 2 2 2 2 2 2 2 2 2 2 2 2 2 2 2 2 2 2 2 2 2 2 2 2 2 2 2 2 2 2 2 2 2 2 2 2 2 2 2 2 2 2 2 2 2 2 2 2 2 2 2 2 2 2 2 2 2 2 2 2 2 2 2 2 2 2 2 2 2 2 2 2 2 2 2 2 2 2 2 2 2 2 2 2 2 2 2 2 2
left_child=1 4 3 5 7 11 13 30 59 14 17 45 202 172 19 149 21 22 34 96 65 64 244 24 118 26 97 -11 94 52 153 32 -32 183 36 106 99 38 -38 40 41 43 105 44 58 46 -2 -48 127 215 51 55 85 93 252 -35 -57 -49 125 68 89 166 63 -63 81 -10 -66 -39 112 232 71 75 -72 74 78 76 77 -71 -74 -40 -77 124 -56 -17 152 -12 87 104 213 -47 91 250 -73 138 201 -94 247 -5 -99 -9 101 126 146 -75 219 -43 -36 108 -108 217 136 -69 -6 114 115 -20 -76 -118 -22 121 251 245 123 -122 230 199 -101 -25 129 -33 142 -132 133 -133 135 -88 -111 -129 -37 -140 -100 -58 143 -131 -145 -144 176 -24 -110 211 -51 -152 -15 -1 155 162 159 158 -156 206 161 -158 -155 -79 -165 -166 168 -168 169 -62 -96 -143 173 212 -174 -175 -21 -178 -154 180 181 -30 -183 -34 -185 -159 187 -187 -189 193 -191 192 197 194 -151 196 -196 -192 -59 -29 -44 -19 -13 -204 -205 -206 -157 208 209 -46 -211 -8 -3 -18 -115 -50 -217 -92 -219 -23 221 -221 -223 224 -224 -220 -170 228 229 -54 -14 -232 -70 -200 -139 -87 237 -222 239 -81 -240 -242 -203 -114 -7 -120 -128 -4 -249 -250 -86 -121 -55 -31
right_child=2 6 9 25 8 10 15 18 20 27 29 12 16 84 -16 83 88 28 113 102 23 86 147 48 -26 -27 -28 39 179 253 31 128 33 50 35 53 37 67 79 -41 -42 42 200 -45 207 60 47 57 49 150 -52 -53 227 54 82 56 141 198 -60 -61 61 62 -64 -65 66 -67 -68 111 69 70 72 92 73 103 116 80 -78 163 -80 238 -82 -83 -84 -85 90 235 134 -89 -90 -91 109 -93 95 -95 170 -97 -98 98 140 100 -102 -103 -104 -105 -106 -107 107 -109 148 110 -112 -113 243 214 -116 -117 117 -119 119 120 122 -123 -124 -125 -126 -127 246 137 -130 130 131 132 -134 -135 -136 -137 -138 234 139 -141 -142 171 145 144 -146 -147 -148 -149 -150 189 151 -153 178 154 157 156 160 185 -160 -161 -162 -163 -164 164 165 -167 167 -169 226 -171 -172 -173 174 175 -176 -177 177 -179 -180 -181 -182 182 -184 184 -186 186 -188 188 -190 190 191 -193 -194 -195 195 -197 -198 -199 233 -201 -202 242 203 204 205 -207 -208 -209 -210 210 -212 -213 -214 -215 -216 216 -218 218 225 220 236 222 223 -225 -226 -227 -228 -229 -230 -231 231 -233 -234 -235 -236 -237 -238 -239 240 -241 241 -243 -244 -245 -246 -247 -248 248 249 -251 -252 -253 -254 -255
leaf_value=0.083702005676624003 0.052951616130484186 0.046172819965065198 0.0069560337325358327 0.023894606312738639 0.061625985908719816 0.064381104405377462 0.078603024962612844 0.072713681132481611 0.054567370996463742 0.064701940738888963 -0.042662714778946981 0.08157911179623005 0.032669717916078207 0.0096011229168590801 -0.073713715049600684 -0.047096665697393354 -0.020859150309747651 -0.08725598434758787 0.05502335055904304 -0.079933048271930082 0.036185009383411154 0.022307818018740086 0.011733270585714196 0.052470149214669831 -0.041005243242132672 -0.082785510508284699 -0.077206030072861531 -0.088657097675902199 0.033596627053463689 -0.0602893956676979 0.069413723622275769 0.07859312533322782 0.082764608826028221 -0.10001262511502154 0.070394084516626182 0.071677036757312129 0.042475557345920852 0.067016684354491443 0.074022008987082485 -0.084467030366797952 -0.083847600174542847 0.06007230139293937 -0.017942840590151245 -0.07730008559966367 -0.060580179263275892 0.048029774058712019 0.04883917928846334 0.019843463889044625 0.0068687203116777687 0.034363775016495159 0.065318712535287538 -0.09990580114092118 0.079725498415692389 -0.026528706385907638 0.034387497620175386 -0.10023528022312962 0.072455442400444645 -0.082853828925731621 0.064502960709761567 0.016507190852088773 0.035438871357786964 0.027189244624902128 0.074236906976548347 -0.076911031274030386 0.040281327575769979 -0.077762110108041224 -0.048692085162611649 0.046338975448088238 0.063711116802358622 0.085434300845212474 0.06153993492267669 0.029762828597468823 -0.096613281522783104 0.075451043838024798 0.0072721436387056361 0.070212997098198685 -0.062736603042394076 0.058480770415596323 0.077191288052497975 -0.0013057452733804208 0.010655450718701279 0.055064976363848356 -0.064515880665840949 -0.080767495239907686 -0.069301015977598412 0.072711043868574174 0.045325020530331273 -0.090204132846226887 -0.068283103944670673 -0.090087282660592224 -0.086918188770283789 -0.08725623814715619 0.043862223538568695 -0.054108318655117539 -0.064839139365750989 -0.079563832000641557 -0.08875248299538864 -0.060453492844325232 -0.025770093979152822 0.049657788380099009 0.072181870773449786 -0.098683572542774711 -0.072765121396759863 0.019038620342283097 -0.085375136408380306 -0.048461167770064963 0.05387452321104709 0.073341231465841691 0.013078193565005834 -0.0063213155189129032 -0.075583781066497852 -0.094467854360150802 -0.00037811662499957413 -0.096071775685702701 -0.065928044961808707 -0.073329605395929739 -0.0094457334822019012 -0.096712858298758836 0.039087380189497173 0.054389600783999237 -0.07159832970036327 -0.044435732323941268 -0.082213905733187362 0.02678807543789127 -0.066765865174725755 -0.079283654194845316 -0.096922151280007363 -0.089953462132240314 0.080268361100893137 0.066389981458779265 0.058692544569882182 -0.10005431068879134 -0.075915966645232466 0.040279401276079416 0.010644458510856929 -0.073379370151766043 -0.067541178425008425 0.071506183643450835 0.040981029594767196 -0.078991401891123192 0.078834839974968554 -0.10025360856532434 -0.10005078224733455 0.073645784393690267 -0.065315130572364918 0.056687423966000933 -0.06532804374574093 -0.088626900220365498 -0.057464982133157705 0.022252184372832287 0.037156028751271754 -0.033533220656213308 -0.089102737505579371 0.077578960319242163 0.067233892861354158 0.046182085142223939 0.071360359615417202 0.080778840633162208 -0.10001807147259839 -0.099881715212798927 -0.091088053317463127 -0.09833116984479906 0.051508054948322238 0.041757291798399307 -0.076184942312007717 0.046658833295962675 0.055445323273852681 -0.011589661387821585 -0.084149493758685703 -0.049456234090991612 0.081907195361087509 0.078213200928743412 -0.045071897992114217 0.016324925861424762 0.018488552330980706 -0.067344846078545947 0.062957328805398269 -0.086070294568814321 0.076221548603102457 -0.077193075315925036 0.038112580109437237 -0.059195647884628902 0.030847263234609026 -0.048054676985126846 0.080544399666505076 0.064069596083492206 0.080323698564747456 0.086049488922948114 -0.10015255287613177 0.068622270532247065 -0.091987246509943874 0.03062570836005242 -0.055403506261365587 -0.078845767106768341 -0.089620854374849124 -0.080565661379974118 0.015776026389942879 0.044273601369624577 0.056481119405683691 0.013166705110386784 -0.08585631700926194 0.062067765459020922 0.060982674533441139 0.037841215452461885 -0.089859712707572731 0.0091461231794903123 -0.042715222695851991 -0.073008511418438574 0.049071228836313402 -0.087022797702455468 0.052806143083605664 -0.089416361583788906 -0.096043489188206335 -0.085767158045917322 0.038033830841830457 -0.037642864737044479 -0.088509249486042718 0.07049019051718429 -0.028386684324310553 -0.070439716690627693 -0.088795189459154669 0.060587989121378832 0.047319748607462686 0.0362391771646196 -0.08924103201838228 0.025196163923490045 -0.0013702404283134214 -0.08070647510288996 0.015421434713130178 -0.088936916003134955 0.052490985515717348 -0.092243723043129111 -0.058003126223461945 -0.090877013767287004 -0.087002129922978649 -0.043308035065203941 -0.012996885220138888 0.059388900958216521 -0.097484370152562394 -0.099075789294843425 0.078345258452527128 -0.081305237448402373 -0.088046737561811445 0.048448317468451664 0.023360101920800503 -0.06771722673351975 0.034965781864204008 -0.069216829331684965 0.018594992431929244 -0.027917774594674118 0.055635086042214704 -0.012339863274157229 0.058579518958258983 -0.084769075625272028
leaf_weight=3967.5517873936333 438.55569918709807 175.84854219015688 132.5305826831609 24.383786547841737 837.80201839523943 43.439891673624516 9.9258220465853793 2271.2490750264042 157.57802000358788 7.7696883487478763 19.290553851053119 33.171324491500854 72.486504633387085 96.869090343243442 544.78485283044574 94.925757116172463 98.517442490643589 3.2495945026166728 23.623378993012011 5.855719200801107 204.72001002443722 73.735175204259576 9.1543621891178208 35.116467939224094 55.719066332814691 2170.580665312038 164.41592075675726 6.7214083224534944 8.7951364635955525 112.26832968648523 467.1060591526475 1337.9592356243811 44.528608323074877 11.299440211616455 432.87956940894946 73.349609337747097 80.016208115615882 780.80610458436422 7.9370877891778937 18641.834420050742 3458.1378245269298 31.241880094166845 19.025070957373828 1097.7781908506586 113.10378571739784 152.56679717911175 129.14249471839503 129.55236577102914 13.782012850046156 31.16645525675267 12.435651276260613 23.981975779403001 2.4506295705214134 8.5305961631238443 13.228049407713113 9.299165744334454 22.950916195288297 17.771944036940116 14.860987739171831 91.636883679777384 96.459911481812014 11.960810611024497 12.05716027645394 55.871218602180306 20.792859568464337 6.0093523028772315 32.176568151451647 253.34108356029901 353.65144510884056 25.07152240537107 244.12980403678375 16.683781791944057 3.615144093520942 68.370559989940375 30.421483842656016 88.418300116900355 28.739978900179267 20.811325312592089 28.207980503328145 11.778986239980439 37.343723193276674 113.00784790163743 33.270676331158029 543.72346299653873 3.5759780369698992 17.865113015752289 6.6198575454764059 14.54342300025746 104.89281733543612 4.4636824680492273 12.759795605204998 10.857294725719838 6.4064369737170628 8.2394515220075828 16.66767688817345 26.757219484541565 12.351726913591845 65.747669316129759 16.604042071616281 174.40069507681619 222.25769555009902 4.8052292759530237 139.39047328883316 36.416763590183109 10.550637188134713 7.9508766056969753 129.47614339104621 126.42802355811 34.557868578471243 48.407814695554407 77.703176118637202 3.7471831748262039 31.320926740881987 3.0890575265511862 17.935295841423795 10.415554780978708 17.754662058723625 21.61085229832679 140.51755560879246 26.590267735999078 14.649108334444461 17.060738851316273 25.849432691218681 26.345566244330257 10.012787384446709 19.307863903464749 5.6717404075898212 8.1351721337996441 2311.641334482003 189.17669411562383 30.796342585701495 5.7399678099900511 21.0452223662287 24.637107532471418 16.489632658194751 57.214444023091346 28.217661574250087 7.822809574659912 164.51471364115059 7.3363220421597353 9.4218357196077687 4.9609038862399757 5.4883025735616684 13.113414995372297 11.835420362651346 6.3309103753417713 22.192879876063671 20.36228679260239 19.824639372993261 22.582452136557549 23.316326242871583 75.881462183970143 12.198315030895172 506.77122743427753 10.825462997891011 132.00599186960608 6.5242156768217683 13464.145153536097 7.6165413931012145 6.1824954692274323 18.154297137167305 4.0589679330587405 113.56234755273908 18.616939499042928 21.34394491223793 11.507151639554648 125.0064650636632 35.737709345761687 10.416735570295712 13.537482337218533 3.3976342007517806 3.0471525893372107 30.065147547284141 165.48563506454229 70.740457366769988 12.754300436470656 15.724344339687379 3.6195318039972326 2.6213804967701426 62.144594157631218 9.6785167734487896 107.818713841094 9.3894966214429569 11.291679279878737 13.598148856312035 236.09970039506152 280.07711953436956 6.9908550232648841 8.9007546231150609 14.347301020985467 3.8387618046253946 21.010205917526037 65.708486307004932 36.417034270707518 7.1457007648423341 31.697592924756464 23.622350960969925 19.3312768170872 7.3931594109162688 30.193106662947688 34.582618467044085 30.33702604426071 91.888488725759089 91.584138487873133 8.6383636375903716 37.607886074274575 7.4512049870099863 141.80175876896828 10.595128479413686 5.6175548790488401 10.156947828596454 2.4179062806069842 2.7198679135181001 14.737104951316722 94.163618071121164 53.223504760186188 41.262905540410429 6.6182349701412013 186.51168540300569 32.121444818563759 3.5545445559546343 10.462169067934154 3.562840633094317 9.4627574356272799 15.763154771178959 20.073982640169561 27.835877358913422 47.230822414887371 15.349117298144845 16.048224516212944 5.4645502874627701 8.1968034352175874 3.5193072999827555 3.5025993287563306 2.7712778584100306 4.8548911940306416 30.471111751743592 29.772126599214971 5.3935301145538714 23.491465704049915 10.200742666609585 4.1220031073316905 2.4249984147027126 64.831407980760559 95.161867450908176 4.5339220170862964 5.8444651132449508 28.769082608108874 55.167793177301064 75.580719230332761 29.318455202970654 19.237899425439537 35.026319284588681 311.74066266673617
leaf_count=6660 4148 2296 4568 700 4792 412 56 7956 1916 124 1260 104 1476 3476 56688 7828 5384 316 344 424 3696 2020 340 388 3040 211172 15544 664 316 9596 1332 2360 60 68 1400 380 704 2816 20 1836924 355368 408 1036 111048 10264 2268 1628 3160 416 884 36 228 28 184 116 68 68 1332 172 2220 1920 248 92 4148 344 448 1928 2280 2144 48 1752 204 136 340 564 452 1024 140 100 72 728 1536 1288 56560 272 196 128 1160 9484 364 1304 1056 72 224 1424 1168 1252 5816 908 1172 616 108 14036 660 1028 652 916 380 448 2416 7280 196 452 128 1352 608 492 820 2448 304 1036 776 2148 632 588 1692 192 676 4564 388 116 44 188 96 764 4904 2688 72 1896 340 68 52 32 20 60 32 1960 1900 544 756 512 4896 1092 864 28 468 32 23396 64 72 232 92 308 156 632 132 1496 1272 692 604 20 12 1512 4580 1932 792 200 396 20 6228 320 9252 312 64 24 796 480 12 56 196 284 600 4644 3204 616 2904 960 336 116 1172 3736 312 716 1324 480 1168 160 14208 280 676 296 208 120 1432 1600 2936 3652 80 11088 2132 292 160 88 236 1320 688 1116 4764 676 1372 76 528 176 244 288 360 1572 436 168 416 36 168 228 580 2500 332 96 2444 1556 4668 496 676 280 31832
internal_value=1.04803e-10 0.066247 -0.0728642 -0.0338744 0.0720443 0.00021193 -0.0306372 0.0758314 0.0375683 -0.0819451 -0.0454592 0.0192134 0.00172825 -0.00340632 -0.0528879 -0.0608032 -0.011975 -0.0149746 0.0615783 -0.0297895 0.0117858 0.00167557 0.0197626 0.00429113 0.0154905 -0.0797435 -0.0562101 -0.0832179 -0.0379753 -0.0689745 0.0789438 0.0738315 0.0551156 0.0126821 0.0629013 0.0525838 0.065802 0.0552951 0.0110654 -0.0832665 -0.0787914 -0.0674591 -0.0196016 -0.0705217 -0.0494035 0.033752 0.0423285 0.0261161 -0.0162033 -0.025848 -0.0254839 -0.0404322 -0.0368942 0.0323382 0.00148699 -0.0127681 0.0117192 0.00756897 -0.0108405 0.0495392 0.0223476 0.0135625 -0.0385136 -0.058555 0.0256504 0.0497063 -0.0137661 0.0613864 0.0510206 0.044613 0.0361143 0.0215408 0.0458736 0.0273432 -0.00205082 0.0311699 0.00986747 0.0313017 0.0574469 -0.0288769 0.052528 0.0356321 -0.0363797 -0.0757628 -0.0243354 0.00632574 -0.0183188 -0.00869762 -0.0480471 0.0441037 -0.0308463 0.00996416 -0.0271097 0.0433007 0.0104047 -0.0557208 -0.0106763 -0.0264913 -0.0398785 0.0704242 0.0578328 0.0411111 -0.0609382 0.055846 -0.00329616 0.0380546 0.0619414 0.0501491 0.0342013 -0.0355415 -0.0523879 0.0442866 0.0586319 0.0176795 -0.0124364 0.0157487 -0.029182 -0.0573536 0.0220554 0.0115286 -0.011178 0.0273103 -0.036926 -0.00836949 0.0127946 -0.0307556 0.0447242 0.0265397 0.0767847 0.0718927 0.0428014 0.00763704 -0.0229396 0.0137623 -0.0463472 -0.0610693 -0.0288658 -0.0220785 0.0465739 0.0358594 0.0120988 0.045347 0.0555973 0.0595546 0.00772444 -0.0160946 -0.026153 -0.057501 -0.0126377 -0.0237789 -0.0046578 -0.0169178 0.000384591 0.0801914 0.0792509 0.0613273 0.0204919 0.0802672 -0.00184111 0.0354334 -0.0552307 0.00627857 0.0728062 0.0125247 -0.00605782 -0.033155 0.0270266 0.0405417 0.0123724 0.0249908 -0.0399908 -0.032345 0.0210955 0.0271877 -0.000468274 0.0103378 0.00834787 0.035072 -0.0598594 -0.0516894 -0.0400083 -0.0460089 -0.0519824 0.0610505 0.0222033 0.0803754 0.0701672 0.0588788 -0.0182407 -0.027269 -0.0121522 -0.0226982 -0.0353036 -0.0427307 -0.0272665 -0.0451684 -0.00870179 0.0216982 -0.0479008 -0.00537341 -0.0617542 0.0384846 0.0431476 0.0375981 0.0220081 -0.00934723 0.0414323 -0.0591491 -0.0450583 -0.0527967 0.0030108 0.0456912 0.0440066 -0.0293052 0.0337742 -0.0513628 -0.0598566 -0.0240357 -0.0202723 0.000849189 -0.0108565 -0.0353631 -0.00665776 -0.0310956 -0.0640654 -0.02318 -0.0239122 -0.0592884 -0.029402 -0.0665934 0.0220418 -0.0343497 0.0625118 0.00911071 0.0300424 0.0479197 0.0165598 0.0435839 -0.0437299 -0.0664243 -0.0031317 0.0323988 0.0509565 0.0325435 0.0362167 0.035749 -0.0299891 -0.00737419 -0.01928 -0.00829226 0.0420532 0.0263777 0.0419111 -0.0782874
internal_weight=63912.7 33476.5 30436.3 5749.6 31586.4 3298.45 1890.04 28460.1 3126.28 24686.6 969.12 2329.33 1057.5 993.347 1035.97 896.694 794.609 422.022 5100.95 491.183 991.289 576.461 168.118 827.702 535.224 2451.15 280.573 23650.7 253.903 547.098 23359.2 4582.26 624.5 157.394 4951.73 1086.66 3865.06 1180.83 142.94 23642.9 5001.08 1542.94 92.8004 1450.14 352.359 1271.83 725.918 287.363 292.478 238.633 87.9752 75.5396 123.089 343.496 90.0556 51.5576 40.2581 158.22 71.0834 2134.99 545.914 388.883 79.8892 67.832 262.138 163.587 52.9694 1037.89 2043.35 1109.4 752.228 301.7 450.527 206.397 101.61 251.853 126.091 97.3509 31.8231 62.9238 125.762 209.168 46.4987 638.649 535.733 42.0106 314.323 233.999 218.147 157.03 424.044 43.7517 49.8474 253.44 56.0769 33.1637 304.4 116.157 91.7735 2684.23 412.98 190.722 186.783 104.787 219.456 39.1928 743.166 310.287 183.859 380.292 154.329 257.088 933.954 149.227 51.9742 34.0389 69.787 39.3655 479.505 274.784 112.672 162.112 66.8441 40.9947 96.1606 56.2224 185.917 53.8457 3957.76 1646.12 308.163 82.2186 51.4223 30.3771 80.3239 63.8343 76.6255 18.7293 245.201 171.851 26.0259 30.959 225.945 214.126 24.9488 11.8192 47.3925 29.5166 54.3825 258.045 130.364 99.1978 111.689 18776.9 14809.4 794.711 174.377 14014.7 18.442 145.64 28.7375 10.5832 620.334 72.2794 51.468 32.8511 308.994 160.744 148.25 109.997 20.0653 8.00806 457.614 356.808 100.806 178.24 25.1996 19.3439 14.8197 197.826 135.682 126.003 117.208 69.4184 24.8898 13996.2 532.068 251.991 15.8916 245.701 124.236 109.889 88.8785 121.465 85.0481 62.4656 30.7681 23.17 28.6677 36.9145 53.6077 36.0116 262.89 229.719 137.83 46.2462 139.457 281.275 139.473 128.878 15.7745 12.3437 178.568 113.255 97.2527 108.268 94.4864 225.964 213.204 208.905 135.17 71.3724 39.2509 28.7888 19.326 206.586 38.2526 81.0788 33.848 18.4989 86.1479 13.6614 357.171 10.8958 10.5941 22.72 63.7978 33.3267 54.9867 35.2705 19.7163 14.3227 32.762 96.1523 138.602 145.051 11.5162 292.048 159.518 130.749 32.8944 45.8282 43.5569 424.009
internal_count=3050312 247572 2802740 375828 125232 141620 122340 73076 52156 2426912 73964 67656 42808 43188 88192 79152 39016 23880 29444 31504 32172 22716 5152 29808 15088 234208 23036 2338720 18728 50084 43632 9912 2012 680 25412 8396 17016 6876 1584 2338596 501672 146304 5832 140472 29424 24848 10628 6480 14720 13296 532 496 8656 4708 1868 268 200 4852 3700 19984 14220 11588 4488 4396 6476 2364 2272 5292 17764 11940 9620 4756 4864 3112 2112 3312 2132 1108 236 880 1180 4204 1404 64388 31956 1816 16240 10444 16300 2632 27368 1824 1444 2840 2300 1240 14488 7492 6792 10140 2184 1568 17016 1000 9284 1060 3688 2288 1908 25544 12384 2476 5824 4032 2304 952 1876 1312 12048 8352 4796 3556 3816 1668 2668 3528 1460 1424 7900 3336 976 444 328 140 5796 5032 5104 1036 2616 2236 976 132 532 468 80 64 2980 2240 992 14764 6292 5408 4588 33720 27060 2228 1056 24832 92 700 356 124 1172 1060 920 764 7100 2768 4332 2524 1444 64 11232 7788 3444 5372 1020 596 1112 16428 10200 9880 9564 148 88 24740 1344 864 68 14500 6060 5864 5264 8440 5236 4480 1576 620 1692 1836 4772 856 3792 3688 2972 1648 628 25724 11516 11236 972 264 2416 6816 1728 7004 6588 13160 11856 8256 6236 3936 1804 1644 1408 11776 1808 6840 2076 1400 2080 604 2320 360 360 556 2300 728 860 488 372 204 540 1032 2912 2780 288 13236 8668 6224 768 980 464 41428
is_linear=0
shrinkage=0.05


Tree=3
num_leaves=255
num_cat=0
split_feature=6 11 11 7 9 3 3 6 10 3 3 10 4 10 7 10 3 8 7 8 3 4 3 6 4 9 4 11 10 6 11 11 8 7 10 4 3 6 7 5 8 10 6 3 6 3 6 6 10 7 7 3 1 10 4 6 2 11 2 1 8 4 11 7 9 3 4 7 6 11 4 7 6 11 3 6 7 8 4 6 6 6 11 0 11 6 10 7 11 8 5 10 6 6 5 9 11 9 4 11 0 11 7 10 5 0 4 0 1 0 1 3 0 0 11 9 10 11 2 4 6 0 5 1 4 11 9 5 5 2 2 6 2 1 7 3 9 10 10 7 9 6 10 0 10 2 10 8 4 7 6 9 5 2 5 10 11 5 11 3 11 6 9 11 1 11 10 3 4 2 10 6 9 2 4 3 8 8 6 11 2 3 4 8 7 1 6 11 8 10 10 5 7 4 11 0 8 9 4 10 6 5 0 4 9 8 7 8 11 1 8 9 1 8 6 8 11 8 2 10 11 0 3 5 11 1 0 10 3 10 6 9 5 0 6 5 2 9 8 1 8 11 10 11 5 4 7 4 7 11 11 5 9 5
split_gain=107363 7120.03 3541.59 2352.15 1437.36 839.487 546.449 541.912 466.086 409.496 401.898 232.543 219.418 132.351 131.264 241.482 184.927 129.708 114.334 99.6494 149.99 95.6569 89.514 83.1247 82.9949 63.6754 77.4572 63.2535 62.0844 62.0821 57.9208 54.1693 54.2223 49.4713 47.4262 55.4554 44.9756 99.5656 43.5745 43.371 42.2491 39.9255 38.7451 38.7225 38.1149 37.6523 72.8315 34.9792 34.5443 34.5379 33.2445 39.7387 35.4434 31.9871 41.5108 31.5659 36.5634 45.2041 34.9463 31.1906 30.8919 90.4263 107.032 52.6284 30.2097 29.7782 42.0174 47.7205 37.0748 47.3099 29.4584 43.7827 29.2978 36.4482 28.7715 27.9502 33.2926 28.1143 27.2732 44.2222 60.1081 27.2512 26.9414 26.918 26.8326 26.4475 26.0525 33.4416 26.0358 36.9081 25.8434 25.4913 27.4785 25.1861 37.9871 43.2036 24.6554 24.3492 23.7135 23.5413 23.4712 23.3972 58.2782 60.4703 23.9185 23.175 23.0666 23.0415 23.0006 34.3655 24.3002 22.3961 22.3226 22.3062 22.3043 22.6585 22.2634 22.0825 28.1007 21.968 21.9286 21.8307 21.801 21.6179 48.8652 21.5207 21.4685 21.4642 32.7155 21.2029 26.9718 21.8758 21.1735 21.1134 38.6508 24.2386 22.0834 21.1615 20.9869 35.6111 22.3846 29.4415 20.9265 23.5788 20.8752 36.4056 20.8511 20.6487 24.7951 47.8176 22.8851 20.7797 20.5906 20.555 20.3991 20.3047 31.1852 20.1803 20.1711 20.0749 28.9197 20.0733 20.0349 19.9786 28.265 19.85 21.9097 19.7907 19.7276 19.4364 19.3836 19.3162 36.8565 31.5637 27.6367 25.2122 22.2043 19.176 21.2001 29.3627 40.2364 44.4691 19.7905 33.2533 20.3701 47.9695 24.7559 22.6889 24.1126 22.5468 19.1694 19.038 19.0354 19.0138 19.0036 18.8326 54.8972 20.4376 20.4219 43.3114 27.0432 23.4773 27.1487 19.6838 26.9277 24.7817 24.2629 19.6792 19.2253 48.6019 69.9105 45.5711 26.0349 81.0403 23.1804 20.3276 23.9852 18.7807 25.9641 18.7262 18.5865 18.5405 18.5236 25.6952 18.5155 18.494 18.4339 18.4234 18.9313 18.3622 18.1907 18.1792 23.8856 18.1603 18.1524 18.0588 28.4101 18.0537 29.1668 28.6532 20.1358 18.0522 22.0554 18.0405 17.9427 17.8697 17.8046 36.6536 66.5558 35.283 26.5504 24.1889 25.673 22.5044
threshold=1.0000000180025095e-35 -0.0051208684314406989 -0.030844110247980849 0.0144421964462035 -0.0036000604661147496 0.11769017193283492 0.0044461753098808008 0.0072822815344884507 -0.0016140911644208996 0.0034150202032510505 -0.00091979920011559988 0.025531447553388754 -0.12644746359579581 0.012784269819060451 0.00093045892046080014 -0.0024359132607099493 0.037038435587124857 0.55345168250883869 -0.19437252447328937 -0.079379052946775441 0.029900128883184506 0.0067766762045335513 0.012258305295678401 0.010189167648754502 0.024989040811650851 0.089840472119542311 -0.29065198555554334 -0.022173725017560746 -0.080298948518300786 0.047403530054281308 -0.039480651132545841 0.014725521605596151 0.042596122378084002 -0.42401997498009997 0.011348186551744152 0.004138247329055351 0.084305023372126364 -0.041353102561949941 -0.012780042620197298 -0.076046880561629185 -0.16892844476605676 0.042254263206817355 0.087487514771806177 0.010469194674006602 -0.0053528004884638497 0.051341747139760259 -0.064412001986201242 0.43285969950051556 -0.070610681527339944 -0.0016551859263429498 -0.16330910151342237 0.085743170838529156 -0.39064885853141179 -0.013941135128088299 0.01191631888346425 -0.033697851535998545 -0.31261515621743585 -0.056351122880539388 -0.42951263886762253 -0.39295399975301909 -0.16892844476605676 -0.24035566722904447 -0.1229132716764131 -0.30408080774733159 0.19741495472491108 0.17413604612246347 -0.31447601059798125 -0.03427590385478619 -0.012737332371508299 0.0034851393165160507 -0.35893300228320052 -0.28424761440943552 0.0017051035727872002 -0.0185048139437352 -0.030289559117112296 0.16326477110661797 -0.088325248584681479 -0.0082547878837527979 0.019490654407717207 0.055285472227270906 0.051953718291672606 -0.0053528004884638497 -0.041332853669893248 -0.041677155463381042 -0.056351122880539388 -0.0070417584737915992 -0.036009524897050893 -0.0079521609962977993 -0.024980455160325047 -0.014431950152272549 -0.020754592919229597 0.012432449816659303 -0.0023611826409917496 0.38763946199004112 -0.076046880561629185 -0.045850665031876792 -0.032414878587955241 -0.0068123213888002989 0.13180343654772139 -0.029222736150252848 -0.80232040444726049 -0.1229132716764131 -0.38097867799402457 -0.49976292326798805 -0.10308635648357883 -0.18394719935678933 -0.34083536514497531 -0.058934641638092443 -0.81984089167170671 -0.037024064000987691 -0.82004829563639225 0.029215998351413003 -0.79740196362543325 -0.77059482515112132 -0.13463675546212836 -0.075786225284831935 -0.41206756856360677 -0.13463675546212836 -0.29600890174120426 0.013367469517494903 0.055285472227270906 -0.79298884049080343 -0.079793982544549794 -0.39879068728181094 -0.047464537923618141 -0.07425207018393358 0.042134909962338908 0.55345037671951858 -0.0098953648483379487 -0.80932431204420141 -0.85331657492910318 0.011855241961441802 -0.034503629244598495 -0.028559670700480048 -0.20500397823205826 -0.0041234346931765488 0.3745146473164036 -0.29217141335086366 -0.49976292326798805 -0.38097867799402457 -0.16081446118297701 -0.0070417584737915992 0.0026791527975899006 -0.18287072567577348 -0.35613972902495855 -0.92241978331708208 -0.21601721745796007 -0.11692829522648018 -0.35893300228320052 -0.36186433957191361 0.028811027497725454 -0.058310599633589387 0.010494681549180552 -0.85331657492910318 -0.16031423612869342 -0.10757137916985975 -0.032414878587955241 -0.036952947491603494 0.0012088177966029002 0.10667023150960027 -0.011809935970341299 0.18192787227269494 -0.005164085215007299 0.013528547987759902 -0.05936091625151519 -0.012699880577415947 -0.24709373687888592 0.037038435587124857 -0.069156665575148435 -0.70229882383449371 -0.54961706846743297 0.0113362788040359 0.0088898264960561527 -0.12098811164903468 0.011539725421222452 0.0068093114637186513 0.0056220971936392005 0.55345168250883869 0.031555241304327609 -0.13463675546212836 -0.34990994733638608 0.022058644991549053 -0.24035566722904447 -0.0090989123780098984 -0.14163947445964131 -0.39589153747766798 0.090018883729212004 -0.095961094187020188 -0.033224734666489592 -0.20646283863969964 -0.28094693016191841 0.021524978313041954 -0.11642066879864633 0.098845865413028408 -0.022173725017560746 -0.054563182967296141 -0.14331710907691808 0.064001495472964159 -0.24035566722904447 -0.3220307814935422 -0.050790057717385893 -0.11720875688876993 -0.04361123760616404 -0.20677863447599126 1.0000000180025095e-35 -0.1251025942406935 -0.18338193111625953 -0.022801650109796148 -0.037527284001714595 -0.19455881273770928 -0.060169399918410839 0.011028602760730101 -0.42057647723941954 -0.088925820413791393 -0.064412001986201242 -0.072304593469979181 -0.012699880577415947 -0.010731891695639898 -0.28903895389933626 -0.028834653269411547 -0.056351122880539388 -0.07850022557289639 0.13983475648902582 0.049438240260142603 -0.015500325678226649 -0.18625395415456042 -0.12294203725085108 -0.43357729050978283 0.036394362652385055 -0.35613972902495855 0.024607947286801251 0.021424756102765553 -0.092008122788676039 -0.3798214038034195 0.00042346322955030005 -0.0013229513959471999 -0.30369413992649302 0.027740093243044654 -0.14331710907691808 -0.82004829563639225 -0.088925820413791393 -0.010979898947191898 -0.26929759568530948 -0.0136161854781121 -0.053010741973248239 -0.094216892404849692 -0.23751047763683034 -0.11877985274241108 -0.21599562526946567 -0.11255253560225294 -0.10350079252243893 -0.10308635648357883 -0.097335858174731379 -0.092008122788676039
decision_type=2 2 2 2 2 2 2 2 2 2 2 2 2 2 2 2 2 2 2 2 2 2 2 2 2 2 2 2 2 2 2 2 2 2 2 2 2 2 2 2 2 2 2 2 2 2 2 2 2 2 2 2 2 2 2 2 2 2 2 2 2 2 2 2 2 2 2 2 2 2 2 2 2 2 2 2 2 2 2 2 2 2 2 2 2 2 2 2 2 2 2 2 2 2 2 2 2 2 2 2 2 2 2 2 2 2 2 2 2 2 2 2 2 2 2 2 2 2 2 2 2 2 2 2 2 2 2 2 2 2 2 2 2 2 2 2 2 2 2 2 2 2 2 2 2 2 2 2 2 2 2 2 2 2 2 2 2 2 2 2 2 2 2 2 2 2 2 2 2 2 2 2 2 2 2 2 2 2 2 2 2 2 2 2 2 2 2 2 2 2 2 2 2 2 2 2 2 2 2 2 2 2 2 2 2 2 2 2 2 2 2 2 2 2 2 2 2 2 2 2 2 2 2 2 2 2 2 2 2 2 2 2 2 2 2 2 2 2 2 2 2 2 2 2 2 2 2 2 2 2 2 2 2 2
left_child=1 4 3 5 10 19 13 8 22 49 44 65 18 133 15 16 31 78 33 147 23 45 72 82 27 -19 -27 36 90 84 70 32 75 116 35 83 237 40 -13 169 96 225 120 81 60 55 101 114 98 112 106 52 119 85 -55 -12 57 192 -59 -60 -1 62 138 144 222 68 190 -68 113 111 71 161 217 219 -34 76 77 224 79 80 165 126 221 163 127 159 -84 -88 99 -90 -24 92 -69 94 95 122 245 -58 125 -78 -72 -47 103 -103 -105 -99 -22 -83 109 -81 -111 235 194 -8 -35 -116 -7 -48 -119 123 -20 -15 153 124 155 -23 -29 128 -14 130 -54 -131 246 135 136 -3 -135 -138 139 140 -62 -142 195 -144 -64 -146 -108 -2 149 150 -149 -151 -94 -5 -39 -52 -157 -89 -137 241 -161 -25 -127 164 -10 166 -18 -56 -86 -32 -77 172 173 174 175 243 -177 178 220 -180 182 -182 183 -181 189 -186 -187 -188 -189 -184 -67 -168 -57 -129 -6 197 -197 208 199 200 -198 -200 -203 206 207 -206 -204 -205 -114 210 212 -212 213 231 -215 -214 -217 218 -4 -74 -102 -21 -42 -224 -9 -40 -227 -33 -229 -185 -117 232 -210 -46 -37 236 -70 -11 -239 -240 -241 242 -45 -16 -31 -38 -63 248 250 -250 -248 -252 -253 -251
right_child=2 6 7 93 9 12 11 14 34 24 21 38 29 121 171 -17 17 25 42 20 50 48 28 30 -26 26 -28 43 -30 244 39 227 74 47 -36 234 37 154 41 -41 64 -43 -44 53 233 46 117 -49 -50 -51 51 -53 129 54 167 56 97 58 59 -61 61 132 63 -65 -66 66 67 91 69 -71 100 -73 73 -75 -76 170 88 -79 -80 108 -82 107 86 -85 168 -87 87 157 89 -91 -92 -93 152 -95 -96 -97 -98 105 -100 -101 177 102 -104 104 -106 -107 146 -109 -110 110 -112 -113 142 -115 115 230 -118 118 -120 -121 -122 -123 -124 -125 -126 162 -128 193 -130 131 -132 -133 -134 134 -136 158 137 -139 -140 -141 141 -143 143 -145 145 -147 -148 148 -150 151 -152 -153 -154 -155 -156 156 -158 -159 -160 160 -162 -163 -164 -165 -166 -167 191 -169 -170 -171 -172 -173 -174 -175 -176 176 -178 -179 179 180 181 -183 184 229 185 186 187 188 -190 -191 -192 -193 -194 -195 -196 196 198 -199 201 -201 -202 202 203 204 205 -207 -208 -209 209 -211 211 -213 215 214 -216 216 -218 -219 -220 -221 -222 -223 223 -225 -226 226 -228 228 -230 -231 -232 -233 -234 -235 -236 -237 -238 238 239 240 -242 -243 -244 -245 -246 -247 247 -249 249 253 251 252 -254 -255
